4.298125e-02 -2.830807e+00 -7.841852e-01 2.447749e+00 -7.269350e-01 -4.616455e-02 -7.140369e-01 -9.864527e-01 6.289127e-01 -4.471391e-01 8.064599e-01 4.639454e-01 -1.853310e+00 -9.578297e-01 -4.867481e-01 6.140718e-01 -1.590348e+00 -1.141628e-01 5.226955e-01 -4.098131e-01 5.854240e-02 4.870478e-01 8.506855e-01 -3.032599e+00 2.001511e-01 1.436894e+00 -4.313557e-01 -2.312676e-02 -2.919291e-01 -2.950037e-01 -2.448771e-01 4.275092e-01 2.708604e-03 -5.378209e-01 2.402362e-01 1.685412e-01 -3.316450e-02 -1.075280e-01 -1.140615e+00 2.304395e-02 -3.218344e-01 4.592173e-01 1.945016e-01 3.018526e-01 -5.133063e-01 -7.596722e-02 -1.190919e+00 -1.149991e-01 3.267487e-01 3.056909e+00 1.771753e-01 4.244941e-01 -4.028445e-01 1.914609e-01 2.426817e-01 8.099470e-01 3.016123e-01 -1.190018e+00 -1.871164e+00 5.140035e-01 8.179703e-01 -1.518887e+00 -3.059569e-01 -3.325634e-01 -2.100385e+00 3.004413e+00 3.199144e-03 4.757796e-01 -1.053916e-01 -3.762800e-01 1.835636e-01 -4.277233e-01 -7.140432e-01 6.818895e-01 2.579835e-01 -1.322637e+00 -2.742360e+00 2.791594e+00 -1.099148e+00 4.584697e-01 2.939110e-01 -1.030483e+00 -2.741571e-01 -1.486942e+00 3.577838e+00 -9.778148e-02 -7.949442e-01 -1.917176e+00 -1.285322e+00 4.494224e-01 -2.788745e-02 8.313103e-01 -3.080956e-02 -1.914422e-01 3.770184e-01 -5.372702e-01 -1.073597e+00 3.218873e-01 -9.515607e-03 -3.900976e+00 -2.993912e-01 7.174818e-01 -9.906573e-03 4.870423e-01 6.203069e-01 -1.233174e+00 -2.593997e-02 -1.183550e-02 -2.034362e-01 4.189793e-02 -1.041119e+00 -3.876568e-02 7.188606e-01 -1.545179e-02 -1.330836e+00 -1.162845e+00 -6.150588e-02 -8.861253e-02 -2.719474e-01 5.043938e-01 7.022536e-01 3.353444e-01 -4.457489e+00 2.598332e-01 3.850346e-01 -1.748805e-01 6.879099e-01 -3.529478e-01
1.905714e-02 1.589373e-02 3.714572e-02 -6.490999e-02 -2.137227e-02 -9.848587e-03 4.619435e-03 5.375968e-02 1.678215e-03 -2.026502e-02 2.366646e-02 6.729069e-02 2.528857e-02 3.933563e-02 8.181760e-02 8.891606e-02 2.767465e-02 -1.360219e-01 3.338687e-02 -1.282174e-01 -1.141944e-02 6.493084e-03 -4.522239e-02 1.214312e-02 5.208177e-02 1.565547e-01 1.575755e-02 8.599471e-03 3.999400e-02 -4.616188e-03 3.074384e-02 4.460413e-01 4.144819e-02 -1.927791e-02 1.127703e-01 5.496122e-02 1.362203e-02 -1.008266e-01 4.007231e-03 1.371464e-01 -9.642676e-03 -3.009769e-02 3.627604e-02 9.019890e-03 2.932391e-03 -8.461257e-02 -9.577813e-02 2.250240e-02 -3.544568e-02 3.623047e-02 1.301440e-02 -1.023616e-02 -2.846328e-02 -7.815624e-03 -5.257431e-02 4.547288e-02 -3.412489e-02 -1.977275e-02 -5.079114e-02 1.577764e-02 1.320695e-01 -8.722473e-05 -2.589330e-02 8.183154e-02 -7.087654e-02 2.011231e-01 -8.751126e-03 -6.363402e-02 -6.108832e-02 4.288182e-02 3.838509e-02 1.468041e-02 -1.097392e-01 1.442427e-01 3.199841e-02 5.468452e-02 -2.805898e-02 -6.035025e-02 5.411604e-02 5.197750e-02 -2.821054e-02 -1.859401e-01 -2.874715e-02 1.156253e-02 -1.008445e-01 -1.738346e-02 3.504457e-01 -5.932683e-02 1.827285e-02 -7.411234e-02 2.045068e-02 1.884938e-01 1.009192e-03 9.180086e-02 5.783867e-02 -4.256364e-02 -4.781610e-02 1.001152e-01 -2.942411e-02 8.588731e-03 5.557695e-02 -9.383041e-02 4.786992e-02 9.396114e-03 3.900405e-02 2.748638e-02 -2.259757e-02 5.289048e-03 1.370709e-02 1.884072e-01 -1.833607e-02 -5.910628e-03 -1.666068e-01 -2.428148e-02 6.589980e-02 4.214209e-02 -8.481550e-03 5.759080e-02 -1.211290e-01 4.580519e-02 6.706952e-02 -4.718016e-02 2.802328e-02 7.326361e-02 -5.653404e-02 1.976802e-02 2.916206e-03 -2.821927e-02
4.741694e-01 -5.529895e-01 -3.819550e-02 -5.839147e-01 9.067141e-02 -1.067147e-01 6.042517e-01 5.415838e-01 -1.710317e-02 -2.443393e-01 1.821443e+00 -1.322165e+00 1.137359e-01 -5.730623e-02 2.810988e-02 1.496351e-01 2.903473e-01 -9.151372e-02 1.184227e-01 9.468995e-02 -1.192898e-01 -8.074824e-01 3.668005e-01 -3.141315e-01 -9.550381e-02 1.354408e+00 -4.889463e-01 1.302814e-01 -1.048136e+00 -9.903480e-01 2.089430e-01 -2.661059e+00 -2.062509e-02 3.113275e-01 1.241544e+00 1.054922e-01 -3.768888e-01 -2.606106e-01 1.481964e-02 5.869375e-01 6.287692e-02 -3.979947e-01 -2.222697e-02 -3.825624e-01 -1.807190e-01 9.035153e-03 2.457130e-01 4.591142e-01 3.308440e-01 -3.824096e-01 -2.870285e-03 1.153218e-01 -1.421661e-01 -6.950475e-01 -1.291382e-02 -1.053342e-01 -3.588776e-02 -3.098066e-02 -1.001406e+00 -3.813806e-01 1.108815e-01 -4.146036e-02 -2.797407e-02 -4.642973e-02 1.220021e-03 -1.866358e+00 -1.644382e-02 -1.330876e-01 -2.508787e-01 1.548921e-01 1.545811e-01 5.594045e-02 3.068687e-02 2.449940e-01 -2.678392e-01 -7.395747e-02 -7.882040e-01 -1.404801e+00 1.293060e-01 -1.841101e-01 -5.923926e-01 -4.821217e-01 4.951750e-02 -7.508582e-03 -9.664446e-02 -1.271014e+00 2.303641e-02 3.562269e-01 1.232197e-01 7.187222e-01 1.796106e-02 -2.448440e+00 -3.181235e-03 5.482510e-02 -8.527521e-02 2.557761e-01 -2.237295e+00 3.122817e-02 4.457495e-02 1.370022e-01 1.332616e-01 1.074597e+00 -2.323055e-03 -1.958072e-01 1.702638e-01 -6.566218e-01 1.545650e-02 -1.158148e-02 -1.133686e-01 -1.792157e-01 1.861834e-02 -3.514349e-02 -3.343341e-01 3.369959e-02 -2.248675e-01 -4.876632e-02 -8.407077e-02 2.944279e-02 -3.262971e-01 -4.012885e+00 -5.125806e-02 -2.655968e-01 5.383211e-01 -2.268880e-01 5.869811e-03 -4.066231e-01 -1.869950e+00 -1.124192e+00
-6.292298e-01 3.443357e-01 5.317944e-01 3.522061e+00 -4.096708e-01 -2.327838e-01 -3.717562e+00 -3.646937e+00 4.243001e-01 2.662019e-01 -3.447334e+00 -2.465362e-01 -3.125467e-01 -8.546402e-02 -7.407473e-01 4.982876e-01 -4.205466e-01 -4.999812e-01 7.624822e-01 -1.256392e-01 -3.020174e-03 -2.637493e+00 -1.371958e+00 1.460375e-01 3.208424e-01 1.020873e+00 -7.717556e-01 -4.003171e-01 3.515620e-01 2.598656e-01 -7.099360e-01 9.118614e-01 1.893441e-01 1.829369e+00 5.596727e-01 8.994302e-01 -3.811550e+00 3.510707e-02 -2.952684e-01 -2.592965e-01 -2.358246e+00 -3.198558e-01 -3.704649e-02 1.032134e+00 -6.136778e-01 -6.166075e-01 -3.065166e-01 3.167410e-01 -1.735031e-01 2.745718e+00 4.945785e-01 7.767998e-02 1.027176e-01 -2.453443e-01 -4.635504e-01 3.674117e-01 2.647046e-01 -4.611284e+00 -1.718750e+00 8.065494e-01 -1.212247e+00 9.076447e-01 3.164126e-01 -6.556755e-01 -1.837834e+00 6.003361e+00 1.117368e-03 3.904361e-01 -7.114261e-01 -3.408926e-01 -6.367955e-02 7.355195e-01 -1.342768e-01 -1.343546e-01 -1.194994e-01 -1.462505e+00 -2.841375e-01 3.680998e+00 2.432708e-01 -6.336586e-01 2.257740e-01 -1.386310e+00 -4.180095e-01 -1.286511e+00 5.301207e+00 8.406400e-01 2.861832e-02 -6.540570e-01 -4.162150e+00 -5.249759e-01 1.235572e-02 -6.551839e-01 1.115835e-02 3.374704e-01 -3.406706e-01 -6.661035e-01 -2.892908e-01 3.407829e-02 6.115592e-03 -5.337779e-01 -6.269428e-01 -7.109912e-01 1.411468e-02 6.609105e-01 9.800511e-01 9.862465e-03 -9.686926e-03 3.546106e-02 4.746582e-02 1.934063e-01 -1.945287e+00 9.951869e-04 5.504852e-01 5.508387e-03 -3.372047e-01 -1.414749e+00 -1.888721e+00 -5.366484e-01 4.422553e-01 3.353279e-01 -4.137395e-03 7.961800e-01 -1.438889e-01 -2.994307e-01 5.072685e-01 2.039233e-01 1.436736e-01 -8.809264e-02
-3.984831e-01 5.018852e-01 8.758454e-01 5.443868e-01 -2.103685e-01 1.350402e-01 -5.063597e-01 1.283911e-01 1.771258e-01 -2.526388e-01 -2.954781e+00 -2.014451e-01 -1.892818e-02 3.084396e-02 -3.462783e-01 8.188779e-01 -7.156817e-04 -3.114110e-01 7.004665e-02 4.470260e-01 -5.781849e-01 -6.708463e-01 -1.551785e+00 -9.415992e-02 2.083284e-01 4.336157e-01 1.655979e-01 4.211747e-01 8.617936e-01 6.803758e-01 -3.944310e-01 -1.141039e+00 1.792137e-01 5.243883e-01 4.551736e-01 4.637815e-02 -2.167529e+00 3.386870e-02 4.105065e-01 2.907299e-01 5.734628e-01 -4.084243e-01 -2.524158e-01 -8.902702e-02 1.765292e-01 -3.573843e-01 -6.656815e-01 -1.836247e-01 4.053582e-01 -1.293702e+00 4.231441e-01 4.020894e-01 2.760548e-01 -3.322075e-02 -1.752621e-01 -5.526135e-01 2.983845e-01 -1.078675e+00 -5.089891e-02 4.718429e-01 -5.796816e-01 5.207211e-01 -9.242370e-02 -7.196298e-01 -1.153673e-01 6.777684e-02 5.578301e-02 -4.361380e-01 -2.667754e-01 2.034214e-01 3.669970e-01 -6.052088e-01 3.393037e-01 -5.711196e-02 4.210746e-03 -1.535774e+00 -1.510255e-01 1.264199e+00 5.093359e-01 -3.985911e-01 1.669841e-01 -2.967224e-01 1.579080e-01 1.941604e-01 5.457262e-01 1.012377e+00 -6.722181e-01 2.182988e-01 -8.921703e-01 -2.073092e-01 7.952437e-03 2.426339e-01 1.393528e-02 -4.128101e-01 6.028635e-01 -5.411814e-01 -4.450634e-01 2.604336e-01 -2.271846e-02 -2.617252e-01 -1.694979e-01 -5.925679e-01 -2.481577e-02 8.646178e-01 2.055243e-01 -2.273624e-01 1.829788e-02 -2.504327e-02 -2.618486e-01 4.068022e-01 2.292476e-03 -3.843834e-03 4.020131e-01 3.206443e-02 2.393074e-01 -1.195778e+00 9.054155e-01 -3.735632e-01 5.316976e-02 -2.951393e-01 6.934770e-01 -6.543085e-02 -2.127219e-01 -9.028909e-02 5.762425e-02 3.065175e-01 -7.339977e-02 1.997762e-01
8.702464e-02 -4.337850e-01 -4.655842e-01 -4.571346e-02 2.280847e-01 8.290624e-03 7.884037e-01 -1.444954e-02 2.534741e-01 4.801728e-02 -6.428506e-01 1.040157e-01 4.924658e-01 1.953225e-01 3.576220e-01 3.101465e-01 -7.162592e-01 6.034423e-01 2.026379e-01 3.819425e-01 -5.341107e-02 -2.435730e-02 -1.698576e-01 -6.274579e-01 4.247158e-01 3.307652e-01 -2.121216e-01 -6.847529e-02 -2.265580e-01 -1.394685e-02 3.568715e-01 -3.319899e+00 1.837098e-01 2.797778e-01 7.682936e-01 -1.010429e-01 1.499576e+00 3.099073e-01 -5.756564e-02 1.086889e-01 -2.202396e-03 -9.096429e-01 3.640150e-02 3.737529e-01 1.744486e-01 3.438425e-01 1.014754e-01 3.411581e-01 3.267392e-01 -7.190548e-01 -6.885916e-02 4.639160e-01 -2.302697e-01 4.104369e-01 -8.931967e-02 -2.635293e-01 -2.770722e-01 2.908131e-01 2.140892e+00 -8.009455e-01 -2.609663e-01 -1.559920e-01 1.408136e-01 2.522106e-01 2.310769e-01 -3.162722e+00 8.101410e-03 1.543401e-01 -1.936623e-01 -2.199481e-01 -2.145328e-01 -6.104976e-02 -7.041828e-01 4.668088e-01 -2.952858e-01 -2.551840e-01 5.412654e-01 -1.458478e+00 -2.912403e-01 2.080902e-01 -7.751494e-02 -2.645080e+00 1.229663e-01 -5.067749e-02 -1.848893e+00 -5.681336e+00 -2.724896e+00 -3.097847e-01 -7.853158e-02 5.368232e-01 -2.333410e-02 8.179979e-01 2.050724e-02 -2.072713e-01 5.826155e-01 3.252240e-01 -1.393613e-01 9.420601e-02 3.155631e-02 1.020163e+00 -1.082887e-01 1.945008e-01 -1.124461e-03 2.144501e-01 2.081191e-01 5.449804e-01 2.416211e-02 8.891310e-03 -1.487735e-02 1.765811e-01 8.900268e-02 -2.229890e-02 1.282562e-01 -1.029870e-02 -3.475752e-01 -7.201836e-02 -1.002884e+00 -1.609821e-01 -3.016451e-01 -1.800354e-01 8.526172e-01 2.531918e-01 3.462170e-01 -3.116950e-01 -1.263192e-02 -2.007487e-01 4.207436e-01 -5.001730e-01
-9.007463e-02 -2.799053e-01 -1.138941e+00 -4.171322e-01 -3.824640e-02 -1.517564e-01 -5.624344e-01 -1.746878e-01 3.019473e-01 9.666934e-02 2.295472e-01 -5.701228e-03 -1.435346e-01 2.019163e-02 -2.323380e-02 3.840448e-01 2.479051e-02 -2.898820e-02 1.175690e-01 1.287523e-01 -7.707324e-02 2.561333e-02 -1.098080e-02 2.805677e-01 2.949235e-01 -3.693528e-01 2.290086e-02 3.112312e-02 1.934409e-01 -4.618591e-01 8.748847e-02 -1.367805e+00 -8.099259e-01 1.519584e-02 -6.102172e-01 -2.800786e-01 1.478608e-01 -5.397969e-01 -1.329918e-02 1.708507e-01 -1.339840e-01 3.908760e-01 1.789044e-01 -4.658354e-01 9.069085e-03 -1.373496e-01 -6.034495e-02 1.748199e-01 5.352798e-01 -2.008881e-01 -2.314692e-01 1.762726e-01 2.434617e-02 -7.587311e-01 -1.168472e-01 8.646651e-02 2.460844e-01 3.747170e-02 2.179763e-01 -3.907603e-01 -8.934802e-01 -9.256294e-02 3.878307e-02 -3.039247e-01 7.324160e-01 9.546340e-01 -2.989401e-03 6.379060e-02 -1.977134e-01 -2.249798e-02 1.215974e-01 8.723889e-02 -1.567661e-01 3.293252e-01 1.103303e-02 -1.800373e-01 -4.688201e-02 6.766484e-01 4.935365e-02 4.066193e-01 -7.448708e-01 -1.680294e+00 2.209822e-01 -4.369171e-01 -4.730766e-01 6.052012e-02 -1.152179e+00 -2.437978e-01 1.399878e-01 1.140396e-01 -1.216135e-02 -8.998362e-02 7.472487e-03 -3.255813e-01 -7.559409e-02 -5.508107e-01 1.161338e-02 3.394598e-01 -3.833278e-03 -2.283628e-02 -1.061220e-01 2.288270e-01 3.316071e-03 3.981620e-01 1.370641e-01 -8.284711e-02 -1.364660e-02 2.026896e-02 2.442272e-02 3.529998e-01 1.028904e-01 -1.298898e-02 -3.094652e-01 1.774712e-02 8.200933e-02 3.251550e-01 -1.014380e-02 -1.908581e-01 2.760040e-01 1.686155e-01 -2.848944e-01 -3.227971e-01 4.737630e-01 -4.509459e-01 -5.420409e-01 -1.316596e-01 3.515859e-01 -9.618841e-01
-9.894446e-01 -6.883923e-01 -9.036379e-01 3.784609e-01 3.237113e-01 -2.077698e-01 6.519032e-01 2.433124e-01 -4.465761e-01 2.979418e-01 -4.528102e-01 -7.744932e-01 -3.465185e+00 -4.069357e-02 -3.993457e-02 1.648859e-01 -1.334786e-01 -1.503793e-01 2.413746e-01 2.131466e-01 2.084899e-02 6.487405e-02 -2.466035e-01 -2.050956e-01 2.548853e-01 1.071115e-01 -5.058470e-01 4.524942e-01 -5.619820e-02 2.906039e-01 -2.988891e-01 -1.946628e+00 2.929637e-02 1.569758e-01 -1.039026e-01 -2.840991e-01 -4.907392e-03 6.766130e-01 3.613509e-02 8.657368e-01 2.427550e-01 2.917997e-01 -7.935480e-01 4.210085e-01 -7.258102e-02 2.195204e-01 4.023817e-01 -3.714128e-01 9.161454e-02 -6.876228e-02 -1.373046e-01 -3.389297e-01 -2.969730e-01 4.738758e-01 -4.242489e-02 -1.017956e+00 -2.045601e-01 2.527384e-01 1.357939e-01 -4.383565e-02 -3.485847e-01 2.694441e-04 -4.477828e+00 3.299776e-01 -2.427848e-01 -5.851534e+00 7.199978e-03 -9.141194e-01 -2.729997e-01 -3.193326e-01 4.855165e-01 -8.660490e-02 -5.226644e-01 6.249182e-04 -2.139861e-02 -3.695829e-01 -1.606186e-02 7.065367e-01 -1.559984e-01 -1.079124e-02 2.124326e+00 -7.286627e-01 -3.049480e+00 1.274519e-01 5.316567e-01 -1.300105e-01 -6.093985e-01 4.404525e-02 -1.531154e-01 -5.331580e-02 -3.794408e-02 -4.238179e-01 3.713907e-03 -4.927610e-01 1.954782e-01 9.440971e-02 1.664590e-01 -1.708725e+00 3.428015e-02 -9.488088e-02 -1.460920e-01 -6.698323e-01 8.503732e-03 -5.341914e-01 1.198811e-01 8.081422e-02 8.796201e-03 -4.513808e-02 2.063821e-01 -3.978743e-01 -1.911431e-01 1.254649e-02 3.931502e-01 1.633452e-02 7.649562e-01 2.693486e-02 -3.723740e-01 6.736252e-01 -4.121527e-02 3.286270e-01 2.445322e-01 3.180457e-01 5.027444e-01 1.463962e-01 1.594708e-01 -6.062432e-01 -8.163984e-02 7.909842e-01
-1.718491e-01 -1.824159e-01 5.222694e-01 -3.660725e-03 1.503111e-03 -3.240077e-02 5.019790e-02 -1.575118e-02 -5.040053e-02 7.856622e-02 -2.089604e-02 -4.203060e-02 -3.575909e-02 1.016861e-03 1.400552e-01 3.005734e-04 2.572896e-02 3.524371e-02 4.186704e-02 3.700316e-02 1.122033e-01 -2.535395e-02 9.528418e-04 1.036129e-01 4.658050e-02 -1.762104e-01 -2.931480e-02 -9.317975e-02 -8.838964e-02 -1.643002e-02 3.438279e-02 -4.275543e-01 1.297361e-02 -5.746598e-02 2.259396e-01 -1.724915e-02 1.072198e-01 -2.023222e+00 -1.710300e-02 -8.533400e-02 -1.540604e-02 -5.221221e-02 -4.880102e-03 7.173207e-02 -3.965874e-02 9.889692e-03 -3.893543e-02 -5.560020e-02 -6.491982e-02 -6.267159e-02 -1.961733e-02 4.758760e-02 -5.469375e-02 -5.967498e-02 2.063761e-02 -9.501083e-02 -1.041045e-01 -1.276735e-01 2.548994e-02 -5.586227e-03 2.373411e-02 -4.653167e-03 -1.819331e-03 7.188661e-02 -1.849058e-01 -6.824902e-01 -2.501602e-02 -2.157690e-02 -7.328144e-02 -8.357627e-03 -5.932229e-02 6.906663e-03 5.191685e-02 3.603764e-02 1.121456e-02 -1.379555e-02 4.686782e-02 1.645664e-03 -1.594269e-02 -7.778259e-02 2.375623e-01 -6.503596e-01 1.197919e-01 9.384792e-02 6.400975e-02 3.060905e-02 -1.992435e+00 4.259557e-02 3.275919e-02 3.597869e-02 8.539860e-03 1.436575e-01 -2.765969e-03 6.056462e-02 -1.119489e-01 -2.165909e-02 -3.361500e-02 5.436133e-02 1.063662e-03 -1.485538e-01 3.456580e-03 4.137411e-03 1.066395e-02 -2.068130e-02 2.018406e-02 3.236680e-03 3.178137e-02 3.195964e-02 5.754938e-02 -1.149439e-02 1.482566e-02 -6.963943e-03 6.564338e-02 2.606247e-03 -4.919867e-02 -8.348093e-02 -3.693553e-02 -7.105611e-02 6.973932e-02 -7.224669e-02 -1.285548e-02 3.956229e-02 -6.040159e-02 -1.007927e-01 4.406315e-02 -1.276541e-01 7.545680e-03 9.308624e-02
3.453242e-01 -9.666623e-01 -1.226115e-02 -2.224568e-01 -4.489825e-02 1.232217e-01 7.136242e-01 1.487055e-01 -3.579927e-02 -8.555259e-02 -7.778324e-02 4.181247e-01 -3.581188e-02 -1.733238e-01 3.148558e-03 1.649407e-01 -3.093740e-01 1.302044e-01 -8.117758e-02 -2.307758e-01 -4.595625e-01 -1.854706e-02 2.084233e-01 6.060266e-02 -1.773117e-01 -1.276593e-01 -3.635647e-03 2.149407e-01 5.277197e-01 -3.269289e-01 1.048639e-01 -4.469820e+00 2.631545e-01 -2.977200e-01 3.398740e-01 4.349224e-02 1.918328e+00 -5.789086e-01 -6.129050e-02 4.844877e-01 2.848582e-02 -6.850835e-01 -1.854643e-01 -4.225135e-01 1.650982e-01 1.291169e-01 -1.773648e-01 2.065492e-01 -6.931914e-02 5.472357e-01 2.465533e-02 1.605864e-01 -2.716161e-01 5.605546e-01 -1.809571e-01 -7.716190e-01 -1.621111e-01 2.822742e-01 3.800326e-01 -7.668416e-02 -1.534785e-01 3.983020e-01 -3.417034e-01 2.094894e-01 -2.128884e-01 -1.964400e+00 -1.255635e-02 -3.122158e-01 1.692451e-01 -5.681279e-02 -9.250688e-02 6.405896e-02 2.355413e-01 -2.351639e-01 8.907760e-02 -6.527521e-02 -2.370475e-02 -5.988709e-01 3.752664e-01 -3.614379e-01 -4.609949e-01 1.611471e-01 2.128071e-01 -1.281285e-01 -3.411050e+00 -2.526028e+00 -5.573702e+00 2.088849e-01 1.152146e-01 -1.926024e-02 4.282006e-02 9.493420e-01 3.560990e-02 1.110876e-01 3.129957e-02 9.781846e-02 -2.118805e-01 5.772478e-01 1.154632e-03 4.844540e-02 8.719830e-02 1.447269e-01 1.091425e-02 6.597272e-01 6.679314e-02 -3.453605e-01 -1.389384e-02 -1.970946e-02 -6.911071e-02 2.178333e-01 5.635184e-02 2.126592e-02 -2.376501e-01 -2.556029e-02 3.799040e-01 -3.034412e-02 -1.645975e-01 -1.067277e-01 3.390765e-01 -7.400568e-01 1.973300e-01 -6.565379e-02 -4.326249e-01 -6.579930e-04 -3.014792e-01 -1.855396e-03 5.411574e-01 -6.866279e-02
1.401550e-01 1.207708e-01 5.098369e-01 2.786983e-01 -2.943357e-01 -2.487264e-01 1.850111e-01 -2.128210e-01 4.263521e-02 3.544412e-01 -1.250575e-01 -2.823191e-01 -6.242583e-01 2.829947e-01 1.199260e-01 1.646332e-01 -4.788971e-02 -1.203229e-04 9.693278e-02 -7.150873e-01 -9.574727e-01 -6.843253e-02 -2.139844e-01 -1.828725e-01 2.838989e-01 -3.049329e-01 1.405916e-01 -1.072592e-01 -3.753086e-01 -1.195121e-01 -1.548913e-01 -5.086307e-01 4.386085e-01 -2.363504e-01 2.197546e-02 2.025228e-01 2.505737e-01 1.342692e-02 1.219532e-01 -2.899218e-01 -1.378130e-01 3.105093e-01 -1.588012e-02 -1.330463e-01 6.461462e-02 4.369507e-01 -1.701002e-01 -2.472797e-01 -2.090827e-01 8.065622e-01 1.511362e-01 -2.209746e-01 -2.387410e-01 3.940922e-01 -1.685202e-01 -5.858181e-01 6.220624e-01 8.562779e-02 -1.018185e-01 3.138734e-01 -3.158476e-01 -1.439816e-01 -2.156677e-01 -2.273761e-01 1.279981e+00 -3.812582e+00 1.073740e-02 -8.841073e-02 1.700026e-01 -4.569091e-01 -6.975485e-02 -1.021116e-01 3.665203e-01 1.458921e-01 -3.066716e-01 5.820357e-02 1.224287e-01 1.605210e+00 -1.639865e-01 6.069607e-02 1.821835e-01 -4.344106e-01 -5.589227e+00 3.013986e-01 -8.563668e-01 -2.997741e-01 1.659808e-01 2.590792e-02 -2.903048e-02 7.967194e-02 -9.750607e-03 -2.022346e-01 -4.639610e-02 1.149007e-01 3.953059e-01 -1.533737e-01 1.795833e-02 -1.125253e+00 -1.068601e-03 9.398754e-02 1.666203e-01 2.077159e-02 2.864488e-02 -2.713268e-01 -3.313522e-02 4.383444e-01 -6.990744e-03 -1.539493e-02 1.001668e-01 -4.626397e-01 7.844265e-02 -1.907772e-02 -3.818011e-01 1.150047e-02 -1.777768e-01 5.494734e-02 -2.524865e-01 1.705743e-01 -1.304569e-02 2.733375e-01 1.482878e-01 -3.376744e-02 -2.180211e-01 -5.712467e-02 6.420203e-01 -5.224493e-03 -3.392170e-01 -4.041001e-01
-3.323268e-01 2.019978e-01 -5.760282e-01 -3.761784e-01 7.253928e-02 3.419728e-02 3.705722e-02 -5.658194e-02 1.504365e-02 1.654263e-01 -1.966265e-02 5.265993e-01 -4.776457e-01 4.984214e-03 -2.157551e-02 -2.328668e-01 8.973416e-02 2.187824e-01 -1.262044e-01 3.249103e-01 -1.657188e-02 2.160629e-01 3.166144e-04 -5.546083e-02 2.081784e-01 -5.766377e-02 5.035988e-02 3.534324e-02 -2.483518e-01 -1.335593e-01 1.807926e-01 7.671519e-01 1.468561e-01 1.167172e-01 -4.973209e-01 2.249834e-01 2.347474e-02 5.039068e-02 -1.393665e-02 -4.497094e-02 -1.745975e-01 -2.309908e-01 -1.129674e-01 4.508751e-01 1.062676e-02 5.040432e-02 1.492733e-03 8.301459e-02 -1.865317e-01 -2.761850e-01 -3.719967e-03 2.036692e-01 7.165693e-02 1.226117e-01 -3.523933e-03 1.340123e-02 3.298164e-01 6.702831e-02 -4.297133e-01 -6.354723e-02 -3.111731e-01 9.285158e-02 2.274170e-01 -1.954391e-01 2.565107e-01 -6.205524e-01 -1.964542e-02 4.460638e-01 3.025222e-01 -2.230799e-01 3.081721e-01 3.523784e-02 3.411774e-01 1.068673e-01 -1.308608e-02 -1.065200e-01 -2.949466e-01 -3.502794e-01 -9.924700e-03 3.316727e-02 -1.322793e-01 -1.058452e+00 2.164565e-01 3.799811e-02 -4.156788e-01 -2.661933e-01 2.595704e-01 1.822199e-01 -1.051125e-01 6.092184e-02 -3.078939e-03 -9.451346e-01 -1.165059e-02 1.481254e-01 -1.511713e-03 1.930952e-01 -5.095545e-02 -3.668271e-02 -4.029978e-03 1.273303e-01 3.127642e-01 4.549567e-01 -2.460741e-02 -1.714867e-01 2.937106e-01 -4.482412e-02 1.141170e-02 -1.997621e-03 1.194538e-01 1.764561e-01 1.749291e-01 1.065224e-02 -5.506897e-01 7.615305e-03 -2.099918e-01 2.163105e-02 -2.569798e-01 2.058864e-01 8.460044e-02 -7.579346e-02 -2.130518e-01 -1.432327e-01 -2.050834e-01 1.655898e-02 4.908355e-02 6.979623e-02 -1.780617e-01 -1.088915e-01
8.786649e-02 -4.622831e-02 6.004694e-02 3.083916e-02 1.690774e-02 6.105235e-02 -1.235143e+00 -1.200662e+00 2.407775e-02 1.293589e-01 -4.335405e-01 -2.093987e+00 -5.698497e-02 -5.449514e-02 6.553830e-03 -1.759955e-01 3.925473e-01 2.410875e-02 -8.670783e-03 4.577271e-02 -5.243073e-02 1.960613e-02 3.754578e-02 -1.633988e-01 -1.639764e-01 2.298054e-01 -5.489282e-02 7.718856e-03 -7.940073e-02 5.236096e-02 -3.992156e-02 1.256735e-01 -1.296594e-02 -2.005204e-02 -5.959392e-02 -2.612496e-02 -6.650731e-01 -2.045531e-01 3.391598e-03 4.012559e-02 -8.637688e-03 1.704753e-01 1.689174e-01 -7.347458e-02 -3.507324e-02 2.716669e-02 1.256514e-01 7.504076e-02 7.451710e-02 -7.478175e-01 -1.038880e-01 -1.715913e-02 -7.783102e-03 9.037979e-02 -7.436494e-02 3.664054e-02 2.030705e-01 -3.366831e-02 -1.287232e+00 -8.106072e-02 2.136601e-01 5.270925e-01 3.008495e-02 -1.406277e-01 -6.080406e-01 6.032237e-01 -2.616005e-02 1.741805e-02 -3.561423e-01 -9.836181e-02 3.639042e-02 5.488751e-02 6.609549e-02 -1.660847e-01 -7.939908e-02 9.564309e-03 -6.414609e-04 -4.758953e-01 -6.061862e-02 3.768221e-02 1.991988e-01 -4.656180e-01 -1.082181e-01 -1.505058e-01 -9.617695e-02 -2.848568e-01 -1.020509e-02 2.975633e-01 -4.042107e-01 2.670093e-01 1.532506e-02 -1.070981e-01 1.195338e-02 -8.921716e-02 2.068041e-02 4.387745e-02 -1.612003e-01 1.202905e-02 7.172737e-04 6.403834e-02 -8.790324e-03 -1.731291e-01 7.615216e-03 5.595808e-02 7.616530e-02 -1.953735e-01 3.139651e-02 2.512986e-02 -2.295941e-01 -6.660108e-02 2.618495e-02 -4.642476e-02 -2.083600e-01 1.468365e-02 -1.123836e-01 6.317695e-02 3.157837e-01 -5.491660e-02 -5.623987e-02 8.197112e-02 -4.191750e-01 -1.889110e-02 -2.479554e-01 -2.343386e-02 -4.734244e-02 -2.978138e-03 -3.103515e-01 -1.093231e-01
-9.992693e-02 -2.698788e-01 -2.553261e-01 5.875407e-02 -1.232787e-01 -2.340538e-01 -1.575726e-01 -9.567647e-02 -2.568908e-01 3.934615e-03 -1.838899e-01 3.230611e-01 -1.211912e-01 7.734033e-02 2.304084e-01 1.726194e-01 2.774016e-01 -5.224213e-02 -1.380305e-01 -7.026377e-02 -2.076938e-01 -8.329217e-02 -2.393447e-01 1.544097e-02 -5.858982e-01 -3.013839e-01 4.338208e-02 -2.380110e-03 -6.146410e-01 9.200026e-03 4.978505e-02 -9.665539e-01 -1.739401e-01 5.564772e-01 3.881216e-01 3.305767e-01 -1.189136e-01 4.740473e-02 3.306425e-02 -1.086022e-01 -2.350499e-01 2.164263e-01 -8.727413e-02 2.757674e-02 1.718245e-01 -2.393574e-01 2.575383e-01 7.152206e-02 2.142221e-01 3.910514e-01 -1.728476e-01 -1.607401e-01 -7.078527e-02 -3.342423e-01 1.067308e-01 5.023237e-01 4.411642e-02 7.542411e-02 3.699945e-02 -8.115178e-02 -3.530212e-01 -9.635019e-02 -2.398788e-01 -2.085548e-01 -5.801395e-01 9.942201e-01 -3.158224e-02 3.508202e-02 -4.335849e-03 -1.896467e-02 -1.916214e-01 1.441029e-01 8.776227e-01 2.296478e-01 -1.361415e-01 4.149465e-02 2.619447e-01 3.660462e-01 7.984808e-02 -1.577559e-01 3.337989e-03 -1.147997e+00 -1.285230e-01 -2.113513e-01 -8.250898e-01 -8.675043e-02 -6.606908e-01 1.089831e-01 1.264291e-01 5.833606e-01 -5.958207e-03 1.823816e-01 1.559659e-02 3.565727e-01 -2.134397e-01 2.903555e-01 -3.461202e-01 2.473412e-01 2.198682e-02 -1.251536e-01 -1.805378e-01 4.335104e-02 -7.075143e-03 3.867786e-01 -8.186937e-02 2.583082e-02 1.921530e-02 2.217685e-02 -5.625435e-03 -5.369393e-02 1.099925e-01 3.785985e-02 2.631771e-02 9.944024e-03 2.041073e-02 -2.759711e-01 7.818762e-02 -5.070850e-02 -2.016023e-01 -1.246488e-01 8.069795e-02 -2.202123e-01 6.476870e-02 -2.263517e-01 -1.654058e-01 1.047065e-01 -4.852643e-03 8.360130e-01
9.643845e-02 2.449809e-02 -4.272989e-01 -7.681620e-02 -1.240603e+00 -3.292185e-01 -2.507571e-01 -9.455627e-02 7.571712e-03 -1.779881e-01 -2.521178e-01 -5.401837e-02 3.044251e-02 -2.111616e-01 -2.188031e-01 -3.888361e-01 -5.822862e-01 -1.565334e-01 -6.093554e-01 -1.681511e-01 -9.370510e-03 -9.520595e-02 2.883456e-02 -3.486481e-01 -4.285805e-01 -1.478102e-01 -1.675135e-03 -4.383419e-01 -6.441075e-02 -7.336738e-02 -6.532551e-01 4.082834e-01 7.872217e-03 -2.048947e-01 1.649606e-02 -1.542118e-02 5.080257e-02 4.023744e-03 -2.235235e-01 -9.588671e-01 1.524167e-02 -3.249243e-02 2.284632e-02 -3.265844e-03 1.898459e-02 8.914965e-02 3.980101e-03 1.423709e-01 -6.953310e-01 1.161985e-01 -5.230165e-01 -7.210813e-01 -1.198754e-01 -2.055201e-03 -2.218918e-01 2.825354e-02 -1.417439e-02 -3.809924e-01 1.965316e-02 1.274274e-02 -2.704769e-02 6.359506e-02 -1.290899e-01 -3.901072e-02 -1.364441e-01 9.218874e-03 3.212684e-02 5.806503e-02 -9.146106e-02 -5.510913e-01 3.604701e-02 -6.148850e-03 1.703051e-02 -1.876424e-01 -2.695006e-01 -2.365180e-01 -5.744957e-01 -1.287397e-01 4.942787e-02 -3.449183e-02 7.734737e-03 -3.954513e-02 -1.781129e-02 6.819502e-03 -1.183398e+00 8.115754e-02 4.021749e-02 1.918918e-02 -3.380520e-01 -1.316318e-01 -7.846468e-03 1.477743e-01 -1.770252e-02 -2.591517e-02 -1.187597e-01 -1.757864e-01 -4.457708e-03 -6.677305e-01 1.448209e-02 -3.030662e-01 4.637371e-02 -2.566769e-01 8.402050e-03 -4.688958e-01 6.485366e-03 -3.063262e-01 2.788512e-02 6.209129e-03 -5.738444e-01 -6.112997e-01 -2.979863e-01 4.842736e-03 3.362491e-02 -2.797114e-03 -8.238641e-02 -2.992814e-01 -3.373511e-01 2.613927e-03 -3.282000e-01 -4.224894e-01 -2.364083e-01 8.095855e-02 -5.492461e-01 3.915717e-02 3.113242e-03 8.425107e-04 -2.163287e-01 1.884484e-02
3.194800e-01 -8.185490e-02 6.630027e-01 7.055857e-01 -1.593411e-01 -4.380259e-02 -7.298798e-01 2.217073e-02 3.364668e-02 -2.946236e-01 1.137162e-01 -1.589260e-02 -7.698255e-02 -1.282801e-01 1.107625e-01 -1.832934e-02 2.501679e-01 -1.132231e-01 -2.731333e-01 -1.011879e-01 -1.150099e-01 2.668694e-01 4.364583e-01 -2.180304e-01 -4.323125e-02 -1.096487e-01 4.546533e-02 -2.862909e-01 -1.778733e+00 -3.460456e-01 2.317085e-01 -3.442576e+00 2.304379e-01 -6.976463e-02 -3.127289e-01 4.699199e-02 2.119404e-02 -2.958966e-01 1.485796e-02 8.259278e-02 1.780339e-01 1.817885e-01 1.120060e-01 -3.087990e-01 -3.380651e-02 -1.217324e-01 -1.732492e-01 1.033684e-01 1.721933e-01 7.698355e-01 -2.326334e-01 1.555996e-01 -4.225085e-02 3.400150e-01 -4.024648e-02 2.183301e-01 -8.665846e-02 -1.245729e-01 -6.730055e-01 8.592667e-02 5.817763e-01 -1.609661e-01 3.759357e-02 -2.121844e-01 1.242595e+00 -5.311412e-01 -3.368911e-02 -1.175348e-01 -4.347911e-02 3.704377e-02 1.841652e-01 1.287532e-01 -5.480536e-01 -3.900827e-01 3.025595e-02 -6.439284e-02 -1.962863e-01 1.217118e-01 -6.843888e-02 -1.203091e-01 2.062848e-01 -5.543393e-01 -1.165820e-01 -3.822463e-01 3.100834e-01 -2.801983e-01 9.608735e-02 1.741899e-02 1.295151e-01 6.192680e-03 -3.233875e-03 -3.440450e-01 3.794946e-02 1.008312e-01 -2.869995e-01 -1.791594e-01 -3.341349e-01 1.267191e-02 -1.672393e-02 5.267910e-02 -1.827122e-01 3.979696e-01 1.132198e-02 9.650816e-02 -3.133094e-01 2.942985e-02 -5.394581e-03 -4.030655e-02 -2.963228e-01 1.841108e-01 1.198422e-01 -1.421258e-02 -4.041941e-01 5.489754e-03 1.248686e-01 -2.173680e-01 2.633574e-01 -3.347914e-01 -1.414457e-01 -3.405941e-01 -6.755045e-02 4.429510e-01 1.032357e-01 -2.542412e-01 -2.303585e-01 5.332747e-01 -1.576539e-01 -1.303194e-01
-1.014774e-01 1.229444e-01 6.823118e-01 1.025851e+00 2.278128e-01 2.793891e-01 -1.119739e-01 -4.576918e-01 -6.787244e-01 -1.929223e-01 2.471644e-02 -3.662447e-01 9.875829e-01 2.342944e-02 -6.312609e-01 2.153776e-01 4.395824e-01 -3.605812e-02 -2.496499e-01 -1.174096e-01 -5.022809e-02 -3.318746e-01 1.558357e-01 5.489849e-01 -1.286697e-01 1.156074e+00 -1.359036e-01 1.218148e-01 1.259186e+00 -1.081037e-01 -7.423114e-04 5.574823e-01 -7.431758e-02 7.355635e-01 2.909223e-01 2.626048e-01 -2.610440e-01 3.880245e-01 -1.289604e-02 3.171584e-02 3.239246e-01 -4.714901e-01 -1.764310e-01 -6.700770e-01 -6.360410e-02 -6.040393e-03 -8.763385e-02 7.088757e-01 4.553902e-01 -3.463856e-01 3.621107e-01 -2.247090e-01 1.844161e-01 4.490457e-01 4.497918e-01 -4.590823e-01 6.906824e-02 -2.893012e-01 -5.339144e-02 1.251425e-01 2.811901e-01 2.345756e-01 -2.441235e-02 -1.175116e-01 3.199099e-01 -4.546717e+00 -3.527682e-02 8.126080e-02 3.702568e-01 2.787151e-01 3.518962e-01 -1.631712e-01 -6.372197e-01 -1.450353e-01 -2.909518e-01 -6.480069e-02 -9.600340e-02 1.772215e+00 8.569691e-02 1.684171e+00 2.333631e-02 -8.817156e-02 -6.080097e-03 7.506478e-03 -2.784419e+00 2.739810e-01 8.258381e-02 2.565437e-01 1.242533e-01 -5.291893e-01 2.539842e-02 -4.538360e-01 -2.546178e-02 2.397655e-01 -1.148583e-02 1.435480e-01 -2.882959e-01 7.468472e-02 8.278105e-05 7.352501e-01 -1.198474e-01 4.847128e-02 -1.812528e-02 3.554133e-01 -1.598506e-01 5.889911e-01 -3.809138e-03 -4.160787e-02 -9.637990e-02 4.229371e-01 5.695725e-02 3.114687e-02 -1.361396e-02 6.228918e-03 1.191527e-01 -5.361584e-01 6.817421e-01 1.308063e-01 -5.795674e-01 -2.429046e-02 -1.328386e+00 6.537124e-01 -1.380994e-01 8.419903e-02 4.310927e-01 -1.267176e-01 -2.823016e-01 -7.232701e-01
-1.084960e+00 -3.280250e-01 -3.998686e-01 1.545555e+00 8.747354e-02 -1.111969e+00 3.705337e-02 -3.623804e-01 5.938042e-01 -9.207125e-02 -1.970151e-01 -1.408144e-01 -5.957931e-01 8.243871e-02 5.172859e-01 1.367158e-01 -2.435638e-01 -5.720906e-01 1.761477e-02 -6.782976e-02 -1.779030e-01 4.827467e-02 2.560075e-01 8.793389e-01 1.971249e-01 -2.653324e-01 -5.385120e-01 1.870959e-01 9.249965e-02 6.515437e-01 3.516290e-01 1.319636e-01 5.915083e-01 -1.159127e-01 -1.328481e-01 4.001844e-01 3.655107e-01 5.217939e-02 4.308955e-03 -2.715726e-01 -4.886214e-02 -3.713200e-01 8.259603e-01 1.172657e+00 -4.558839e-01 5.815714e-01 -5.047543e-03 -4.256786e-01 -2.936373e-01 4.115099e-01 3.109513e-01 1.238196e-01 2.571369e-01 6.885866e-01 5.644583e-02 -7.361405e-01 2.238712e-01 -8.510112e-01 -1.150453e+00 -1.611556e-01 5.147436e-01 7.391961e-01 2.447840e-01 7.322199e-01 3.605088e-01 -2.115671e+00 1.693712e-02 -2.674408e-01 -7.946967e-03 -5.722197e-01 -5.127369e-01 9.844437e-02 -1.831866e+00 4.123351e-01 -4.283028e-01 -1.712650e-01 1.121155e-01 9.723086e-01 1.352151e-01 -1.431434e-01 1.746051e-01 4.546973e-01 -4.468866e+00 2.204455e-01 2.584180e-01 -1.073588e+00 5.500724e-01 -1.518725e-01 -4.142228e-01 4.482460e-01 1.586819e-02 2.742883e-01 -1.968541e-02 -3.483284e-02 3.517799e-02 -1.069010e+00 -7.180646e-01 1.852318e-01 -3.533807e-04 4.330121e-01 1.075310e-01 -2.734397e-01 3.958740e-02 1.479238e-01 1.091868e-01 9.264271e-01 -2.325887e-02 3.494869e-03 3.275374e-01 4.046573e-01 -3.589539e-01 9.994458e-03 -7.494352e-02 -9.660078e-03 -1.182775e-01 -5.684552e-02 -6.215349e-01 1.410034e-01 -5.683353e-02 -1.094083e-01 -4.197130e-01 -1.031655e-01 1.063460e+00 6.823879e-02 -1.781112e-01 1.033835e-01 -8.090492e-01 -6.676462e-01
-6.829554e-03 -4.433833e-03 7.510096e-03 4.964659e-03 -9.245840e-03 -1.819982e-02 1.932020e-03 3.708670e-02 -1.094146e-02 -4.110876e-02 -4.775430e-02 -1.480608e-02 -2.029812e-02 -3.262432e-02 8.065271e-03 -6.853564e-03 -3.124725e-03 -4.372415e-02 -2.470187e-02 -4.209629e-02 5.447054e-03 1.281914e-02 -2.412353e-02 -1.699285e-02 -1.809508e-02 -5.578396e-03 -4.123192e-02 -1.120160e-02 -4.324556e-03 -1.429959e-02 -1.854098e-02 -8.804815e-03 -1.925451e-02 -8.366594e-03 1.229243e-02 5.057750e-03 6.098766e-04 -3.868749e-03 2.912107e-02 -2.959495e-02 -3.973570e-02 -2.726185e-02 1.525531e-02 2.014723e-03 3.276008e-02 4.004518e-02 -2.450162e-02 4.513086e-03 -9.529731e-03 -3.981368e-02 2.016824e-03 -2.035367e-02 -2.055725e-02 2.274619e-02 7.527427e-03 -4.010506e-02 1.125169e-03 2.179482e-02 -1.394729e-02 -1.537228e-02 -7.110304e-03 -5.999740e-03 1.229060e-02 4.311216e-02 4.099508e-02 -1.293926e-02 -3.491773e-02 -2.918066e-02 -3.666094e-03 -5.517873e-02 -4.366309e-03 -2.689798e-02 -4.902788e-03 -2.547112e-02 -1.195538e-02 -3.310233e-02 -3.424026e-02 -2.519584e-02 1.022998e-02 1.870377e-03 1.780139e-02 1.221043e-02 -5.452661e-02 -8.910741e-03 -2.342513e-02 -1.837830e-02 -1.823600e-03 5.179069e-03 -2.317900e-02 4.663602e-03 2.394675e-02 7.781228e-03 -1.822529e-02 -3.983747e-02 1.394900e-03 -2.465436e-03 -5.203049e-02 -4.173930e-02 -1.308150e-02 -1.190102e-02 1.471973e-02 2.666746e-02 -1.305938e-02 -3.492241e-03 -2.454676e-02 -1.913009e-02 -5.312053e-03 5.603971e-03 -1.310496e-03 -1.021533e-02 -1.603145e-02 3.282927e-03 -2.911126e-02 2.430695e-02 -1.687205e-02 -1.651203e-02 2.821318e-02 -3.695435e-04 1.945311e-03 -4.850751e-02 -5.328386e-03 -3.898879e-03 -2.485739e-02 -5.332091e-03 -2.053922e-02 1.706190e-02 -4.378151e-03 -1.641853e-03
9.638066e-02 4.076639e-01 1.896554e-01 -3.468798e-01 -1.152293e-01 -3.256888e-01 7.239024e-02 -2.236535e-02 1.468771e-01 2.683734e-01 2.025827e-01 -1.632884e-01 -9.767495e-01 1.902693e-01 2.645253e-01 1.414950e-01 5.369412e-01 -3.267390e-01 1.403942e-01 -9.738251e-01 -7.392763e-01 1.895060e-01 -2.310495e-01 -4.699938e-03 3.181539e-01 7.695340e-02 -2.228937e-01 -2.602496e-02 5.555415e-01 -2.940026e-01 1.034644e-01 -3.407943e+00 -3.051380e-01 -1.664456e-01 1.251271e-01 -2.241929e-01 1.328669e-01 9.015299e-02 1.889990e-02 1.335367e-01 -8.142644e-02 8.349740e-02 4.028064e-02 -3.811581e-01 -2.589416e-01 -9.526289e-02 -1.760138e-01 -1.997161e-01 3.788784e-01 -2.159011e-01 4.442479e-02 6.238284e-01 -6.486356e-02 -5.945290e-02 -1.921664e-01 -5.754086e-01 -2.218473e-02 1.010482e-01 -1.737545e-01 1.020563e-01 -9.982459e-02 1.352664e-01 -3.794248e-01 1.408105e-01 5.171121e-02 -2.393205e+00 8.564741e-03 2.680877e-01 3.131919e-01 -5.271902e-01 -6.434662e-01 -4.287390e-02 2.179397e-02 -9.561203e-02 -3.129183e-01 -7.366011e-02 -1.835994e-01 4.702421e-01 -4.561356e-02 -4.959327e-01 4.536721e-01 -6.904696e-01 -4.588815e+00 1.139903e-01 -9.513006e-01 -4.439614e-01 -1.804930e+00 1.556147e-01 -1.050276e-01 -2.812184e-02 4.652969e-02 2.586703e-01 1.476965e-03 8.072394e-03 4.348427e-01 7.941487e-02 -5.018712e-02 -1.612489e-01 -1.053876e-04 -2.261741e-01 -1.684699e-01 -8.913647e-02 -1.783516e-02 1.606702e-01 -1.029611e-01 6.222752e-02 6.932886e-04 4.053617e-02 6.639477e-04 -4.614069e-01 -7.735494e-02 -4.664602e-03 -3.749712e-01 9.623426e-03 -5.015891e-01 3.976642e-01 -1.969841e-01 -2.027709e-01 2.809567e-03 2.600560e-01 -1.093014e-01 -8.444630e-02 2.268712e-01 -1.728483e-01 -2.839027e-01 9.368453e-03 -1.420583e-01 1.532515e-01
-1.056497e-01 3.965494e-01 -3.041691e-01 -7.159491e-01 1.761546e-01 -3.426068e-02 -6.899742e-01 -2.903005e+00 2.217970e-01 4.295547e-01 -4.275444e-01 3.802154e-01 -1.169894e-02 -1.431858e-01 -6.865171e-01 5.189996e-01 1.652552e+00 -2.114676e-01 1.822048e-01 -1.528566e-02 1.384194e-01 -2.041567e+00 1.084870e-01 -4.510762e-01 5.163583e-03 3.768765e-01 2.300902e-01 -2.305829e-02 -4.449143e-01 1.741643e+00 1.733442e-01 2.501926e+00 1.204986e-01 9.324140e-01 8.678873e-01 -1.595105e-01 -1.983129e+00 -1.604913e+00 -9.159087e-02 5.931891e-01 -2.575104e-01 -2.688133e+00 -2.459477e-02 5.546336e-01 3.201021e-01 -1.226660e-01 -9.383789e-03 1.851822e-01 1.738468e-01 -1.113308e+00 -4.035442e-01 9.721882e-02 -3.031982e-01 -1.189065e+00 3.818575e-02 -2.404782e-02 -4.863102e-03 1.846432e-01 -1.412913e+00 3.591990e-02 1.940676e-01 -1.928515e+00 -1.171882e-01 -2.180384e-02 -1.305820e+00 6.228369e-01 2.201927e-02 -1.519050e-02 -7.352571e-01 1.546969e-01 -4.854099e-01 -9.014733e-02 -1.132747e+00 -1.220510e-01 -1.308327e-01 8.116946e-03 5.779846e-03 -8.203357e-02 -1.759332e-01 -1.615725e+00 -2.406287e-01 -1.657363e+00 -1.705384e-01 2.161134e-01 -1.072385e+00 2.011795e-01 -1.477125e+00 -1.967228e-01 -4.167582e+00 -2.675857e-01 -2.812684e-02 6.595389e-01 9.377744e-03 1.336155e-01 2.125282e-01 -1.744787e-01 7.537873e-01 -6.078500e-03 -4.211193e-03 -3.485333e+00 -4.598811e-02 -1.260477e+00 -3.602567e-02 -5.230727e-01 1.595652e-01 1.835971e+00 1.693252e-03 4.702285e-03 5.486602e-02 -1.614812e-01 1.483449e-01 -1.260324e-02 1.030029e+00 1.571857e-02 5.453044e-01 1.781245e-01 -3.003964e+00 -2.245078e-01 -1.160830e+00 1.847108e-01 8.572060e-01 6.173564e-01 5.606802e-01 7.834293e-01 -7.215916e-03 -7.486746e-01 1.250212e+00 7.795216e-02
-2.140270e-02 -1.524937e-01 1.564026e-01 2.969857e-01 1.235018e-01 -9.463891e-02 -1.483402e-01 -4.441093e-02 1.006918e-01 5.770100e-02 -3.493022e-02 -5.005818e-02 -1.927883e-01 2.289560e-02 7.457007e-02 -5.929117e-02 7.570577e-02 8.184244e-02 7.031060e-02 1.206709e-01 -8.006072e-02 -1.656626e-02 1.364984e-01 -2.602177e-04 -1.364643e-01 -7.340111e-02 4.685069e-02 9.236501e-02 -1.574378e-01 -1.457004e-01 6.414268e-02 -5.133700e-01 3.357184e-02 1.016566e-01 -6.765178e-02 -2.024916e-01 5.347214e-02 3.253432e-01 -2.026741e-02 -4.261668e-02 3.467482e-02 1.556086e-02 3.326242e-02 -1.834340e-02 6.897190e-03 2.917791e-02 9.976567e-02 2.298693e-03 1.351855e-01 8.688488e-03 -6.653129e-02 -1.362030e-02 -1.912072e-02 5.877650e-02 5.754359e-02 5.856076e-02 6.477277e-03 3.846221e-04 -4.602820e-02 1.274879e-01 -1.576011e-01 6.691588e-03 8.864012e-02 1.727057e-02 1.167358e-01 6.201143e-01 5.903423e-04 1.340719e-01 5.750129e-02 7.658832e-03 -1.710130e-01 5.036910e-03 -4.727510e-02 -6.629395e-02 4.635871e-03 -1.902032e-02 1.137478e-01 -7.311713e-01 -1.801245e-02 1.399537e-01 -2.955255e-01 1.014762e-01 2.057526e-02 -1.151079e-02 4.314407e-01 -1.121645e-01 8.313011e-02 -1.029907e-02 -1.290216e-01 2.340521e-02 3.292166e-02 1.021277e-01 -2.104534e-02 -2.387672e-01 6.448434e-02 1.116233e-01 8.373177e-02 3.966584e-02 1.851726e-02 -1.124304e-01 -5.425547e-02 1.648673e-01 -1.416428e-02 -1.057058e-01 1.623281e-02 9.787907e-02 -1.846028e-02 2.174950e-04 -2.347241e-02 -5.118264e-02 7.692832e-02 2.507962e-02 1.848079e-01 3.538828e-02 -2.697966e-01 -8.685650e-02 4.158986e-03 -6.335667e-02 3.642420e-02 -1.400068e-01 -5.663497e-02 -8.024929e-02 6.614634e-02 -1.323580e-01 -8.043214e-02 -1.582582e-01 1.000144e-01 -5.875259e-02
4.628815e-01 -2.127883e-01 -1.717212e+00 5.950626e-01 -1.870184e-01 5.583910e-01 8.247562e-01 4.443237e-01 -1.477693e-01 -1.277161e+00 -7.005892e-01 1.948534e-01 4.848075e-02 -1.303767e-01 8.285937e-02 -4.100709e-02 5.361291e-02 -2.266540e-01 -1.063806e-01 9.343253e-01 -1.949396e+00 -1.109675e+00 -4.379589e-01 3.853904e-01 -1.444805e-01 6.231889e-01 -1.057413e-01 -8.183843e-02 -2.798522e+00 5.192116e-01 5.223152e-02 -2.496908e+00 -1.500582e-01 3.090973e-01 5.392458e-01 1.946465e-01 7.340971e-01 -8.613234e-01 -1.788716e-01 5.966794e-01 2.245836e-01 -4.801304e-01 -1.388414e-01 -1.026802e+00 -9.183434e-03 -6.517512e-01 -1.180118e+00 4.257157e-01 2.299913e-01 7.127505e-01 2.529728e-01 2.445846e-01 7.700575e-03 3.451557e-01 -6.344844e-01 -7.066010e-01 4.074415e-01 6.144403e-03 -1.423611e+00 -2.118270e-01 3.988245e-02 -2.118631e-02 -8.606570e-01 9.835736e-01 -9.164798e-01 -8.337510e-01 2.006655e-03 -6.919887e-01 5.404873e-02 1.154874e-02 -9.675761e-01 2.975420e-01 -2.765532e+00 -2.515930e-01 -7.253816e-01 -1.235528e+00 -1.800312e-01 -2.401575e+00 -3.038103e+00 -1.340183e-01 2.605614e-01 -6.706530e-01 4.873395e-01 -6.880559e-01 -2.750748e+00 -9.683787e-01 -2.136145e+00 -1.133181e+00 -4.779291e-01 6.462619e-01 -1.021702e-02 -5.972751e-01 -2.587718e-02 6.406307e-01 8.315310e-01 -7.768456e-01 5.317788e-02 5.375061e-04 8.193688e-03 3.183635e-01 8.591066e-02 1.819769e-01 -9.846259e-03 8.569951e-01 -2.429404e-01 -9.353921e-03 -7.645908e-03 6.388049e-03 6.465706e-01 5.630044e-01 9.134433e-02 -2.046643e-02 -1.085537e-01 -1.871309e-02 3.276942e-02 -5.781551e-01 2.361538e-01 -1.187912e+00 -2.567531e-01 -1.617540e+00 4.749604e-01 1.223867e-01 4.227449e-01 -1.477302e-01 4.447976e-01 4.682722e-01 4.268453e-01 3.758420e-01
-9.414818e-01 -1.316192e+00 -1.594522e+00 -7.214374e-01 -1.953049e+00 -8.486292e-01 -6.480278e-01 -5.179173e-01 -7.405501e-02 1.665399e-01 -9.557022e-01 -1.217289e+00 1.511921e+00 -3.821785e-01 -2.274542e-01 9.855723e-02 9.568146e-01 3.819477e-01 -5.161437e-01 -5.791043e-02 4.823159e-01 -1.611871e+00 -1.178076e+00 1.875954e-02 -4.397955e-01 1.376902e+00 -6.875492e-01 -8.895183e-01 1.230576e+00 -5.365949e-04 -4.832975e+00 4.302393e-01 -1.752381e+00 -2.409050e-01 -4.498664e-01 8.133729e-01 1.009127e-01 9.058753e-01 1.976368e-01 6.817590e-01 2.305992e-01 -6.098120e-01 2.139352e-02 -2.538414e-01 -3.700079e-01 1.098609e+00 -5.813305e-01 -9.166747e-01 -1.504966e+00 -3.507563e-01 1.271264e+00 -1.290192e+00 -4.748626e-01 1.463101e-01 -6.651636e-01 -3.549270e-01 -8.379252e-02 -6.157728e-01 1.641291e-01 4.412844e-01 -3.866605e-01 1.526513e+00 -4.588909e-01 1.305294e-03 3.285705e-01 -3.490047e-01 -2.464550e-03 8.665081e-01 -4.829933e-01 1.393429e-01 -1.473155e-01 -5.148784e-01 2.228362e-01 7.751436e-01 -8.613558e-01 -1.051115e+00 -4.124076e-02 -3.166802e-01 9.089692e-01 7.689807e-01 -1.981481e+00 2.943050e-02 -1.450949e+00 -2.423324e-01 -1.447484e+00 2.233209e-01 3.313119e-01 1.324590e+00 -7.199965e-01 6.294358e-02 1.497943e-02 -3.160251e-01 -3.647949e-03 7.706221e-01 2.691624e-01 -1.778070e+00 -2.453612e-01 -1.711758e+00 2.308841e-02 -1.107502e-01 1.976007e-01 1.573976e+00 8.590536e-03 -4.470207e-01 -1.316783e-01 1.821379e-01 1.487813e-02 1.390533e-02 -5.575625e-01 -2.342799e-01 -1.099879e+00 2.754262e-02 -3.105553e-01 8.193883e-03 2.409581e-01 2.232070e-01 -1.905462e+00 -4.801063e-01 -4.838391e-01 -4.397737e-01 -1.715332e-01 3.408834e-02 9.743469e-01 3.629156e-01 -1.266921e+00 1.763324e-01 2.692350e-01 8.797545e-01
-3.060346e-01 2.646261e-01 1.498298e+00 -3.004570e-01 -1.041131e-02 1.468119e-01 -1.799944e-01 8.591674e-02 1.326390e-01 1.153462e-01 -6.462502e-02 2.804064e-01 2.365117e-02 -5.157278e-02 5.930803e-02 -9.413041e-03 2.435921e-01 -2.076620e-01 -2.840821e-02 8.501811e-02 -3.661233e-01 1.951125e-01 -1.583949e-01 -2.926107e-02 6.889036e-01 2.715405e-01 -1.531603e-01 1.354461e-01 8.793232e-02 -3.389505e-01 2.960761e-02 8.394372e-01 6.351966e-03 3.336426e-02 2.330953e-01 5.267700e-02 1.754454e-01 2.504356e-01 -7.975785e-02 6.305661e-01 -7.584347e-02 1.413590e-01 3.460679e-02 1.661929e-01 -4.760482e-02 -2.260874e-01 -8.269647e-02 -9.030733e-02 1.294406e-01 2.326363e-02 2.032958e-01 4.977095e-02 -1.194768e-01 -3.162551e-01 -8.091616e-02 -3.669707e-02 -2.683147e-01 9.710322e-02 -1.137353e-03 -8.742067e-02 -1.970558e-01 1.290539e-01 -3.986459e-01 1.025057e-01 -6.331252e-02 -1.219873e+00 1.164339e-02 -7.137451e-01 -4.666815e-02 6.114037e-04 -6.525606e-03 -6.398752e-02 2.599072e-02 -2.088875e-01 8.255215e-02 1.143345e-01 -7.860599e-02 -2.092750e-01 -7.869870e-02 1.377858e-01 -6.055533e-01 6.512371e-02 -1.068913e+00 5.100888e-02 9.456159e-01 -4.194134e-02 -4.605400e-01 1.111486e-01 8.305767e-04 7.051774e-02 -8.553892e-03 1.842834e-01 -1.988598e-02 -1.567249e-01 -2.023944e-01 -4.539299e-02 8.648463e-03 1.390394e-01 -1.496744e-03 -1.702814e-01 -6.357449e-02 -1.323331e-01 3.012813e-02 -1.810526e-01 1.158605e-01 4.481908e-02 -3.886525e-02 1.282324e-02 2.201309e-01 4.692509e-01 1.131252e-01 -1.708004e-02 -8.700024e-01 -1.268339e-02 -2.848676e-01 7.529271e-02 2.285570e-02 2.708915e-01 3.861998e-01 1.172396e-01 4.129879e-02 -1.188387e-01 -2.031935e-01 -1.940941e-01 3.080817e-02 -1.895935e-01 7.348727e-03 -2.515459e-01
-7.363055e-02 1.196664e-01 1.537783e-01 7.932883e-02 6.939879e-02 2.293680e-03 -3.442200e-01 -9.391967e-02 8.079009e-02 -2.731122e-02 -5.252761e-01 -5.062735e-02 6.098954e-02 -1.183938e-03 6.912713e-02 -7.976044e-02 -7.635226e-02 -1.104100e-01 -1.209611e-01 -6.741540e-02 2.207912e-02 -1.320578e-01 1.882636e-02 -2.115735e-02 3.842460e-02 -1.651369e-01 -4.827740e-03 -2.643622e-02 -2.978078e-02 4.756694e-02 -2.667764e-01 3.847692e-02 -3.749167e-02 -5.133257e-02 1.996400e-01 1.139708e-01 -7.548406e-02 2.493677e-02 -2.070674e-02 -1.339772e-02 6.192604e-02 3.319730e-02 -1.021026e-01 1.054348e-01 5.959104e-02 -4.742975e-02 -2.477680e-01 -2.341526e-01 8.824528e-02 -6.390309e-02 1.597823e-02 4.258408e-02 8.746038e-02 -7.311048e-02 -1.357652e-01 1.121308e-02 -5.655656e-02 1.028887e-01 -2.100855e-02 4.510278e-02 -9.214902e-02 -1.625022e-02 2.880772e-02 1.315873e-01 -1.838848e-01 2.263305e-01 -3.368126e-02 -8.056744e-02 9.441335e-02 -5.862010e-02 1.307130e-01 -5.075467e-03 -2.709662e-01 3.842523e-02 1.752426e-02 -1.988341e-01 -6.421696e-02 -1.705259e-02 5.035463e-02 1.081798e-01 1.603347e-02 -1.025037e-01 1.220996e-01 6.050316e-02 1.076271e-01 -1.119645e-01 1.498750e-01 3.604361e-02 2.976988e-02 1.991330e-02 2.867909e-02 9.356038e-02 1.801708e-03 -1.272281e-01 -2.987015e-03 -7.034883e-02 1.055202e-02 2.304644e-01 -1.505720e-02 3.483044e-02 4.777776e-02 1.351679e-01 -1.951281e-03 7.154181e-02 -3.979320e-02 5.806264e-02 2.585114e-02 3.253967e-02 6.206518e-02 -7.606508e-02 1.688986e-03 -1.177391e-02 4.170066e-01 2.387862e-03 1.144320e-01 -5.462470e-02 -2.533004e-01 1.177081e-02 7.297811e-02 2.928765e-02 4.497137e-02 8.952068e-02 1.049388e-01 8.849984e-02 1.338551e-02 -5.326246e-02 -2.206901e-02 7.249267e-02
-1.253346e+00 7.288826e-01 -1.570249e-01 2.854826e+00 -1.017582e-01 -8.548838e-01 1.391672e+00 5.202192e-02 1.925125e-01 -1.524052e+00 1.012851e-01 -6.304784e-01 -8.381358e-01 5.411356e-01 -1.415426e+00 -1.117571e-01 5.149598e-01 -1.216689e+00 -1.236075e+00 5.078019e-01 -8.923309e-01 -2.694317e+00 6.798553e-01 -3.524804e-01 1.407551e+00 3.687748e-01 -3.163752e-01 -3.738429e-01 1.726188e+00 -6.164062e-01 -1.184478e+00 2.348958e+00 3.133889e-01 1.136849e+00 5.555065e-01 -9.742727e-02 -3.221845e+00 6.465160e-01 -3.688840e-01 3.141131e-01 -1.075491e+00 1.232827e-01 2.970898e-01 1.115006e+00 6.053327e-01 -2.068799e+00 -1.072723e+00 -5.237880e-01 8.357500e-01 1.824816e+00 4.222673e-01 4.755014e-01 -7.265859e-01 -1.099814e+00 5.212080e-02 -1.204998e-01 -2.379118e-01 -2.717072e+00 -1.466675e+00 -1.031831e-01 1.414781e+00 1.280284e+00 -1.046134e+00 -5.009717e-01 2.404944e-01 -3.949937e-01 1.362746e-02 -7.496443e-01 -1.092645e+00 2.790616e-01 4.013428e-01 -3.329644e-02 -1.158386e+00 7.180762e-01 -1.339105e+00 -2.533687e+00 5.919921e-02 1.773667e+00 6.282120e-01 -7.444313e-01 1.196360e+00 -1.146434e+00 4.528748e-01 3.033745e-01 1.815118e+00 -2.818994e+00 -1.664847e+00 2.176063e-01 -6.601717e-01 7.800648e-01 2.661734e-02 2.885492e-01 3.881916e-03 4.392417e-01 -9.910361e-02 -4.184790e-01 -9.498580e-01 7.333665e-01 6.721488e-03 -3.743155e-01 1.249798e-02 -5.124882e-01 -3.110914e-02 5.448489e-01 -3.455246e-01 4.668968e-01 4.345134e-02 -3.785309e-02 -3.618813e+00 -1.259957e+00 2.601482e-01 3.166854e-02 -1.325035e+00 1.565934e-02 -7.238690e-01 4.790411e-01 9.981020e-01 1.160583e-01 1.511780e-01 -2.669166e-01 4.463426e-02 2.081308e-01 -1.511859e+00 3.208853e-01 1.806981e-01 -6.050584e-01 3.050109e-01 1.578645e-01
-2.727223e-01 -7.997852e-02 -2.723365e+00 -6.147140e-01 -1.031346e-01 1.532455e-01 2.334119e-01 -2.936945e-01 -2.256292e-02 1.609479e-01 6.616914e-02 2.103181e-01 -7.005516e-01 -3.406154e-01 -1.412086e-01 3.783467e-02 4.336610e-03 5.335035e-01 1.352834e-02 -7.766864e-01 4.979523e-01 2.219338e-01 -1.231386e-02 8.923292e-02 2.265193e-01 4.353887e-01 -2.498563e-01 -1.767950e-01 8.708019e-01 -4.535418e-02 5.884976e-01 -2.618614e+00 -6.082096e-01 -2.230182e-01 -6.582820e-01 -4.345844e-02 -8.364931e-02 1.572827e-01 2.047591e-02 -4.424274e-02 -2.435878e-02 -4.157301e-01 -2.471282e-01 5.683393e-01 1.850763e-01 -9.391962e-01 -4.861866e-01 2.993524e-01 -5.041467e-02 1.375062e-01 -1.897577e-01 1.422880e-01 -2.028791e-01 1.090284e-01 5.207662e-02 -3.875283e-01 -1.329866e-01 -1.838884e-01 -2.835674e-01 6.155572e-02 4.912934e-03 3.276873e-01 -4.155149e-01 1.114344e-01 1.333146e+00 4.311370e-01 -8.797715e-03 -1.252629e+00 2.769052e-01 -5.406429e-01 2.348187e-01 -4.298830e-02 -1.398902e+00 -8.538728e-02 -2.095601e-01 1.150977e-01 -1.609824e-01 -3.139385e-01 -1.808505e-01 3.644771e-02 1.497861e+00 -7.491682e-01 -3.114243e+00 -8.894596e-03 -3.024921e-01 -2.207448e-01 -3.114891e+00 -4.543355e-02 1.816067e-01 -5.596593e-01 9.593910e-03 -3.165180e-01 3.845344e-03 1.862073e-02 -4.204145e-01 8.476698e-02 -3.047662e-01 -2.072740e-01 1.061763e-02 1.251654e-01 6.857044e-02 -7.531789e-02 -1.852965e-02 2.401290e-01 3.115668e-01 -7.533035e-02 -2.027635e-05 1.705699e-02 -6.097868e-02 9.220111e-02 -2.709366e-01 4.449517e-03 -2.748783e-01 1.641701e-02 9.982665e-01 -1.285773e-01 -2.590771e-01 -2.584546e-01 1.335645e-01 -1.256420e-01 1.771988e-01 2.159309e-01 8.461101e-01 -2.220791e-01 1.255508e-02 -1.396075e-01 -1.465396e-01 -2.164852e-01
-4.341964e-02 -8.314956e-01 1.976326e-01 3.825735e-01 -1.962679e-01 -1.812458e-01 -1.047715e-01 5.586896e-02 -1.986401e-01 3.663204e-02 -1.691332e-01 -4.258358e-01 1.293158e-01 -2.766098e-02 3.284181e-01 -4.537243e-02 -1.932864e-01 -2.566414e-01 -3.932738e-02 -9.309693e-02 -2.933923e-01 -1.162262e-01 -1.961754e-01 -3.913908e-01 -1.777766e-01 -5.916401e-01 -1.569993e-01 -2.975102e-01 1.067234e-01 -4.435019e-01 3.999542e-02 -8.214777e-02 -6.383228e-03 -2.604155e-02 4.292172e-01 -4.097345e-01 4.109153e-01 -1.716646e-01 -1.392405e-01 -2.040299e-01 1.382988e-01 -1.270216e-01 1.288121e-01 2.516693e-01 1.140807e-01 -3.100558e-01 1.633096e-01 1.237389e-01 -2.031531e-01 -2.701797e-03 -2.213999e-01 9.589665e-02 -1.896676e-02 -1.565957e-01 -1.784697e-01 1.935810e-01 -1.469990e-01 -5.387815e-02 1.437251e-01 -4.570918e-02 -1.069265e-01 -5.273389e-03 6.974095e-02 1.065679e-03 -9.002050e-01 2.245386e+00 5.276604e-04 -5.518445e-02 -1.551976e-02 -1.647887e-02 -3.570020e-01 1.392314e-03 -3.098212e-01 3.173920e-01 2.966545e-01 -1.428365e-01 5.057412e-02 -1.959529e-01 -7.964508e-02 -2.386182e-01 5.145737e-02 -1.600032e+00 -8.193289e-02 -4.614902e-02 1.212884e+00 -2.042175e-01 -8.607830e-01 3.545667e-02 1.376941e-01 2.160994e-01 2.822447e-02 8.221573e-01 -1.727990e-02 2.443359e-01 5.108234e-02 9.981502e-02 1.724157e-01 3.185941e-01 1.388032e-02 -1.392143e-01 1.544484e-02 -2.887177e-01 -4.402666e-02 -6.370895e-02 1.132017e-01 -2.805519e-01 4.330678e-02 4.057748e-02 5.919111e-03 -1.449944e-01 1.047651e-01 -1.148621e-02 -2.964184e-01 -4.403844e-03 -2.227929e-01 -1.625956e-02 -2.202932e-01 1.293086e-02 5.458870e-02 3.924924e-02 1.558842e-01 2.278967e-01 2.491208e-02 -3.811556e-02 -2.880586e-01 -5.682574e-02 -2.522622e-02 1.146281e-01
-1.308843e-01 -5.508990e-01 8.973403e-01 1.770108e-02 -2.005191e-01 -5.449412e-02 2.094038e-01 -1.758413e-01 5.134687e-02 -1.446457e-01 -6.214515e-02 -7.014786e-02 -2.636293e-01 2.546185e-02 2.994395e-02 -1.630341e-01 1.482355e-01 -1.845938e-01 -2.600397e-02 1.675964e-01 1.448906e-01 2.001507e-01 -7.262252e-02 1.251122e-01 9.764651e-02 -2.880902e-01 -7.460856e-02 -8.195711e-02 1.778964e-01 1.033855e-01 6.363420e-02 -6.999038e-01 7.558069e-02 1.788710e-01 4.068178e-01 1.125712e+00 -2.736544e-01 -8.507350e-03 6.995119e-02 1.353154e-01 8.593228e-04 4.245975e-01 1.334560e-01 6.737006e-02 -1.420708e-01 1.355179e-01 1.399338e-01 1.080506e-01 -4.173236e-02 -3.594613e-01 3.502571e-01 -2.790930e-02 8.772408e-02 5.186367e-01 8.162930e-02 1.126422e-02 2.471460e-01 -2.553860e-01 -1.214347e-01 1.223554e-01 -3.834058e-01 2.077019e-01 -1.767271e-01 9.624753e-02 1.514226e-01 8.774576e-01 -4.465101e-04 2.047801e-01 1.330421e-01 4.248352e-01 -9.523391e-02 2.171262e-02 4.972203e-02 2.890630e-01 -2.375060e-02 -1.064436e-01 1.561331e-01 1.009251e+00 -1.753401e-01 1.487488e-01 -2.676824e-01 2.497658e-01 1.751420e-01 1.717009e-01 6.139031e-01 5.780499e-01 1.054433e-01 2.359696e-01 -1.800103e-01 -1.632683e-01 1.460285e-02 2.906611e-02 1.190621e-02 3.708652e-02 -1.201815e-01 -1.226186e-01 1.670666e-01 2.402025e-01 8.490560e-03 -1.394846e-01 1.161337e-01 2.072048e-01 3.042278e-03 -1.517098e-01 -8.362602e-02 -4.569879e-01 7.593745e-03 2.073948e-02 1.207705e-02 -1.371895e-01 2.327811e-02 -6.273825e-03 -1.293635e-01 -1.332595e-02 2.941356e-01 -1.713689e-01 8.209891e-02 -4.175843e-02 -8.514372e-02 -1.479412e-01 -6.347595e-01 1.518669e-01 -2.204489e-01 6.594720e-02 -6.868352e-03 -1.081784e-01 1.482931e-01 7.767091e-02
-1.953932e-01 2.675486e-01 -4.575450e-01 1.689683e-01 2.195799e-01 1.947825e-01 1.386826e-01 2.054722e-02 -1.764212e-01 -1.458596e-01 -1.416169e-01 -2.758973e-01 -2.275350e-01 -2.397302e-02 1.018949e-03 1.022799e-01 8.659517e-01 -2.620898e-01 1.115567e-01 -2.386805e-01 -2.787344e-01 -2.508795e-02 9.920632e-03 4.470928e-01 3.892267e-02 -1.068483e-02 -1.644899e-01 -4.469763e-02 4.829885e-01 -2.653073e-01 6.641830e-02 -1.340183e-01 -7.311248e-02 8.505309e-02 5.471775e-02 -2.732739e-01 -2.316861e-03 -6.093667e-02 2.533632e-02 5.175028e-01 1.125799e-01 3.437324e-01 1.026017e-01 -4.431888e-01 6.848542e-03 -2.341412e-01 2.203518e-01 7.068277e-02 2.458504e-01 -2.124698e-01 2.524605e-01 -7.786225e-02 1.859804e-01 8.272852e-02 3.144627e-02 1.132692e-01 9.578738e-02 -1.452542e-01 6.293279e-01 -1.148147e-01 2.179738e-02 9.767498e-02 -1.507308e-01 -2.232351e-01 3.206918e-01 -1.940016e+00 -2.636158e-02 -5.470364e-02 1.543175e-01 -4.882238e-02 -1.328311e-01 -1.841053e-01 -1.175751e-01 -1.024108e-01 7.742225e-02 7.048891e-02 4.992976e-02 -4.045583e-01 -1.558948e-01 3.127231e-02 3.724893e-01 -1.926019e-01 -4.501509e-02 -1.503375e-01 -7.811906e-01 -9.563738e-02 -3.906891e-01 2.537124e-01 -2.222170e-02 -5.084344e-01 -1.207389e-02 -3.432847e-01 -1.282544e-02 2.892404e-01 -3.053895e-01 2.173346e-01 2.762631e-01 1.469193e-01 1.735248e-02 -2.944902e-01 -4.108800e-02 -3.910706e-01 6.398343e-03 7.163368e-02 -2.335918e-02 8.097128e-02 4.598904e-04 6.942926e-03 1.615907e-01 3.908740e-02 -5.233071e-02 6.616149e-03 -2.830988e-01 -1.489980e-02 -1.675410e-01 -5.148672e-02 -5.605317e-01 -1.305699e-01 -5.095309e-02 -1.188804e-01 1.932565e-01 5.929886e-01 -5.478715e-01 1.792858e-01 3.368904e-01 -1.700492e-01 -1.822578e-01 2.742058e-01
5.338975e-01 2.356393e-01 6.685849e-01 3.616784e-01 -2.441654e-01 -2.884154e-01 1.983974e-01 -1.550921e-01 -3.702053e-01 3.084764e-01 -2.848160e-01 -2.443900e-01 -3.555990e-02 1.995316e-01 1.237627e-01 2.157885e-01 5.257342e-01 -4.427675e-01 1.315744e-01 -2.418759e-01 -4.835186e-01 1.978178e-01 -6.591384e-01 9.568172e-02 1.125640e-01 2.787526e-01 1.133387e-01 -1.534717e-01 8.260641e-01 4.240697e-01 -2.109361e-03 -1.160354e+00 -5.857987e-01 8.180786e-02 -6.499987e-01 2.980418e-02 -1.573357e-01 2.312836e-02 -5.460516e-03 7.198225e-02 3.704794e-02 1.159408e-01 -7.232207e-01 3.154695e-02 -3.088108e-01 -4.606864e-01 -2.599915e-02 -4.024700e-01 3.350383e-02 2.541889e-02 -3.891468e-01 -6.186424e-02 1.621841e-01 5.645670e-01 -1.123300e-01 2.796302e-05 8.964989e-02 -2.459397e-01 1.355616e-02 7.682686e-02 -5.214791e-01 1.052086e-01 -8.342696e-02 -6.589630e-01 8.685774e-01 -3.575430e+00 2.110770e-04 5.313040e-02 1.887290e-02 2.487651e-02 1.558479e-02 -2.624297e-01 -2.065437e-02 2.585435e-01 4.251571e-03 -2.579317e-01 -3.013969e-01 -3.059688e-01 -6.969453e-01 -8.489473e-02 5.941537e-01 -5.811555e-01 -7.175044e+00 -1.931166e-01 -9.871477e-01 -1.057832e-01 -1.277112e+00 6.438138e-02 7.092993e-02 1.128118e-01 -3.869178e-03 4.595827e-02 -4.197820e-03 3.483047e-01 9.969002e-02 -1.556670e-01 5.688920e-03 -1.416333e-01 -7.558405e-03 1.204040e-01 -3.020400e-01 -1.437575e-01 -8.901300e-03 -3.391862e-01 -1.385625e-01 -9.967989e-02 -6.128734e-03 -2.327625e-03 1.532893e-01 -4.693967e-01 -2.696169e-01 3.209365e-02 -1.790143e+00 2.096145e-02 3.744043e-01 4.271102e-02 -9.546186e-02 1.697306e-01 1.465104e-02 2.751432e-03 -3.362430e-01 6.754627e-04 4.817311e-01 4.593365e-02 1.540126e-02 3.016440e-01 -1.264289e-01 3.030975e-02
-1.433611e-01 -8.151697e-01 -1.643927e-01 3.126886e-01 2.784249e-01 1.541355e-01 2.646516e-01 -2.344050e+00 6.132228e-02 -8.721328e-01 -2.273019e-01 -2.004499e+00 -3.000917e-01 -7.126555e-03 -7.626453e-02 2.118185e-01 2.040612e-01 -1.166680e-01 3.187236e-02 1.117589e-01 6.216619e-02 2.152591e-01 7.396529e-02 6.602795e-01 1.860428e-01 6.123151e-01 2.202188e-01 9.323826e-02 -3.127682e-01 -9.899475e-03 -6.381360e-02 5.582580e-02 1.602138e-01 1.673178e-01 7.251065e-02 3.652191e-01 1.630702e-01 2.913230e-01 -6.402109e-03 -1.580415e-01 -6.929987e-02 -4.226312e-01 2.624578e-01 -2.690766e-01 -7.933842e-02 2.902994e-01 9.400801e-02 1.058881e-01 -9.123749e-02 3.430910e-01 -2.520042e-01 1.711636e-01 -1.634360e-02 5.282273e-01 4.532845e-02 1.290654e-01 -5.335209e-03 -1.189002e-01 -1.749104e-01 -1.376224e-01 2.161576e-01 9.462848e-01 1.905567e-01 3.122854e-01 8.860335e-01 -2.939803e-02 -2.052699e-02 1.418550e-01 -2.926233e-01 3.042049e-01 -1.233279e-01 -1.452238e-01 -4.642504e-01 2.007676e-01 -2.064722e-03 -2.500787e-01 1.489415e-01 -7.196562e-01 8.105979e-02 2.391395e-01 6.041970e-03 -9.023290e-02 2.916029e-01 1.725501e-02 -6.091148e-01 -1.794581e-01 -8.620244e-01 2.735580e-02 1.876713e-01 7.226682e-01 1.256532e-02 1.270259e+00 -3.975125e-03 4.551058e-03 -1.436639e-01 -1.208819e-01 -2.185540e-01 3.583975e-01 4.119854e-03 -2.510224e-01 -2.629162e-01 5.072700e-01 -9.065388e-03 -7.055575e-02 2.287039e-01 3.967991e-03 1.236932e-02 -1.229120e-02 -1.755257e-01 7.213500e-03 -1.235272e-01 -2.688571e-02 -1.079397e-01 -4.217558e-03 9.640639e-01 4.738081e-02 -4.796511e-01 1.820669e-01 -5.648225e-02 1.435549e-03 -4.789214e-01 -1.767359e-01 -2.358078e-01 -2.326103e+00 -3.496047e-01 1.037322e-01 7.907864e-01 -8.055323e-01
-1.455912e+00 -4.441314e-01 -9.240968e-02 4.162730e-01 -3.483639e+00 9.861938e-02 -1.973882e-01 -1.033617e-01 -3.748691e-01 4.023562e-01 -6.985450e-01 -5.176524e-02 -5.309905e-01 -1.149445e+00 6.846942e-01 -1.918243e+00 -6.804244e-01 -4.012891e-01 2.265082e-01 1.103022e+00 4.140831e-01 -1.855648e+00 -1.128793e+00 -9.097494e-02 -1.515225e+00 -4.995323e-01 2.061758e-01 1.081493e+00 9.501188e-02 -4.256230e-01 -2.461673e+00 6.280446e-01 1.181503e-01 -6.675721e-01 5.789297e-02 -3.690594e-01 -4.871196e-02 2.837245e-01 -8.383960e-02 4.050273e-01 3.092698e-01 -2.956007e-01 4.053223e-01 -2.287226e-01 -1.927123e-03 -5.073131e-01 -1.126477e-01 -5.077178e-02 -3.828210e-01 -2.647006e-02 -4.513006e-01 -1.099835e+00 4.164854e-01 1.449442e-01 -2.522514e+00 2.314206e-01 -1.175328e-03 -3.141501e-01 -4.829705e-01 9.628682e-01 3.463552e-01 -9.049162e-04 -1.881814e-01 -4.310284e-01 -4.616168e-03 -5.909529e-02 1.379740e-02 -7.969730e-01 3.051564e-01 3.756861e-01 -4.217816e-01 1.004565e+00 9.307172e-03 5.738624e-01 -2.575403e-01 -1.123951e+00 -8.718390e-01 -8.310767e-02 4.125869e-01 -3.946048e-01 -9.509680e-02 3.814049e-01 -1.587252e+00 4.501534e-01 -1.124279e+00 3.125173e-02 3.209587e-01 7.823028e-02 -6.078511e-01 3.240184e-01 2.545109e-02 2.941355e-01 1.734721e-02 1.948745e-01 -7.577595e-01 -4.068031e-01 8.729800e-02 2.779116e-01 9.789226e-03 -6.479369e-01 -1.120440e-01 2.262421e-01 3.106728e-03 -3.665829e-01 -5.549724e-02 5.924355e-01 -1.880000e-02 -2.213325e-02 6.992628e-02 -2.162382e-01 -6.324232e-01 1.338586e-02 5.969871e-02 9.242107e-03 -2.531084e+00 2.530848e-01 -8.003600e-01 5.371418e-01 -3.080165e-01 8.092003e-02 -4.867489e-01 4.099953e-02 -1.502803e-01 -7.611055e-02 -8.823459e-01 2.578340e-01 -3.342265e-01 1.248179e+00
-4.499459e-02 -4.412554e-02 -3.164610e-03 2.705449e+00 -6.454057e-01 4.295405e-02 -1.055725e+00 -2.885180e+00 4.144775e-01 -1.404574e+00 -1.741816e+00 2.310467e-01 -5.296168e-01 3.815064e-01 -2.846401e-01 3.178210e-01 5.090828e-02 -5.162936e-01 -1.906871e+00 -4.770387e-02 -7.183393e-04 -7.065569e-01 8.520417e-01 3.921133e-01 2.280913e-01 6.393604e-01 7.642076e-02 -8.432109e-01 4.596482e-01 -4.716335e-01 -8.114494e-01 2.695431e+00 5.077848e-01 -2.979349e-01 6.564952e-01 2.289001e-01 -1.270647e+00 -6.307283e-01 -1.298430e+00 -4.708964e-01 -5.974690e-01 5.221977e-01 1.674839e-01 3.965278e-01 -1.612917e-01 -1.971117e-01 -8.306814e-02 -4.540729e-01 2.270203e-01 3.560607e+00 1.321636e-01 -6.702580e-01 -5.526872e-01 -4.941441e-01 -6.489921e-01 4.466872e-01 -5.497845e-01 -1.194172e+00 -2.158046e+00 -4.099267e-01 2.913354e-01 -5.226583e-01 -2.187577e-01 4.661061e-01 -3.884647e-01 3.162003e+00 2.517357e-02 1.474857e-01 -1.971571e-01 -1.159856e+00 3.373265e-01 -2.132375e-01 -8.073452e-01 6.347617e-01 -4.697317e-01 -2.431695e+00 1.604461e-01 3.057237e+00 3.834879e-01 3.532646e-01 5.022911e-01 1.440675e-01 -2.051262e-01 -1.618703e+00 3.631244e+00 -3.153009e-02 5.318840e-01 -1.289519e+00 -2.595622e-01 5.264586e-01 -2.069127e-03 2.061795e+00 3.721186e-02 8.020223e-01 1.592367e-01 -1.074938e-01 3.294884e-02 -7.633250e-01 1.760169e-02 -1.784053e-01 -2.931056e-01 -9.178544e-01 2.180386e-02 4.669090e-01 2.714364e-01 -3.006626e-02 -7.259214e-03 -8.612664e-03 -1.796353e+00 -8.799732e-02 -9.661086e-02 -2.484347e-02 9.271540e-02 -2.549996e-02 -1.950689e-01 4.751875e-01 -4.847478e-01 4.625882e-01 1.745291e-01 4.365260e-01 3.219007e-01 2.193626e-01 2.945120e-01 9.409549e-03 5.131317e-02 -8.961118e-02 9.847843e-02 -6.114115e-01
5.820419e-01 8.687294e-02 -6.124260e-01 4.047690e-01 -5.857175e-02 1.437846e-01 3.863025e-02 2.019298e-01 1.163957e-01 1.399178e-01 -1.459138e-01 -1.048848e-01 -3.309167e-01 -1.780652e-01 -3.952680e-01 1.951105e-02 -2.104510e-01 1.849208e-01 -2.692000e-02 5.635755e-01 -2.481990e+00 1.017122e-01 3.878987e-01 -1.118806e-01 4.731316e-02 2.189739e-01 5.093137e-02 -1.883398e-01 -9.689919e-01 1.282291e-02 2.652007e-01 -2.038901e+00 -3.545113e-02 -8.804870e-02 -3.411078e-01 -4.890189e-01 1.470013e-01 -2.920191e-01 -1.520861e-02 1.535185e-02 2.363729e-03 -1.570204e-01 -6.951983e-02 2.650471e-01 1.014385e-01 -3.638892e-01 2.732054e-01 -2.059193e-01 -2.742412e-01 1.149486e-01 1.748816e-01 -2.010677e-01 9.503179e-02 -5.369658e-02 7.882658e-02 -4.562374e-01 -5.459926e-03 -2.980916e-02 -2.558070e-02 1.528129e-01 -4.063456e-01 -4.834424e-02 -1.208615e+00 -2.871684e-01 1.128275e-01 -3.320194e+00 1.712164e-02 -1.599290e+00 1.347827e-01 -1.833749e-02 -1.479250e-01 -2.151142e-01 -5.585621e-01 3.607419e-01 -9.078374e-02 3.335064e-01 -1.740708e-01 -2.138381e+00 -2.459057e-01 -5.788643e-01 -7.226092e-01 -7.161518e-01 -5.137004e+00 1.206507e-01 -1.447167e+00 -3.731789e-01 -3.299602e+00 -8.691802e-02 -3.878437e-02 -9.050262e-02 4.203963e-02 -8.868990e-02 -6.563597e-03 6.249909e-02 2.240311e-01 -1.324592e-01 -5.321804e-01 4.991377e-01 1.583428e-02 2.680821e-01 -2.415384e-01 3.597894e-01 -3.047683e-02 1.914998e-01 2.203188e-01 9.199227e-02 3.104778e-02 -1.737676e-02 5.354526e-02 -1.325911e-01 8.622563e-02 -3.851747e-04 -8.920203e-01 -1.329919e-02 5.580066e-01 -5.009118e-01 -4.476054e-02 -2.807337e-02 1.868356e-01 -4.378937e-01 3.543698e-01 -5.121039e-01 5.459427e-01 -1.560892e-01 3.427442e-02 -7.302611e-02 1.990549e-01 5.825887e-01
-2.277503e-01 9.270467e-01 7.518166e-01 3.999093e-01 2.406847e-01 1.248873e-01 -8.387451e-01 -3.104657e-03 -5.071752e-02 1.272239e-01 -9.998567e-02 -3.377096e-01 4.338888e-01 -5.640813e-02 2.326685e-01 -2.178174e-02 -1.106480e-01 3.099978e-02 1.269012e-01 4.085485e-01 -1.547169e-01 -1.380651e-01 -4.926279e-02 4.824141e-02 1.184515e-01 -5.411000e-02 -2.724093e-01 6.690722e-02 3.698039e-01 2.902896e-01 -7.201548e-02 -4.314884e-01 2.525373e-02 3.492603e-01 -1.177543e-01 -3.401949e-02 -6.878041e-02 -2.623694e-01 4.347003e-02 1.110563e-01 9.704652e-02 9.868736e-02 5.258673e-02 -2.087205e-01 2.850388e-01 -1.061889e-01 3.030753e-01 3.130761e-01 3.083310e-01 -1.415246e+00 -3.300716e-01 3.152736e-01 2.002110e-01 -4.071249e-01 -8.050692e-02 9.095693e-02 7.429269e-02 -1.081905e-01 -2.423968e-01 3.805287e-03 -2.326411e-01 2.534944e-01 -4.431781e-02 -3.335426e-01 -2.837044e-01 1.293129e+00 -4.148069e-03 -7.088371e-02 -1.137707e-01 7.520723e-02 -2.186069e-01 -9.371442e-03 1.516445e-01 1.924232e-01 -5.993963e-02 -1.507001e-02 1.307437e-01 -8.531551e-01 -1.432366e-01 2.953548e-02 2.264836e-01 -1.061144e+00 -4.785905e-01 7.094292e-02 -1.190820e+00 -4.576979e-01 -7.380213e-01 9.991499e-02 -3.226846e-02 -2.198977e-02 -8.813633e-03 -2.404399e-01 6.745443e-04 -1.226845e-02 7.700060e-02 -1.362114e-01 -4.496369e-03 -2.196392e-01 -1.235284e-02 3.202215e-01 3.054210e-02 7.788710e-02 -5.855741e-04 -3.107834e-02 -2.990549e-02 -8.090249e-02 6.122747e-02 -1.054918e-02 -8.400394e-02 1.664852e-01 -1.857196e-01 6.658429e-03 1.270977e-01 -2.759334e-02 8.483344e-01 -4.399992e-02 1.294723e-01 -4.113435e-02 -2.298735e-01 1.256433e-01 1.226399e-01 -6.236506e-02 4.768196e-02 9.526300e-03 6.427437e-02 -6.106812e-02 -2.050766e-01 2.393723e-01
-8.041947e-02 4.851137e-02 2.584197e-01 7.672557e-02 9.108663e-02 -9.858746e-02 -2.254873e-01 1.828081e-01 6.063426e-02 1.925192e-01 5.772441e-02 1.816306e-01 2.920409e-01 -3.787298e-02 -2.126327e-01 -4.035438e-01 2.396074e-02 -8.286694e-02 -2.276127e-01 2.673743e-01 3.447529e-01 -1.371796e-01 1.716745e-01 1.525689e-01 1.150448e-02 3.437330e-03 1.736161e-02 5.325337e-02 -1.622795e-01 -1.241493e-02 -7.158424e-02 2.395396e+00 -1.206157e-01 2.385244e-01 3.947218e-01 1.919698e-01 -3.327564e-01 2.012844e-01 5.734067e-02 -1.651618e-03 -2.044547e-01 2.420986e-02 8.322003e-02 -1.440926e-03 2.347764e-01 -1.322705e-02 1.010073e-01 -4.323569e-02 2.508854e-01 -2.924022e-01 -7.297293e-02 1.738974e-01 7.327146e-02 2.021498e-01 -5.590077e-02 3.010081e-01 1.794453e-01 -6.072573e-02 -1.672822e-01 1.911720e-01 1.047095e-02 -7.613488e-02 -6.457408e-02 1.268392e-01 -7.239731e-01 1.743966e+00 -2.673975e-02 4.192523e-02 7.125813e-02 1.525435e-01 4.102104e-02 7.048582e-02 -6.300753e-02 1.933652e-01 1.320307e-01 -3.810598e-02 2.707036e-01 1.448553e+00 3.420013e-01 -2.259713e-01 -9.639426e-02 -1.053901e+00 1.597423e-01 -1.184462e-01 4.425575e-01 6.054569e-01 1.342346e+00 8.991122e-02 -1.327763e-01 -6.180093e-02 -1.187328e-02 -3.829565e-01 -1.180039e-02 -1.669358e-02 2.709311e-01 1.806130e-03 -3.529374e-03 7.458934e-02 3.945486e-02 1.691168e-01 1.280272e-01 2.173422e-01 -1.812349e-02 1.431732e-01 6.451768e-02 1.241350e-01 6.709455e-03 -1.269487e-02 7.309285e-02 1.991765e-01 9.351179e-02 -8.385709e-03 -1.010542e-01 1.404665e-02 2.248284e-02 -1.036254e-01 3.031981e-01 4.181027e-02 -5.390142e-02 1.071492e-01 3.457658e-02 1.867128e-01 1.595818e-01 3.904760e-01 2.691686e-01 -9.011082e-02 -6.045438e-02 3.183031e-01
-7.988650e-01 3.029383e-01 -3.397090e-01 -4.586913e-01 2.695926e-02 -2.083874e-01 -4.006010e-05 -2.496498e-02 -3.595487e-02 -1.209544e-01 -2.083983e-01 3.030595e-01 -4.144411e-01 -9.849577e-02 1.521771e-01 -2.633804e-01 2.377270e-01 2.366980e-01 5.567839e-02 -3.237656e-01 -2.637867e-01 -4.841959e-02 -8.846433e-02 -2.710304e-01 1.050008e-01 2.017207e-01 1.753092e-01 -2.820582e-01 1.515877e+00 8.994662e-01 4.678598e-01 -1.465940e+00 -1.436346e-01 2.220190e-01 1.133225e+00 3.837843e-01 2.008320e-02 3.130818e-01 9.510307e-02 4.936004e-01 3.712032e-02 -7.559451e-02 -6.357100e-01 -9.199061e-02 -2.317344e-01 -8.114681e-02 -2.257407e-01 -1.649629e-01 -3.355630e-01 -7.398277e-01 -3.265138e-01 -1.490636e-01 -2.129368e-01 2.139883e-01 -2.619433e-01 2.227675e-01 9.662525e-02 3.892931e-01 -5.260172e-01 9.465664e-02 7.785057e-02 3.694932e-02 -1.844152e+00 -2.221699e-01 -3.143711e-01 -3.151326e+00 -4.897001e-03 1.861144e-01 -9.381685e-02 1.866894e-01 -4.531078e-01 -3.318895e-02 3.030626e-01 3.357921e-02 -1.960656e-01 -1.108537e-01 -3.204479e-02 -1.090752e+00 -8.148930e-02 8.846077e-02 1.041211e+00 -6.766758e-01 -3.254512e+00 -1.707252e-01 -8.915251e-01 -3.704156e-01 -3.247890e-01 4.397818e-01 -2.815014e-01 -1.188472e-01 -3.596528e-03 6.284068e-02 1.221655e-02 2.279777e-02 1.210739e-02 -1.713249e-02 6.922963e-03 -1.018392e+00 -2.958242e-02 1.035248e-01 -8.315654e-02 -4.077737e-02 -3.254386e-02 -1.185970e-02 -8.245543e-02 -6.615178e-02 -1.294599e-02 -7.479406e-03 1.605107e-01 -4.758587e-01 -2.647439e-01 1.564257e-02 -3.716761e-01 -1.011425e-02 2.703074e-01 -1.586146e-02 -1.092523e-01 4.629790e-01 4.143193e-01 2.039385e-01 -4.812972e-01 1.722947e-01 5.985781e-01 -1.164496e-01 3.340209e-01 -2.926612e-01 2.765718e-01 -1.282310e-01
-5.595557e-01 -5.350916e-01 -1.202101e+00 2.402917e-01 1.052974e-01 -9.159998e-02 4.839146e-01 -2.774623e-01 -3.519280e-01 -2.206046e-01 -2.019666e-01 -3.056157e-01 3.729860e-01 1.183246e-01 3.021001e-02 2.813080e-01 2.041884e-01 -3.210552e-04 -7.184262e-02 4.475637e-01 2.206458e-01 -2.800074e-01 -2.300269e-01 7.585807e-01 -1.182647e-01 -2.040682e-02 -1.531587e-01 1.118060e-01 -2.531117e-01 -7.983708e-03 7.113572e-03 6.812500e-01 1.777452e-01 -5.370504e-03 3.460762e-01 9.088033e-02 -1.919213e-01 3.472975e-01 9.689461e-02 2.333324e-01 1.301930e-01 1.848537e-01 1.729511e-01 2.205132e-01 1.400191e-01 4.529927e-02 -2.296267e-01 9.117090e-02 2.031634e-01 -9.608589e-02 -2.130749e-01 5.424798e-01 1.773090e-01 -3.064835e-01 6.010669e-02 1.051923e-01 5.122479e-02 -4.355493e-02 -1.800838e-03 1.835179e-03 2.174097e-01 3.509541e-01 -1.332544e-01 3.247651e-01 -2.422205e-01 -4.364372e+00 8.171471e-03 -1.119269e-01 -9.404245e-03 -2.831081e-01 -4.479006e-02 7.377440e-02 -2.578147e-02 2.794200e-02 -6.689786e-02 1.641470e-02 1.607781e-01 -8.710272e-02 7.487941e-02 3.647715e-01 -1.353685e+00 -1.482185e-01 1.584358e-01 -2.571767e-03 -2.110883e+00 -3.744432e-01 -9.663241e-01 1.515892e-01 7.193350e-02 -2.588782e-01 -1.538286e-03 -4.824588e-02 -3.385204e-02 3.234701e-02 -2.536822e-01 2.532668e-02 -1.965125e-01 2.922545e-01 -1.328413e-02 -1.168116e-01 1.301147e-01 -2.765203e-01 1.022734e-02 -5.627326e-01 -1.606981e-02 2.136221e-01 6.038783e-03 -2.226956e-03 6.735939e-02 2.925265e-02 -1.725423e-01 -8.375208e-04 5.379390e-01 -4.345002e-03 -1.823072e-01 -4.686947e-01 5.615948e-02 -2.323260e-01 -1.151201e-01 -2.064344e-01 3.662696e-01 1.017576e+00 1.176030e-01 2.984284e-01 -2.764575e-01 2.079671e-01 -9.945151e-02 -2.278101e-01
2.434991e-02 2.841337e-01 -7.047034e-01 -1.940644e+00 7.030348e-02 -8.335742e-02 -7.937956e-01 -9.527132e-02 -2.343419e-02 2.139467e-01 3.547483e-02 3.941549e-01 -4.954597e-01 -8.124146e-03 -5.096186e-02 2.371400e-01 -1.641271e-01 4.058671e-01 1.682552e-02 3.121101e-01 9.179822e-02 -2.613531e-02 3.552821e-01 -1.002413e-01 -7.525997e-02 9.477881e-02 1.876657e-01 -1.401211e-01 -4.217508e-01 -8.650274e-01 -5.767550e-02 -2.412032e+00 -1.708463e-01 3.303813e-01 8.201247e-01 -3.067984e-03 -6.778941e-02 -7.230284e-01 -6.943927e-03 2.315760e-01 4.495179e-02 -2.686156e-01 -2.702177e-01 2.666556e-02 1.513123e-01 -1.695311e-01 -2.719415e-01 -1.577876e-01 1.973888e-02 -4.144685e-01 -1.968390e-01 6.552850e-02 -8.784094e-02 1.705765e-02 -2.175479e-02 4.314129e-02 1.231837e-02 -5.339130e-02 -2.868749e-01 -1.794100e-01 -3.854561e-01 -5.853602e-04 -2.172695e-02 8.028825e-02 2.192413e-01 -1.032259e+00 1.618554e-02 -7.922231e-02 8.751316e-02 -2.026266e-02 -1.050817e-01 -2.977291e-02 -1.830853e-01 -3.362730e-01 7.259631e-02 -1.304913e-01 3.749695e-01 5.381218e-01 5.292581e-02 2.883205e-01 -4.320142e-01 -6.019813e-01 1.186691e-02 -2.396654e-01 -1.312438e+00 -3.710559e-01 8.403084e-01 -4.978659e-01 1.005410e-01 -1.232337e-02 5.645963e-05 -4.344115e-01 -1.940515e-02 1.932119e-01 -2.943760e-02 6.468634e-02 -1.615058e-01 -9.922919e-02 -1.787671e-02 -2.502546e-01 -2.921463e-02 2.347086e-01 -1.359631e-02 8.564025e-01 9.921307e-02 1.254183e-01 1.916640e-02 -2.529673e-02 -4.751652e-03 2.415010e-01 -4.574062e-03 -1.201292e-02 -4.132590e-01 -4.404431e-02 -3.575135e-01 -6.484081e-02 3.244129e-01 5.633499e-02 -1.880360e-02 -4.792164e-01 1.598389e-01 -1.041676e-01 3.011672e-01 1.946089e-01 3.087406e-01 -2.215262e-02 2.242816e-01 -1.964498e-01
1.790089e-01 -4.968421e-01 1.633455e-02 -1.383935e-01 -7.415699e-02 1.850368e-01 1.805195e-01 2.885629e-01 -6.415368e-02 1.448761e-01 -1.490355e-01 -5.987139e-01 -8.221760e-01 4.780227e-02 2.065076e-01 1.879680e-01 5.495135e-01 -4.881480e-02 4.889209e-03 6.132058e-02 -7.030618e-01 -9.533574e-02 3.392401e-01 -1.249066e-01 9.762513e-02 -1.227200e-01 -3.785031e-01 7.174156e-02 1.104916e+00 2.891564e-01 6.512519e-02 -3.438619e+00 -1.013049e-01 -1.108470e-01 6.432166e-01 7.360123e-02 8.351750e-01 4.541339e-01 4.928555e-02 -3.072582e-01 -3.104514e-01 -4.134063e-01 5.304880e-01 3.633815e-02 -2.753982e-01 2.822726e-01 3.969599e-01 -2.941730e-01 5.517931e-01 9.712557e-02 -5.479011e-02 -3.401252e-02 -2.614878e-02 -3.658831e-01 7.544267e-02 -1.474111e-01 2.662801e-01 -4.123213e-02 2.284880e-02 -3.575659e-01 -3.836402e-01 2.868055e-01 -2.547272e-01 6.995310e-01 -4.420953e-01 -2.013543e+00 1.325375e-04 2.036044e-01 -2.990876e-01 3.929607e-01 -1.943689e-01 9.447890e-02 6.862164e-01 3.304774e-01 -2.747433e-01 -3.455569e-01 4.224801e-01 -5.572365e-01 -8.003885e-02 -5.178586e-01 -4.432586e-01 -1.290270e-01 -5.607153e-02 2.208569e-01 -1.324567e+00 -2.335770e-01 -3.227247e+00 -1.061601e-01 -4.004489e-01 2.517309e-01 -1.332221e-03 1.797588e-01 3.633756e-02 -3.248808e-01 -5.385244e-02 -7.415477e-02 -2.153477e-01 3.419796e-01 1.601681e-02 1.619080e-01 5.316960e-02 2.954610e-01 4.153939e-03 7.578760e-02 4.270532e-02 5.934977e-02 -7.223297e-03 -3.274839e-02 -2.729275e-01 -2.121167e-01 3.261745e-01 -6.677022e-03 3.491627e-02 5.694755e-03 -9.301772e-01 -1.318229e-01 7.333154e-02 3.843982e-02 -9.324453e-02 -5.524088e-01 4.008688e-02 -2.293778e-01 4.415782e-01 -1.228666e-01 9.939498e-02 -1.298896e-01 1.628809e-01 -1.055851e+00
1.647088e-01 -4.080004e-02 -1.041738e+00 5.570128e-01 -6.023943e-02 2.539309e-02 9.118676e-02 6.016469e-02 6.861659e-02 1.349194e-01 2.136608e-01 1.265661e-01 7.332430e-01 -6.963987e-02 3.513389e-01 -3.796209e-02 4.830029e-01 -9.268606e-02 1.236918e-01 -2.616364e-01 -2.527548e-02 7.472982e-02 -2.723321e-02 2.445341e-01 1.471046e-01 8.832632e-02 -2.018808e-01 -1.337882e-01 -5.040228e-01 2.683279e-01 1.897080e-01 1.697825e+00 1.841911e-01 -2.828964e-01 -8.308028e-01 1.362918e-01 3.452466e-01 -2.666601e-01 -1.066633e-01 5.927696e-02 -1.777850e-01 2.205426e-01 -2.299985e-01 3.264870e-01 1.069686e-02 4.114386e-01 -2.795483e-01 4.333622e-01 1.620119e-01 1.352051e-01 5.852855e-02 -1.909324e-01 -1.141938e-01 1.057714e-01 4.145867e-02 -1.916137e-01 -1.274424e-01 3.550497e-02 -1.405195e-01 -1.039356e-01 -4.580738e-01 2.854051e-01 2.812960e-01 1.590399e-02 -2.521138e-01 4.920697e-01 8.156360e-03 -2.851978e-01 1.023683e-01 1.945699e-01 -1.356394e-01 -3.253482e-02 4.028275e-02 3.293562e-01 -2.721117e-01 -1.345973e-01 -9.291803e-02 3.868025e-01 2.063288e-01 9.745578e-02 1.437852e-01 -1.700140e-01 -1.749004e-01 -9.128972e-02 -2.215994e-01 -7.651476e-01 -5.399016e-01 1.364481e-01 -4.343092e-02 2.843534e-01 -3.361773e-02 -2.879838e-01 2.416381e-02 3.850515e-02 -1.000912e-01 1.524763e-01 -3.557369e-02 9.810154e-02 -1.030070e-02 2.556886e-02 1.987899e-01 -7.880075e-01 -2.831146e-02 -4.268732e-01 -4.808635e-01 -3.043428e-01 -2.310136e-02 -1.901735e-02 -2.135101e-01 -5.753649e-02 1.117181e-01 2.757196e-02 -2.238551e-01 3.777469e-02 6.433662e-01 2.881668e-01 1.389360e-01 1.752404e-01 -1.444233e-01 2.372383e-02 4.393598e-02 5.437975e-02 1.267771e-01 3.041501e-01 -4.611906e-02 -1.954738e-01 -1.095292e-01 -7.100525e-02
1.532029e-01 -2.945790e-02 -9.514168e-01 1.111441e-01 5.064385e-02 -1.262620e-01 1.129333e-01 -2.704076e-02 1.274265e-01 -1.830993e-01 -3.326448e-01 -1.718376e-01 2.591599e-02 -2.297968e-01 -5.768241e-01 -3.059252e-01 -2.147755e-01 -1.907628e-01 -1.216718e-01 2.282407e-01 -7.292933e-02 7.417823e-02 2.019373e-01 -6.988434e-02 -1.773904e-01 -3.116563e-01 -1.419780e-01 8.841620e-02 -5.353787e-02 4.183748e-02 2.421481e-02 -9.279419e-02 -3.634121e-01 -1.314379e-01 -5.040406e-02 -6.567419e-02 -2.952766e-02 3.514413e-01 2.053304e-02 2.882833e-01 -1.201732e-01 2.606556e-01 -2.667346e-01 3.454067e-01 1.973217e-01 -1.330367e-01 7.052042e-02 2.236829e-02 1.119939e-01 -5.130452e-02 7.887087e-02 5.295700e-02 1.337918e-01 -1.909275e-01 2.253868e-01 6.671848e-02 -2.554428e-01 2.677185e-02 2.430941e-01 8.091518e-02 -5.012802e-01 -9.717777e-02 4.566989e-02 -1.988669e-01 2.148131e-01 8.829647e-01 3.613367e-02 1.635558e-01 3.323398e-01 1.571546e-01 1.736326e-01 -1.504862e-01 -2.462201e-01 -3.113107e-01 -4.701210e-02 -2.397798e-02 5.621485e-01 2.487146e-02 -3.508268e-02 -6.670678e-02 -2.478933e-01 -8.851091e-01 -1.913006e-01 -7.776550e-03 6.351625e-01 -1.503193e-01 -8.731975e-01 3.128226e-01 -2.242486e-01 2.872074e-01 9.465875e-03 -8.980161e-01 -2.862555e-02 7.599559e-02 -1.107173e-01 -1.883526e-01 9.141317e-02 -1.280491e-01 -1.480681e-02 1.236278e-01 -4.176440e-02 5.631246e-02 1.531314e-02 -2.222377e-01 3.596327e-02 8.911203e-02 -3.769407e-02 -2.598972e-02 1.774260e-01 -4.890448e-02 1.695191e-02 1.637690e-02 -1.341091e-02 2.331026e-02 -3.808096e-01 2.791120e-02 -1.577279e-01 8.065906e-02 -1.351994e-01 -1.376567e-01 5.100464e-01 1.624112e-01 5.651775e-02 -9.393940e-02 1.662116e-01 -1.378511e-01 -4.207362e-01 7.010816e-01
1.171087e-01 1.534033e-01 4.268039e-01 1.845708e-02 1.183149e-01 7.536325e-03 2.407674e-01 -2.381877e-01 4.846785e-02 -7.346642e-02 -7.838811e-02 2.228916e-01 -7.316352e-01 -2.224438e-01 -1.495613e-01 -2.916471e-01 1.669848e-01 -5.061926e-01 -8.104073e-02 -1.275783e-01 -7.569625e-02 1.052715e-01 1.824349e-01 -1.335449e-01 -5.398364e-01 -1.882482e-01 -9.617128e-02 1.553183e-02 9.546857e-02 -2.622670e-01 4.690581e-01 -1.396044e+00 1.645503e-01 -7.947109e-01 1.425859e+00 6.107712e-01 3.612535e-01 7.169668e-01 -8.748078e-02 7.159251e-02 -1.443493e-01 -7.871075e-02 2.560143e-01 -1.500539e-01 -4.968416e-02 -2.882713e-01 1.681890e-01 4.250589e-01 9.835909e-02 2.410665e-01 2.874028e-02 1.376087e-01 1.307936e-01 -4.585125e-02 4.138979e-02 -5.809016e-01 -2.927759e-01 -1.468103e-03 -4.686598e-01 -8.491866e-02 2.307234e-01 -2.850545e-01 2.387221e-01 7.481599e-02 -3.616492e-01 -1.699605e+00 -1.101442e-02 1.432645e-01 -1.769909e-01 3.266802e-01 4.315360e-01 2.028775e-01 -9.059041e-01 -1.603415e-01 5.347735e-01 4.201720e-02 1.541214e-01 1.854990e+00 1.964017e-01 -1.656015e-01 -3.876367e-01 -1.700928e+00 -1.237615e-02 -8.935285e-02 1.565648e+00 8.506119e-01 1.425617e+00 1.911240e-02 2.578699e-01 -2.796623e-01 -1.915583e-02 4.749062e-01 -9.134030e-03 -5.208771e-01 1.045715e-01 -3.248434e-01 -4.545391e-03 6.795289e-02 -1.284893e-02 -1.488089e-01 -7.699491e-02 -5.690430e-01 1.396206e-02 -2.167301e-01 5.030767e-02 3.215946e-01 1.986276e-02 2.419982e-03 -5.843949e-02 -6.464661e-02 -1.537855e-01 2.140979e-02 -2.831381e-01 -1.935869e-02 1.178941e+00 1.733264e-03 -4.945514e-01 -1.661310e-02 9.812711e-02 -1.439377e-02 2.814011e-02 -1.683397e-01 -6.425199e-01 -6.009274e-01 5.060654e-01 5.752088e-01 -1.995078e-01 -1.001390e-01
-1.499562e-01 -3.643149e-01 1.615875e-01 1.949559e-02 -1.125959e-01 -1.928140e-02 8.192541e-01 -6.929926e-01 8.249517e-02 -1.580882e-01 -4.935299e+00 4.206528e-01 1.459796e-01 8.904389e-02 7.258303e-02 3.077215e-01 5.162763e-01 3.415013e-01 2.491666e-01 -1.163150e-01 4.442892e-02 -1.502177e-01 -8.953350e-02 -2.865276e-01 -1.999011e-02 2.003311e-01 3.206405e-02 1.193721e-01 -3.573669e-01 8.225523e-01 9.228613e-02 -3.795987e-01 2.219747e-02 7.806302e-01 -8.378608e-01 3.534763e-01 -5.818566e+00 -1.234928e+00 1.015918e-01 2.755031e-02 1.108356e-02 1.133861e-01 2.281767e-01 -2.870259e-01 -1.933390e-01 -1.694074e-01 7.029757e-02 -2.186290e-01 4.043015e-01 -2.349755e-01 5.005687e-02 -2.314642e-01 -6.936003e-02 -4.442655e-01 7.192644e-02 -3.178906e-01 6.435537e-02 -3.130388e+00 -2.247083e+00 3.454638e-03 -3.395114e-01 4.161063e-01 -2.313552e-01 -4.389862e-01 1.637520e+00 -2.202765e+00 1.091464e-02 -5.500101e-03 1.412052e-01 -5.259854e-01 3.098878e-03 7.368701e-02 -5.419658e-01 1.690885e-01 -1.959950e-01 -1.942082e-01 5.596537e-02 9.869158e-01 -7.606977e-02 2.917144e-02 -4.183800e-01 -2.943614e-01 1.243596e-01 1.403068e-01 -7.627853e-01 1.725481e+00 -4.430300e-01 -3.632283e-02 1.436836e+00 -1.402804e-01 -1.018032e-02 4.449429e-01 -1.039133e-02 -1.502843e-01 4.665072e-01 -2.883283e-01 -5.072426e+00 1.113139e-01 1.879568e-03 1.648738e-01 1.498921e-01 -3.973466e-02 1.136368e-02 5.003149e-01 -7.567147e-02 1.894103e+00 -1.311569e-03 -1.545067e-02 1.907695e-02 1.176281e-01 -1.603976e-02 1.279683e-03 2.526315e-01 3.333820e-03 1.373657e-02 -1.490955e-02 2.331658e-01 -1.824478e-01 -2.938990e-01 1.208192e-01 -3.798605e-01 -2.925319e-01 -2.605419e-01 5.566930e-02 1.782173e-01 -1.834185e-01 4.517469e-02 -2.145417e-01
5.167109e-01 -7.362879e-01 -1.215105e-01 -9.805112e-01 6.258654e-02 -9.749851e-02 5.274339e-01 -2.574857e-01 7.449649e-02 2.335518e-01 -3.838894e-01 1.383562e-01 -5.604271e-01 -1.236915e-01 1.802223e-01 6.633021e-01 -2.874768e-01 1.120507e-01 -1.613940e-01 -3.748606e-01 -2.898095e-01 3.436936e-01 8.150759e-01 -3.977036e-01 -4.188863e-01 9.114118e-01 -1.742995e-01 -5.792267e-02 7.025797e-01 -2.279376e-01 -2.270824e-01 -3.886926e+00 2.047922e-01 5.380074e-01 7.538814e-01 1.860092e-01 7.175575e-01 -6.392056e-01 -1.221941e-01 3.219813e-01 -6.749874e-02 -2.335130e-01 -7.534048e-02 2.312182e-01 7.211894e-02 3.935070e-01 7.035963e-02 -1.492012e-01 5.129125e-02 -7.842288e-01 -2.269726e-01 -4.560179e-02 2.063680e-02 4.006688e-01 -4.939686e-01 -3.798859e-01 9.593905e-02 2.204610e-02 -5.850432e-02 -2.786841e-01 2.068480e-02 8.419177e-02 2.230929e-01 7.665745e-02 4.906155e-01 -5.897508e-01 3.324957e-02 2.148204e-03 -5.374853e-01 -8.542861e-04 3.956536e-02 9.916215e-03 -5.436739e-01 -6.578866e-02 -5.353263e-02 -1.001715e-01 -1.669184e-01 -1.461040e+00 -1.307467e-01 -3.339896e-02 1.328129e-01 5.348244e-01 3.679648e-01 -4.583257e-02 -3.731346e+00 -2.791280e+00 -1.562046e+00 -4.895394e-01 1.329306e-02 -3.870588e-01 8.411782e-03 1.628782e+00 -3.408222e-03 6.282391e-02 4.542076e-01 3.684922e-01 2.863531e-02 1.447239e-01 2.049268e-03 3.475084e-01 -8.779012e-02 1.058111e-01 -9.858399e-03 3.693381e-01 -3.924934e-02 -1.741281e-01 -9.539182e-03 -2.019233e-02 1.750349e-01 -3.145144e-01 1.783828e-01 3.317365e-02 -4.558917e-01 1.539185e-03 -1.912851e-02 -3.519394e-01 1.607323e-01 1.281158e-01 3.800362e-02 -1.105573e+00 1.176690e+00 2.821408e-01 1.791183e-01 4.406247e-01 -1.506257e-01 1.597986e-01 -8.112022e-01 -8.917202e-01
3.224681e-01 -1.436404e+00 -9.315763e-01 1.517715e-01 2.474529e-01 2.011087e-01 -2.568079e-01 -3.399701e-01 1.125422e-01 -5.181001e-01 -5.798541e-02 -5.251884e-02 -2.680168e-02 -1.107474e-01 1.835784e-01 4.703907e-01 -3.178360e-01 -3.842421e-01 -2.238704e-01 1.184251e-01 -3.068309e-01 -8.984488e-02 4.273523e-01 2.700071e-01 4.152911e-01 7.344530e-01 -2.828857e-01 1.468301e-01 1.511218e+00 3.298735e-01 2.560902e-01 -3.707406e+00 -7.504702e-02 -1.980155e-01 5.337533e-02 4.630608e-01 7.314845e-02 -4.218222e-02 -2.188789e-02 1.286092e-01 -2.661723e-01 -3.283525e-01 2.070475e-02 2.531803e-01 -6.453592e-02 -1.251101e-01 1.591925e-01 2.958338e-01 -5.855823e-01 -5.452306e-01 1.726369e-01 -5.231687e-02 -6.070120e-02 6.411389e-01 6.322153e-01 -9.906425e-01 -6.571701e-01 -2.290481e-01 -1.473832e-01 -6.945150e-01 4.352462e-01 1.433588e-01 -1.313950e-01 4.440590e-01 -2.324451e-01 6.512991e-01 3.851733e-03 -8.019931e-01 8.955182e-02 -2.368204e-01 -8.550587e-02 -8.885372e-02 -1.627189e+00 -5.487740e-02 -2.731689e-01 -7.913625e-01 6.209495e-01 3.389878e-01 -7.378557e-02 2.163264e-01 -2.902587e-01 -1.391801e-02 1.841974e-01 -3.419824e-01 -9.770768e-01 -3.504739e-01 -5.671750e+00 2.629560e-02 1.096570e-01 -6.266021e-01 1.685594e-02 8.791633e-01 -1.553933e-02 -2.317464e-01 1.237315e-01 -2.739479e-01 -2.612844e-01 -1.102010e-01 -7.795874e-03 7.318944e-02 -7.292621e-02 2.802449e-02 -6.188049e-03 2.369629e-01 -2.579388e-02 -2.755134e-01 -1.320965e-02 -1.155348e-03 4.506531e-01 3.383435e-01 -1.995218e-01 -2.511157e-02 -1.376382e+00 5.837533e-03 1.774071e+00 1.078595e-01 -3.077280e-01 3.920476e-01 -1.790994e-01 -1.224605e-01 2.791153e-01 5.060542e-02 4.535626e-01 -5.423017e-01 2.719076e-02 -2.661381e-01 4.139797e-01 -9.143699e-01
-2.357682e-01 -1.993209e-01 1.135026e-02 1.267764e+00 -2.820287e-02 -7.398847e-02 -9.140613e-01 4.154468e-03 3.163669e-02 1.594794e-01 -1.824698e-01 -3.012371e-01 -3.030540e-01 5.884371e-02 5.610004e-02 -2.699852e-01 -1.504953e+00 3.598406e-01 -2.692684e-01 1.553691e-01 -1.448114e-01 -4.812607e-01 -1.459239e-01 -8.043108e-01 6.531649e-01 -2.112757e-01 1.557280e-01 1.142768e-01 -6.558844e-02 3.151846e-01 -4.334845e-02 -4.905138e-03 -2.977521e-01 -2.662367e-01 6.492822e-01 -5.726017e-01 -4.928885e-01 -1.683910e-01 9.062872e-02 -1.985889e-01 -1.955120e-01 2.337864e-01 2.754855e-01 -4.659814e-01 2.130832e-01 -3.270494e-01 -1.268158e-01 -6.999641e-01 -6.353568e-03 1.436066e+00 -2.283657e-01 -2.655143e-01 4.339672e-02 5.648643e-01 -1.827478e-01 5.651559e-01 -2.096852e-01 -8.440854e-02 9.845201e-02 2.076739e-01 -6.993751e-02 5.511298e-01 -2.780828e-01 -1.197200e-01 5.390456e-01 2.165854e+00 -6.229038e-03 2.426791e-01 9.875371e-01 -1.275166e-01 -1.678789e-01 -5.311942e-02 -1.412644e+00 3.548232e-01 -1.414898e-01 -9.970089e-02 2.268412e-01 -1.865074e-01 2.504184e-02 -3.555308e-01 1.008985e-01 -6.443123e-01 4.443143e-02 -1.946802e-01 1.287446e+00 -3.357460e-01 -3.912929e-01 2.819887e-01 -1.378685e+00 1.325229e-01 1.968539e-05 7.825834e-01 3.231025e-02 4.120912e-02 -1.066890e-02 -4.966354e-01 -2.750854e-01 -7.859439e-02 5.234736e-03 5.885210e-02 1.694912e-01 -4.204672e-01 4.550153e-03 1.637196e-01 -4.421915e-02 -5.077477e-01 -4.790128e-03 -2.400963e-04 -6.772398e-03 1.099840e-01 -2.591421e-02 6.735628e-03 2.076892e-02 1.489853e-02 -1.102365e+00 4.928782e-02 1.075322e-01 3.929081e-01 -3.179996e-02 3.284440e-01 1.751756e-01 -4.683441e-02 -4.197089e-01 1.615153e-01 1.421537e-01 -2.617181e-01 -1.527055e-01 -2.226215e-01
1.226790e-01 -3.069539e-01 -1.856759e-02 -1.832997e+00 2.974071e-03 9.456608e-02 -4.533842e-01 -6.160823e-01 -5.650879e-01 3.123223e-01 -8.934519e-01 -1.123879e+00 4.259666e-01 -8.313997e-02 -2.602661e-02 1.685300e-01 -2.118178e+00 -1.709564e-01 -4.417508e-03 -8.515123e-02 -3.700305e-02 1.340799e+00 4.043750e-01 8.997370e-01 2.127866e-02 1.006241e+00 -2.501491e-01 -2.276993e-02 9.608256e-01 2.143190e-01 -1.786788e-01 -5.976197e-01 -1.349316e-01 -1.942645e+00 4.309665e-01 3.205854e-01 -4.277709e-01 9.544951e-02 -5.848702e-02 2.036290e-01 1.310528e-01 -1.819694e+00 -5.406886e-01 4.974160e-01 5.148958e-02 7.745069e-02 -8.153895e-02 7.293373e-01 -1.230563e-01 -1.988162e+00 -1.109810e-01 -5.338690e-01 -7.838388e-02 1.285410e+00 -3.882310e-02 -2.016583e+00 -7.012650e-02 -2.782164e-01 -3.077155e-01 -2.027908e-01 2.540604e-01 -1.066601e+00 -4.004771e-02 -3.815935e-01 1.804411e+00 -1.970003e+00 4.971918e-03 -6.888153e-02 -7.259810e-01 5.164241e-01 -6.766164e-02 -1.309699e-02 6.151121e-03 4.934468e-01 6.192111e-01 4.800956e-03 4.424208e-01 -1.918965e+00 1.797829e-01 -2.132195e-01 2.050492e-01 -2.704680e-01 3.368521e-02 -7.821026e-02 -1.697084e-01 -4.866826e-01 6.815255e-02 2.292805e+00 -7.821378e-01 1.433972e-01 -9.230476e-03 1.640665e+00 -2.911630e-02 -5.978354e-02 2.816358e-01 -1.121595e-01 -1.901069e-01 -4.379778e-03 -9.785288e-03 -8.033792e-01 2.535052e-02 1.045154e+00 -2.186629e-03 4.195109e-01 4.478788e-02 5.958290e-01 3.128667e-02 -5.117671e-03 -3.121514e-02 -1.101341e-01 -1.203557e-01 -8.689781e-03 2.832753e-01 9.859631e-03 6.857941e-01 4.722917e-01 -9.605960e-01 -1.661438e-01 -7.636359e-01 -2.126943e+00 1.169083e-01 -4.641630e-01 4.412151e-01 -1.653008e+00 -6.255600e-01 -3.291653e-01 -1.141795e+00 7.073840e-02
1.440206e-01 -6.520049e-02 -3.241715e-01 -6.383061e-01 -9.551869e-02 1.769883e-01 -1.394889e-01 -7.042572e-02 -7.736322e-02 -2.746786e-01 -9.267789e-02 -1.263825e-01 2.200327e-02 9.322015e-02 3.855805e-02 1.360436e-01 -8.410160e-02 -2.892896e-01 -3.323713e-01 -1.813203e-02 3.115287e-02 -7.577821e-02 1.588055e-01 -2.107913e-01 1.624409e-02 2.396373e-01 -4.655684e-01 1.067423e-01 4.764719e-02 2.945918e-01 1.843632e-01 -1.831638e+00 2.343883e-02 -1.626915e-01 -1.650758e-01 -4.307202e-01 3.818845e-01 -3.479584e-01 2.963303e-02 5.846777e-01 -1.128594e-02 -2.442255e-01 3.725739e-01 -2.025547e-01 -2.683946e-01 -2.452747e-01 -2.201401e-01 4.108635e-01 5.847732e-02 1.482156e-01 3.160008e-01 -2.697951e-01 -2.230710e-01 -1.846789e-01 2.007906e-01 2.202302e-01 8.880819e-02 -1.556026e-01 -1.218148e-02 -2.215541e-01 -1.023441e-01 -2.393555e-01 1.670736e-01 -2.939116e-01 8.873810e-01 3.827139e-01 1.596767e-02 -2.469891e-01 -1.196879e-01 1.320015e-01 1.973165e-02 1.183078e-01 5.438411e-02 -2.815151e-01 -8.260047e-02 5.202199e-02 3.398220e-01 1.051794e+00 4.032706e-01 2.662710e-01 -1.420039e-01 -3.376940e-01 -3.584205e-01 -1.708183e-01 -4.507397e-01 -1.496261e-01 1.613695e-02 -1.322843e-01 -3.695247e-02 2.282849e-01 -1.489447e-02 -3.570628e-01 -9.429170e-03 -5.871763e-01 -3.638116e-02 1.073096e-02 -6.187289e-02 2.886383e-01 -1.933694e-02 2.509955e-01 1.945912e-01 -1.696471e-01 -1.648893e-02 -1.045035e-01 -5.019410e-02 -3.933286e-03 -1.432430e-02 -3.586346e-02 -1.185849e-01 -1.518330e-01 -3.234389e-02 2.054336e-02 6.187739e-01 -2.404381e-02 -3.548190e-02 2.252429e-01 9.509759e-02 -2.054659e-01 8.986712e-02 2.620283e-01 2.941124e-01 -2.194436e-01 -1.618108e-02 -2.493373e-02 -9.160333e-02 -2.299841e-01 -3.131652e-01 4.704270e-02
-1.281953e-01 8.391795e-02 -2.177640e-01 -1.999074e-01 -7.874767e-02 1.197408e-02 1.486840e-01 -2.140408e-02 -8.240428e-02 -1.725612e-02 -5.336872e-02 6.440712e-02 9.314570e-03 -1.217549e-02 -8.406462e-02 -3.496187e-02 -1.195294e-01 7.290073e-02 -6.781862e-02 -3.112704e-03 2.263286e-02 -9.772235e-02 -4.329505e-02 1.526101e-02 1.915261e-01 -5.149696e-02 -5.432975e-02 -6.213881e-02 -1.391536e-02 -2.916409e-01 -1.795396e-01 -1.364717e-01 4.720653e-02 -9.773378e-03 -2.635716e-01 -2.036470e-02 -2.749028e-01 1.616361e-01 1.081180e-02 -1.591090e-01 -1.325196e-04 2.091578e-02 9.479892e-02 -1.068072e-01 -9.997980e-02 -1.143585e-01 -9.351549e-02 -1.044466e-01 -5.103399e-02 -2.504409e-02 4.947551e-02 3.429565e-02 5.900113e-02 -1.307874e-02 2.703818e-02 7.911333e-03 4.565723e-02 -1.571360e-01 6.171816e-02 -1.312373e-02 1.081542e-03 -5.461830e-02 -4.440392e-02 5.396081e-02 3.178006e-02 -2.368214e+00 -3.605843e-03 4.819947e-02 3.732935e-02 9.829297e-02 -9.101002e-03 1.584420e-02 3.688718e-02 1.280819e-01 8.064637e-03 -1.025305e-01 -8.881328e-02 -2.995237e-01 -2.994786e-02 -6.975283e-02 -4.097951e-01 -4.065871e-01 8.417691e-02 -1.192630e-01 -1.037697e-02 1.379651e-01 -3.349725e-01 -2.092540e-02 5.321064e-02 -1.040202e-01 1.575629e-02 -5.278591e-02 -2.948927e-04 3.982433e-03 -1.025759e-01 -6.380656e-02 1.652831e-02 -3.222662e-02 -2.500336e-02 -1.111558e-02 -2.264765e-02 1.409249e-02 -2.612776e-03 3.679937e-02 2.766568e-02 -7.171421e-02 -2.443601e-02 -2.309101e-02 3.291862e-02 1.045389e-01 -6.971116e-02 7.216376e-04 1.260292e-01 6.297328e-03 1.571781e-02 1.600340e-02 -2.707976e-02 -4.630863e-02 8.625271e-02 1.799175e-02 -1.711078e-01 -7.884218e-02 6.930476e-02 -2.964580e-02 -8.044536e-02 -4.742825e-02 1.084526e-01 -2.857576e-02
1.135423e-01 -1.004876e-01 1.135749e+00 -7.323679e-01 1.425756e-01 9.275436e-02 -8.285172e-02 -3.908678e-01 -5.374672e-03 9.759349e-03 -1.829660e+00 3.883635e-01 1.838134e-01 -1.631841e-02 1.502976e-01 4.130158e-01 -1.691289e-01 1.109741e-02 -2.906446e-02 7.364702e-02 2.405839e-02 -1.140724e+00 -1.303457e-01 -2.065116e-01 -9.043062e-02 1.936087e-02 -2.958180e-02 1.138490e-01 -4.286206e-01 2.940292e-01 9.722400e-02 -2.779658e+00 1.235698e-01 2.118218e-01 -6.746464e-01 1.025002e-01 -3.381368e+00 -1.195082e-01 6.282339e-02 2.261967e-01 2.745587e-01 3.252512e-01 -1.251350e-01 -2.369949e-01 3.901107e-02 -9.463480e-02 1.427908e-01 1.697051e-01 2.627671e-01 4.527693e-04 -2.506256e-02 2.293017e-02 -3.093234e-02 -5.405097e-01 -1.392057e-02 -2.844360e-01 3.482232e-02 2.435283e-01 -3.212800e-01 -2.667768e-01 1.012936e-01 5.295511e-01 -2.303074e-02 9.051896e-03 5.331821e-01 -3.659824e+00 3.702071e-02 -7.146426e-02 1.404820e-01 6.782039e-02 1.137880e-01 -1.070747e-01 4.202764e-01 -9.738396e-02 -1.618506e-01 4.868421e-02 6.460869e-02 2.945222e-01 -4.939106e-02 -2.565310e-01 -3.433917e-01 -7.518778e-02 -8.288582e-02 9.651716e-03 -8.398032e-01 -6.185436e-02 -2.945306e+00 -1.340494e+00 2.310733e-01 1.524609e-01 -1.439378e-02 -8.515451e-01 1.736973e-02 2.760185e-02 -2.052722e-01 7.423042e-02 -2.789522e+00 -1.154203e-01 2.387334e-02 4.427946e-01 -1.112769e-01 2.234591e-02 -6.800006e-03 -9.865212e-02 -1.870846e-01 4.458352e-01 3.518874e-02 -1.042189e-03 7.701534e-02 -1.728691e-01 -9.391165e-02 2.195377e-02 2.597990e-01 -3.231604e-03 1.037242e-01 -1.141863e-02 -1.235474e-01 9.086864e-02 -2.516599e-02 3.117086e-01 8.749511e-01 1.526525e-01 4.077636e-02 -1.971576e-02 1.689145e-01 9.036359e-03 1.032073e-01 -1.836264e+00
-9.639497e-01 7.318014e-01 9.326867e-01 -2.770056e-01 4.121640e-01 -1.361017e+00 -5.813900e-01 4.676771e-01 4.362867e-01 -5.024262e-01 -1.338653e+00 -7.079257e-01 4.491021e-01 -3.974856e-01 2.567303e-01 -1.390286e+00 1.040364e+00 3.677723e-01 9.666032e-02 2.144706e-01 2.569709e-01 -9.512344e-01 -2.201723e+00 2.142377e-01 -1.657590e-01 1.158669e+00 3.249664e-02 -1.406389e+00 4.728284e-01 6.545294e-01 3.448879e-02 -9.349174e-01 2.478663e+00 1.470287e+00 1.011462e+00 6.192142e-01 -4.799338e-01 1.150746e+00 -5.348101e-01 -9.643806e-01 -4.347068e-01 5.777534e-01 -3.005867e-01 -8.729073e-01 5.694237e-01 -1.313372e+00 2.779518e-01 -6.341300e-01 7.882759e-01 -9.675644e-02 -4.668333e-01 1.464123e+00 1.813862e-01 1.584904e+00 1.943692e+00 -3.825886e-01 -7.985148e-01 -8.960484e-01 1.048889e+00 6.631916e-01 1.298519e+00 4.834827e-01 -6.299983e-01 -1.423115e+00 1.364638e+00 1.776795e+00 1.597965e-03 2.033521e-01 4.441351e-01 8.010082e-03 -1.018736e+00 3.556529e-01 -9.504706e-01 -6.479082e-01 -6.594144e-01 -4.821850e-01 1.374884e+00 1.484607e+00 1.034978e+00 9.456221e-01 9.746241e-01 1.352157e+00 -7.215424e-01 -5.724723e-01 8.617220e-01 -4.132497e-01 -3.429853e-01 1.184196e+00 -1.221724e+00 -5.456445e-01 -2.316406e-02 -1.420297e-01 1.791728e-02 1.397119e+00 -1.405882e-01 6.101602e-01 -2.304056e-01 -3.581222e-01 -2.519665e-02 -2.956574e-01 2.604955e-01 -4.722950e-01 -6.629947e-03 4.991620e-01 5.344310e-02 7.009860e-02 -2.087592e-03 7.703381e-03 -1.024322e+00 -8.183682e-01 -2.278724e-01 -2.344664e-02 1.154131e+00 -1.387199e-02 1.165017e+00 -1.742937e+00 6.451745e-02 1.063709e+00 -6.941483e-01 8.304060e-01 6.496633e-01 5.682461e-01 1.230801e+00 -3.567059e-01 4.376341e-01 -7.191404e-01 -3.263998e-01 4.516019e-01
2.121948e-01 -6.464883e-01 -3.961900e-01 4.753601e-01 -3.803652e-01 -9.249707e-02 4.980611e-02 -2.015160e+00 1.062525e-01 -1.246040e+00 -9.150913e-01 -2.680831e-01 4.602249e-01 -4.438854e-02 -7.560942e-01 -4.150842e-01 7.830965e-02 -3.111208e-01 -2.557289e-01 -6.158229e-01 1.511396e-01 -7.223591e-01 -5.501286e-01 -9.308347e-02 3.850160e-01 5.677719e-01 -2.220672e-01 6.938456e-02 -2.718458e-01 4.210535e-01 -4.192431e-01 5.947287e-01 -1.556815e-01 1.016881e-01 5.830262e-01 2.621835e-01 -3.141894e-01 -3.756023e-01 -7.154499e-02 -5.093902e-01 -7.836647e-02 2.134339e-01 -8.810662e-02 -1.525817e-01 1.458089e-01 9.557714e-02 1.828971e-02 -2.950095e-03 -1.033820e-01 -1.030610e-01 -3.562206e-03 -2.125365e-01 3.377689e-01 7.157696e-01 -2.305989e+00 1.525244e-01 -1.420954e-01 -1.099565e-01 3.112932e-01 1.779677e-01 -6.030107e-01 1.806411e-01 5.747255e-03 2.049568e-01 -5.111516e-01 1.450678e+00 1.610464e-02 -1.644257e-01 -6.754929e-01 1.988197e-01 3.295020e-01 1.172927e-01 -1.001670e+00 1.125926e-01 5.119555e-01 -4.143903e-01 -2.883509e-01 1.357787e+00 -2.971826e-02 3.671830e-01 4.980493e-01 -1.147889e+00 1.636287e-01 -1.073796e-01 -7.954043e-01 2.330735e-01 6.375678e-02 1.095972e-02 -1.727373e-01 -5.985553e+00 1.520867e-02 1.020727e+00 1.720542e-02 7.227172e-02 -1.091032e-01 4.770453e-02 4.004636e-01 1.473378e-01 -1.037947e-02 -3.526261e-01 -2.953485e-02 6.174780e-02 -2.472412e-02 4.339373e-01 -8.562198e-02 6.452813e-01 2.631571e-02 -3.941477e-03 8.924656e-02 -2.029462e-01 9.786337e-03 -4.668762e-03 -7.029315e-01 -9.219678e-03 -2.681949e-01 -1.104620e-01 -3.269214e-02 -1.231710e-01 1.188262e-02 9.742749e-02 -9.767569e-01 -2.914964e-01 1.370100e-01 -2.696334e-01 -1.998942e-02 6.611562e-02 7.842562e-02 -3.306976e-01
-2.160510e-01 2.053546e-01 -8.449122e-01 3.238440e-01 -2.504185e-01 -3.433883e-01 1.646162e-01 1.921262e-01 -1.611201e-01 7.596289e-02 -1.328884e-01 -7.793344e-02 -4.389518e-01 -2.749051e-02 1.343402e-02 1.054534e-01 2.374132e-01 -2.255601e-01 -1.479293e-01 7.884582e-02 -2.856831e-01 2.152821e-01 1.178635e-01 -2.270318e-01 1.908019e-01 3.301629e-01 4.022971e-01 4.117474e-01 -7.880593e-01 2.926898e-01 -1.986384e-01 -1.707384e+00 2.377293e-01 -4.563647e-01 -2.032466e-01 -5.699783e-02 2.827283e-01 8.362458e-01 -1.695869e-02 6.888007e-01 3.891410e-02 -1.808885e-02 -4.487476e-02 -2.711427e-01 -3.020492e-01 -1.829725e-01 -1.343194e-01 5.360627e-02 1.779621e-02 1.431265e-01 -2.667611e-01 -2.631284e-01 2.624905e-01 -4.224972e-02 1.597886e-01 -2.848262e-01 -8.602247e-02 3.455709e-01 -1.922134e-01 -2.409985e-01 -3.021493e-02 -2.732135e-01 -1.207864e+00 5.140744e-02 -1.170948e+00 -2.334531e+00 4.988750e-03 -5.712751e-02 -1.161486e-01 -1.533607e-01 -1.388361e-01 1.578286e-01 -1.529470e-01 -7.801356e-01 -3.983045e-01 -2.691248e-01 -1.166278e-02 -5.893066e-02 -3.382084e-01 -1.158054e-01 -1.730594e+00 -2.660452e+00 -1.808350e+00 -1.360610e-01 -2.529164e+00 -4.432116e-01 -1.899910e+00 3.534438e-02 4.671271e-04 7.367720e-01 -2.615996e-02 -8.417425e-01 -3.043868e-02 -7.139911e-01 1.857767e-01 1.827273e-01 3.614433e-02 -8.235202e-01 -6.345276e-03 1.440804e-01 2.045039e-01 5.930971e-02 -1.569589e-02 -2.806201e-01 1.160491e-01 6.689960e-02 -1.329580e-03 6.303546e-03 1.431832e-01 -4.656844e-01 -4.248954e-02 -1.769670e-02 8.566061e-02 3.877452e-02 -1.456163e-01 1.120903e-01 -2.650660e-02 -4.997106e-02 1.529329e-01 1.094896e-01 -1.173018e-01 -3.545104e-01 3.956282e-01 -9.130737e-02 -1.652911e-01 3.593615e-02 -3.126977e-01 2.317065e-01
-2.973036e-02 -3.086415e-02 1.864263e-02 1.708756e-02 -3.478090e-02 -1.273604e-02 -9.123865e-03 1.751830e-02 -2.585812e-03 -4.867689e-03 -7.506947e-03 -8.636624e-03 -1.494897e-02 -1.350509e-02 -5.666157e-02 2.109198e-02 -1.590083e-02 -3.714154e-02 -1.385659e-02 -1.642139e-02 1.973513e-02 -1.124681e-02 5.433147e-03 -4.242405e-02 -6.775368e-03 -1.667114e-02 1.699190e-02 -4.308936e-02 8.080831e-03 -1.394869e-02 8.179951e-04 -1.073145e-02 -3.452139e-03 1.321153e-02 3.742325e-02 -7.070831e-03 -8.155157e-03 -3.606417e-02 -1.971038e-02 -3.319534e-02 -1.899059e-03 -2.549443e-03 5.874644e-03 1.583129e-02 -9.051007e-03 2.734820e-03 -1.047066e-02 7.707976e-03 -6.953281e-03 3.782950e-02 3.074662e-03 -2.724253e-02 -8.288414e-03 1.072023e-02 2.742429e-02 -1.854939e-02 -1.514882e-02 -7.971505e-03 -4.581108e-02 -3.758570e-03 -1.911444e-02 -4.421238e-02 -2.059473e-02 -3.286589e-02 -1.722248e-02 -2.147215e-02 2.648734e-02 1.949789e-02 4.728063e-03 -1.175976e-02 -9.366509e-03 1.291086e-02 -4.276277e-03 1.264208e-02 -7.191773e-03 1.571084e-02 -1.726393e-02 5.589289e-03 2.341347e-02 -2.931008e-02 -9.981743e-03 -2.448276e-02 5.581470e-04 1.132341e-02 -1.757824e-02 -2.355289e-02 2.647182e-02 9.191353e-03 -2.807386e-02 -4.449996e-02 7.417049e-03 -1.246570e-02 -5.651232e-04 -6.020088e-04 -4.555392e-02 2.858900e-02 3.369839e-03 -2.898708e-03 -2.302677e-02 4.039016e-03 -2.134243e-02 -3.796029e-04 4.076581e-02 3.035059e-03 -7.682390e-03 1.846792e-03 9.102244e-03 3.440561e-02 -1.023313e-02 -1.362602e-02 -1.705128e-02 1.928993e-02 -2.771108e-02 -8.278073e-03 -2.143813e-03 8.446073e-03 -3.847242e-03 2.517478e-02 -3.198372e-02 -4.313105e-02 -1.337260e-02 4.136038e-03 1.865412e-02 -4.185076e-02 1.042954e-02 -5.919081e-03 -2.490152e-02 -1.363891e-02
