6.736569e-01 3.855236e-02 8.925143e-01 3.425056e-01 4.826430e-03 -2.708263e-01
-7.317571e-01 -2.663780e-01 -1.586310e-02 -5.544397e-01 -1.783767e-01 -9.500658e-03
-1.518050e-02 -1.378578e+00 8.539061e-02 2.776225e-03 1.726035e-01 -1.692718e-02
-3.966269e-01 -2.082882e-03 -1.254930e-01 7.723596e-03 1.036529e-02 -6.158202e-01
-2.220123e-01 -5.938681e-02 -4.876643e-01 -1.670188e-01 1.639348e-03 -1.569852e-01
-4.810639e-01 -1.877189e-01 -6.076074e-02 -1.367715e-01 -4.391164e-02 1.555037e-01
-2.900621e-01 -5.955749e-01 -6.153520e-02 4.014127e-01 -4.343591e-02 -3.430741e-01
1.204335e+00 -6.052794e-02 -2.608440e-01 -1.430017e-01 2.231288e-02 -4.706141e-01
-3.194400e-01 -1.824169e-02 5.848612e-01 -7.691403e-02 -1.737870e-03 -4.865122e-02
4.398733e-01 8.249075e-03 2.892298e-01 -5.227841e-01 -2.531544e-02 -3.518052e-01
-1.130304e+00 3.809511e-02 -4.117352e-01 2.101191e-01 5.289743e-03 -4.818437e-01
-7.969519e-02 3.680160e-01 -9.719616e-02 -3.353504e-02 1.753662e-02 -2.038048e-01
2.281031e-01 -1.280353e-01 -1.244004e-01 1.596884e-01 7.193328e-01 -4.237105e-01
-3.008023e-02 3.826330e-02 -1.791137e+00 -6.907171e-01 -3.565450e-03 2.968053e-02
2.577271e-01 8.088233e-02 2.412059e-01 -2.461798e-01 -1.598034e-01 -1.325663e-01
1.783928e-02 -8.223783e-01 4.345497e-01 -5.041487e-02 -8.452191e-03 -1.691292e-01
-3.328859e-01 8.980921e-01 -8.803573e-02 -3.405735e-01 1.524645e-02 -9.803923e-02
2.654185e-01 -7.755864e-02 -1.741599e-01 -1.185764e-01 2.416344e-03 4.013253e-02
-8.272435e-01 7.499610e-02 1.150290e+00 -3.735658e-01 -3.165279e-02 3.975195e-01
-3.464681e-01 7.231537e-01 -8.094219e-02 1.647972e-02 2.708202e-02 -9.307615e-02
-1.010606e-01 -3.516851e-02 4.570001e-01 -1.381793e-01 1.272834e-02 2.776907e-01
-2.971136e-01 5.952870e-02 -6.439077e-01 -1.602547e-01 -1.352170e-02 -3.500843e-01
-4.340779e-01 -4.063174e-02 1.938946e-01 -2.641669e-02 -1.484606e-02 -2.037760e-01
5.624028e-02 -7.374670e-02 1.132499e-01 4.463268e-02 -6.941830e-02 6.407415e-02
-2.811021e-01 7.772492e-02 -2.019718e-01 -8.397386e-03 -1.596362e-02 -1.290625e-01
4.383302e-01 1.506227e-01 4.807656e-01 -3.725303e-02 8.221565e-03 -4.166632e-01
8.673525e-01 3.656846e-02 2.494216e-01 9.453371e-02 -3.689207e-03 -3.412271e-01
3.411654e-01 3.423988e-02 1.039842e+00 -2.951905e-01 -2.659212e-02 -3.916174e-01
6.308208e-02 3.340789e-01 -7.112420e-02 -7.939722e-02 1.861642e-02 5.398893e-02
-1.128552e-02 8.374075e-01 2.722385e-01 2.789739e-02 4.676232e-02 8.892742e-02
5.222329e-01 -1.011127e-01 4.555868e-01 2.624903e-01 -2.819492e-03 1.143012e-01
4.327606e-01 -5.813159e-02 -8.024237e-01 1.829462e-01 9.814902e-03 -7.539097e-01
-2.760869e-01 1.167964e-01 -2.111954e-01 2.237556e-01 3.470894e-03 -7.973983e-02
4.387684e-01 9.085074e-02 -1.171977e+00 -5.566978e-01 -8.047199e-03 -1.287697e-02
-4.157363e-01 -3.873282e-02 2.349619e-01 -1.327070e-01 -6.881628e-04 -1.975105e-01
-1.695506e+00 9.820851e-02 6.864819e-01 -1.395580e-01 -3.166081e-03 -3.317208e-01
-3.958610e-01 -2.442920e-03 -1.491618e-01 -4.780176e-02 2.135551e-03 1.555682e-01
-1.184039e+00 1.005848e-01 -7.811646e-01 6.409328e-01 -1.101801e-02 -6.954918e-01
4.071687e-01 3.328550e-01 -5.109733e-01 8.789655e-02 2.539100e-02 -1.926300e-01
-1.303114e-01 -3.048970e-01 -2.692306e-01 -1.149026e+00 -4.062058e-02 4.850175e-03
2.948081e-01 -4.820232e-03 -8.013155e-02 6.200217e-02 1.638681e-02 1.317832e-01
-3.865980e-01 -3.238171e-02 -4.666162e-01 -2.466540e-01 7.997088e-01 -4.229735e-01
-6.386658e-01 -7.754835e-02 4.479862e-01 -1.062751e+00 -3.936421e-02 3.726151e-03
5.243992e-01 1.930712e-02 -1.641937e-01 3.556442e-01 -2.797275e-02 2.498810e-01
-8.098979e-02 -5.401212e-01 -2.381559e-02 -1.293808e-01 -9.226006e-03 -4.797607e-02
-7.123094e-02 6.941847e-02 3.821702e-01 9.873698e-02 9.182995e-03 -1.211906e-01
1.533717e-01 -6.603361e-02 2.493992e-02 -3.904239e-03 -7.726143e-02 -1.545477e-01
-6.933932e-01 8.371359e-03 -3.040324e-01 -4.220707e-01 7.266017e-02 9.437656e-03
-5.442250e-03 7.999862e-01 -1.210550e-01 -9.687340e-03 -2.235341e+00 -2.835998e-03
4.210686e-01 6.096705e-02 -6.293021e-01 -3.448523e-01 9.682049e-04 -3.575280e-01
-2.840069e-01 -1.616316e-01 -3.066728e-02 -3.775189e-01 5.706080e-01 -1.797877e-01
6.153601e-01 2.455101e-01 1.934987e-01 -2.540701e-01 1.117342e-03 -1.006725e-01
3.108780e-02 -1.549305e+00 -4.356070e-03 1.365425e-03 4.804589e-02 4.903542e-04
-3.191967e-02 3.991668e-02 4.809879e-01 -1.337486e-01 1.084084e-02 -7.045188e-02
3.640137e-02 -5.470548e-03 -9.235114e-02 -2.170278e-01 -4.479899e-03 -1.011699e+00
-1.438068e-01 -1.692396e-02 -1.321608e+00 5.184945e-01 -1.936699e-02 -3.895723e-02
2.383267e-01 2.235936e-01 3.772848e-01 1.141263e-01 3.940039e-02 1.460456e-01
-3.897466e-03 -3.244397e-02 1.340402e-03 -4.947701e-04 -1.002157e+00 -3.402343e-03
-4.373839e-01 8.676998e-02 -6.635199e-02 -1.368620e-01 2.834436e-01 1.040114e-03
-3.227299e-02 -1.647353e-01 -1.333703e-01 -1.040908e-02 -3.290224e-02 -3.575513e-02
-2.242127e-01 -3.566638e-01 -1.762884e-01 -7.896423e-03 8.163822e-02 -5.749257e-02
7.039966e-04 3.335423e-02 -3.119838e-01 -5.772370e-01 -8.821945e-02 2.277786e-01
2.656657e-01 1.056424e-01 -5.498635e-01 -5.174068e-01 -1.500055e-02 -5.565235e-01
8.142823e-02 7.271788e-02 6.247061e-02 -8.805989e-02 -9.812968e-03 -4.951796e-01
