-3.867756e-02 -4.652156e-02 -5.453452e-03 3.052287e-02 -2.540237e-02 1.328313e-02 7.969088e-03 1.325203e-02 -3.204482e-02 1.236835e-02 1.455503e-02 -3.292077e-02 -2.909452e-02 -8.714465e-03 5.482751e-01 9.844552e-03 -1.619695e-02 6.859306e-03 1.118293e-02 1.243902e-02 -1.291065e-02 -1.432708e-02 2.048316e-02 2.733821e-02 8.099936e-03 3.001054e-02 1.755248e-02 1.829568e-02 -1.190033e-02 4.777791e-03 -1.036308e-02 1.266073e-02 7.899904e-03 3.347813e-02 -4.038246e-02 1.182835e-02 -1.441286e-02 1.193836e-02 1.101446e-02 -7.409172e-03 9.017489e-03 9.335208e-03 -8.284252e-03 -1.440963e-03 -9.248377e-03 -2.786118e-02 1.525027e-02 1.546646e-02 -2.270559e-02 -1.664102e-02 9.400813e-03 -2.199029e-02 -2.983327e-02 -1.274844e-02 -2.186155e-02 6.599796e-03 -8.722927e-03 1.745987e-02 -5.381965e-02 1.799118e-02 2.013743e-02 8.622300e-03 2.431227e-02 3.026592e-02
-4.055563e-02 1.215026e-02 -1.808633e-02 3.275460e-02 -2.604878e-02 1.619107e-02 1.100051e-02 1.526081e-02 4.758265e-03 1.544146e-02 1.848482e-02 -3.475415e-02 5.424759e-03 -1.114981e-02 3.217612e-01 1.243380e-02 -1.355382e-02 8.013967e-03 -1.108100e-02 1.238657e-02 -1.309203e-02 3.882720e-03 2.031595e-02 2.857269e-02 -6.840016e-03 1.176680e-02 1.788309e-02 2.192196e-02 -1.536190e-02 7.887313e-03 -1.258556e-02 1.395762e-02 1.066877e-02 3.668908e-02 -4.400693e-02 1.336424e-02 -1.489388e-02 1.415252e-02 1.324760e-02 -1.153800e-02 1.072860e-02 9.958377e-03 -8.555933e-03 1.004118e-02 -1.111422e-02 -2.480145e-02 1.575524e-02 1.654978e-02 -2.427127e-02 -1.920212e-02 1.142611e-02 1.845532e-03 -1.098705e-02 -1.466660e-02 -2.090531e-02 9.241692e-03 -9.302443e-03 1.760720e-02 -4.396227e-02 -4.168052e-03 2.276889e-02 -8.563583e-03 2.628325e-02 3.200798e-02
-4.272815e-02 3.308090e-02 -2.382916e-02 3.409252e-02 -2.701848e-02 1.724826e-02 1.187533e-02 1.565380e-02 1.843660e-02 1.686505e-02 1.981187e-02 -3.562186e-02 1.690413e-02 -1.206718e-02 1.940549e-01 1.250609e-02 -1.167101e-02 9.923047e-03 -1.588766e-03 1.220786e-02 -1.420062e-02 1.223515e-02 1.991240e-02 2.757307e-02 -1.257663e-02 -3.410150e-02 1.655556e-02 2.350713e-02 -1.756155e-02 8.914497e-03 -1.322156e-02 1.456778e-02 1.152317e-02 3.681932e-02 -4.703180e-02 1.395155e-02 -1.532752e-02 1.496341e-02 1.386434e-02 -1.375917e-02 1.127893e-02 9.712553e-03 -8.834846e-03 1.399345e-02 -1.164472e-02 -2.263975e-02 1.622358e-02 1.664621e-02 -2.525393e-02 -1.942035e-02 1.223748e-02 9.433590e-03 -3.673216e-03 -1.557836e-02 -2.084659e-02 1.034321e-02 -3.203841e-02 1.787531e-02 -4.140134e-02 -1.288296e-02 2.364014e-02 -1.889710e-02 2.967533e-02 3.213729e-02
