-9.184049e-03 -1.492320e-01 1.521692e-03 2.890061e-01 -3.500660e-01 -5.049582e-01 -9.681694e-03 2.948096e-01 2.967432e-01 -7.112411e-01 -1.657466e-02 4.858002e-02 1.082579e-02 -7.258093e-01 4.279403e-03 -2.741416e-01 -2.576966e-01 3.946207e-01 9.829393e-01 -4.690699e-01 1.660844e+00 1.223517e-01 -6.231632e-01 -4.340454e-01 -3.726045e-01 7.533470e-01 -1.285090e-01 -3.964366e-01 -2.249919e-01 -1.383015e-01 -4.345600e-01 5.883705e-02 4.518199e-01 -3.768652e-01 -7.569196e-01 6.413816e-02 -8.941105e-01 4.243376e-01 2.639061e-01 -2.391014e-02 2.499815e-02 1.186563e-02 -6.197382e-02 9.547783e-02 -1.229136e-01 4.360556e-01 2.644451e-01 4.848740e-02 -1.191026e-01 1.661838e-01 -7.846960e-02 5.658494e-02 -9.246206e-02 -6.814690e-01 1.068380e-01 1.642927e-02 -3.370538e-01 -9.815237e+00 -4.446541e-02 -2.926949e-01 5.367526e-02 7.227805e-02 4.484044e-01 2.016222e-02
-2.391007e-01 1.518087e-01 9.653264e-02 1.671232e-01 9.732171e-02 -7.445100e-01 -4.650733e-01 -5.390536e+00 -4.546139e-01 -5.849541e-02 -6.539389e-02 -2.258982e-01 -1.029308e-01 -1.279646e-01 -3.063646e-01 1.658725e+00 5.344814e-01 -2.148960e+00 6.300037e-01 -3.092722e-02 -8.829691e-02 -5.540553e-02 1.702116e-01 -2.246346e-01 -3.190635e-01 6.911357e-01 -6.856640e+00 -1.001442e-01 -3.500911e-01 2.947826e-01 -1.166129e-01 7.959425e-02 2.328281e-01 4.851812e-02 1.165809e-01 -3.086500e-01 7.344993e-01 3.341838e-01 5.287364e-01 1.068572e-01 3.904805e-01 9.539484e-02 -1.904290e-01 2.340537e-01 6.696425e-02 7.160943e-01 -5.197312e-02 -2.966664e-01 -6.545327e-01 -7.232265e-01 -5.185930e-02 6.747624e-01 -1.366859e-01 -2.746165e-01 1.034086e-01 -2.495309e-01 -5.510698e-01 -8.909917e-01 2.197159e-01 -6.541728e-01 4.463168e-01 3.669845e-01 -1.080012e+00 8.602844e-01
2.411433e-01 -1.443583e+00 2.412771e-02 3.009008e-01 3.162589e-01 -1.012792e-01 -7.594653e-01 -2.678141e-01 3.587019e-02 4.411629e-01 -9.178887e+00 -7.225208e-01 1.281313e-01 3.973973e-01 -9.839870e-02 1.085179e+00 -4.616015e-01 -6.016961e-02 -1.397803e+00 7.003365e-01 -7.429251e-01 7.274803e-01 2.618369e+00 1.415982e-01 -3.143657e-01 -5.739258e-01 -2.612931e-01 6.605026e-01 -8.370151e-03 -1.408642e-01 3.983493e-01 -6.176369e-01 -3.339400e-01 3.875292e-01 -8.329243e-01 -3.713766e+00 -4.917755e-01 -2.954965e-01 -1.334246e-01 1.355053e-01 -2.487028e+00 -5.079753e-02 4.206601e-01 -1.754247e+00 -4.154156e-01 2.900238e-01 -9.154716e-01 4.220904e-01 9.693833e-01 4.130240e-01 -2.904510e-01 9.999244e-01 -4.542347e-01 6.796660e-01 -5.752411e-01 -5.347611e-01 -2.578733e+00 -1.170904e+00 -4.852273e-01 -8.335252e-01 1.792660e-01 2.028344e-01 7.641331e-02 2.014766e+00
1.454772e-01 -8.396866e-01 -4.465627e-01 -5.258828e-02 5.826212e-03 -1.219423e-01 -1.865279e-01 -2.834134e-02 -2.493699e-01 -1.077509e-01 -4.459598e-01 -6.396055e-01 8.244248e-01 -6.841174e-01 -6.442110e-01 -9.239432e-01 2.566473e-02 1.185385e+00 -3.432686e-01 7.777197e-01 4.997483e-02 -4.615699e-02 3.351305e-03 1.586669e+00 -2.440306e-01 4.811856e-02 -4.041997e-01 -1.033193e-01 -1.090956e-01 -6.984854e-01 -2.041468e-02 -5.836203e-01 8.010656e-02 -1.939000e+00 -3.530207e-01 2.495531e-01 8.420645e-01 1.878401e-02 4.045525e-01 -1.301562e-01 3.712022e-01 1.025025e+00 2.453033e-01 7.147599e-02 6.352826e-02 7.779242e-01 -1.555999e-01 -7.554739e-01 3.554477e-03 -1.416562e-01 1.118116e+00 3.249108e-02 5.381938e-02 1.040227e-01 -3.321121e-01 -2.989718e-02 4.726404e-01 5.347428e+00 -6.072556e-01 1.161631e+00 4.180434e-01 -8.394152e-01 -7.158638e-01 -1.239065e-01
-2.251282e-01 6.727096e-01 4.184566e-01 2.054845e-01 -3.255546e-01 -7.158658e-01 -2.264506e-02 2.731335e-01 1.685141e-02 -4.063485e-01 -5.331708e-02 4.216996e-03 -4.484840e-02 7.979616e-01 2.911138e-02 6.868207e-02 6.175576e-02 4.365269e-01 -1.213571e-01 1.192081e+00 -5.691326e-01 -5.090816e-01 4.035514e-01 -1.266501e+00 -5.011017e-01 -3.460515e-01 -8.554694e-02 -1.460331e-01 -1.241279e-02 1.259399e-02 1.257912e+00 -3.513871e-01 -4.396354e-03 -2.279350e-01 4.186252e-01 -3.975924e-02 -5.269975e-01 -1.809159e-02 4.628618e-01 -1.186459e-01 -4.719126e-01 3.315599e-01 1.093451e-02 8.640074e-02 5.237461e-02 -7.100044e-02 8.994560e-01 1.138246e-01 -1.785275e-01 -1.873248e-02 -2.261240e-01 2.036646e-01 -6.595716e-01 -1.069518e-01 3.586447e-01 6.299651e-01 5.077609e-01 -9.810143e+00 2.594466e-01 -2.319486e-01 -2.990890e-01 -1.547814e-01 -3.368875e-02 4.728091e-01
5.014388e-01 -4.718629e-01 2.899142e-01 -4.946299e-01 -4.413716e-02 3.020812e-01 -3.236333e-02 -1.031874e-01 3.984960e-02 2.388732e-01 5.570992e-01 1.257394e-01 4.747858e-02 -1.579604e-01 -1.110728e-02 3.182428e-01 3.518741e-01 5.621921e-01 -1.199144e-01 4.270352e-01 3.594249e-01 7.451907e-01 2.853067e-01 4.694433e-01 2.576436e-01 8.621352e-01 -1.615959e-02 4.128166e-01 5.515029e-01 6.148574e-01 -1.179881e+00 2.238545e-02 4.403944e-01 8.493957e-02 -4.122673e-01 -8.044784e-02 2.172341e-01 1.942998e-01 -2.219731e-02 -3.250439e-02 -7.347129e-03 -1.782040e-01 -1.426729e-01 -1.034520e+00 4.187824e-01 4.075245e-01 -6.553555e-02 -2.601524e-01 -5.333464e-02 -5.374446e-02 -8.569844e-02 5.311685e-01 4.405754e-01 -3.896115e-01 -5.780169e-01 -2.123302e-01 -1.111359e+00 -5.565677e+00 6.163798e-02 -3.896781e-02 5.351697e-03 -2.518556e-01 -1.669025e-02 5.998202e-02
3.197369e-01 4.986749e-01 1.800435e-01 1.728480e+00 4.498926e-03 3.920285e-01 1.940834e-01 -9.603547e-01 1.073432e-02 -7.073548e-01 -2.351487e+00 -2.602529e-02 -1.845080e-01 6.057190e-02 -1.626927e-01 1.000753e+00 -1.594841e-01 7.343929e-01 -3.283830e-02 8.671056e-01 2.157246e-01 1.934918e-01 1.108920e+00 6.093022e-01 4.516308e-01 9.969262e-01 -1.722808e+00 8.968943e-01 3.800156e-01 -4.040505e-02 5.514668e-01 -1.034627e+00 7.071092e-01 6.063277e-01 1.224739e-01 -1.635088e-01 3.920822e-01 1.791598e-01 -4.336191e-01 -8.691493e-02 4.373269e-01 5.494675e-02 -6.946619e-02 1.054645e-01 2.011049e-01 1.134398e+00 2.399226e-01 -3.430556e-01 2.589209e-01 1.182743e+00 -1.011436e-01 9.499293e-01 -2.908892e-01 3.312070e-01 1.872701e-01 -1.321638e+00 2.824566e-01 -7.748439e+00 3.927386e-03 5.257604e-01 5.437148e-01 -1.367707e-01 4.025624e-01 9.229410e-01
-2.607784e-01 1.742377e-01 -5.043241e-02 8.530656e-01 -5.734577e-01 -7.255566e-02 1.165546e+00 -4.268000e-01 -5.211088e-01 -7.533123e-01 -3.352761e+00 -2.601919e-02 -5.428591e-01 -6.387805e-01 -6.814938e-01 -7.913471e-01 -5.519027e-01 6.184562e-01 -5.073822e-01 4.114269e-02 -5.219170e-01 5.940480e-01 -1.257237e-01 -4.538284e-01 -2.027263e-01 3.468054e-01 -8.809099e-01 1.180159e+00 2.808464e-01 -1.716813e-01 4.491085e-01 -2.135605e-01 5.100115e-01 9.784701e-02 1.204113e+00 -1.557904e-01 4.211008e-01 9.522811e-02 2.068639e-01 1.961395e-01 -9.352266e-01 -2.379120e-01 3.659354e-01 -1.796656e-02 -3.620098e-01 1.837216e-01 -2.633928e-01 -7.726794e-02 1.322573e+00 9.890532e-01 1.167363e-01 -1.401491e+00 -3.379159e-01 -2.232616e-01 3.146546e-01 -2.025377e+00 9.474680e-02 -7.549898e+00 2.474755e-01 -1.139818e+00 4.864801e-01 5.515928e-01 -3.879339e-01 2.946247e-02
1.485459e-01 -1.511867e-01 2.776651e-01 -6.887105e-01 4.197173e-01 -4.300553e-01 -2.479330e-01 4.813288e-01 9.438636e-01 2.034341e-01 -6.149285e-02 2.333940e-01 -5.625807e-02 6.866143e-01 -1.022136e-01 2.189501e-01 -5.274366e-01 4.916344e-04 -2.373657e-01 1.099192e+00 6.187180e-01 -2.473144e+00 -5.480039e-01 9.311015e-02 7.843956e-02 5.061577e-01 3.665071e-01 1.352473e-01 3.470355e-01 -2.595401e-01 -6.462581e-01 -8.844850e-02 1.004269e+00 -5.594898e-01 -3.961221e-01 5.704080e-01 -9.243496e-01 -8.237526e-01 -6.443655e-02 -4.241913e-01 -1.113849e+00 -1.741410e-01 1.511343e-01 -5.632310e-01 -9.143245e-01 3.587512e-02 -2.051737e-01 -4.112796e-01 9.672637e-02 2.898484e-01 2.101689e-01 -2.680086e-01 2.354367e-01 3.642618e-01 -1.922125e-01 1.214662e+00 7.080542e-02 2.745758e+00 -8.014433e-02 -8.043397e-01 1.778954e-01 -2.822880e-01 -6.645354e-01 1.279071e-01
-2.698738e-01 -3.367807e-01 1.634950e-01 1.007343e+00 3.208846e-01 -2.100036e-01 -1.876936e-01 1.029015e-02 5.611305e-01 1.064343e-01 1.276914e-02 -2.315121e-01 -6.417497e-02 8.214546e-01 -2.784024e-01 2.664908e-02 1.445922e-01 3.079394e-01 3.586635e-01 -1.118656e+00 3.429264e-01 6.250140e-02 1.434189e-01 2.898733e-01 -5.484316e-01 4.148245e-01 -2.297178e-01 4.823608e-01 -9.213570e-01 1.151036e-01 5.733191e-02 8.937009e-02 1.238081e+00 -1.413525e+00 6.364638e-01 -6.941935e-01 3.625606e-01 -2.303056e-01 -1.284739e-01 1.439784e-01 -5.903507e-01 -1.237101e-01 -1.688809e-01 -2.617003e-03 -8.712046e-01 -7.405568e-01 -5.117917e-01 2.368320e-03 1.882275e-01 -6.868481e-01 -5.670936e-02 -6.419147e-01 -4.437321e-01 -2.674548e-01 3.862416e-01 -2.281492e+00 1.144768e+00 -4.216250e+00 1.368705e-01 1.526233e-01 -7.909723e-01 5.045000e-01 6.807371e-01 4.759819e-01
2.244203e-01 5.592286e-01 1.742294e-01 1.511191e+00 4.084994e-01 2.689895e-01 7.394056e-01 -1.483144e+00 -2.855225e-01 -1.011649e+00 -1.574211e+00 6.790630e-01 -1.396384e-01 -2.315760e-01 -2.353447e-01 8.668712e-01 -5.049977e-02 -4.174889e-02 2.545718e-02 -1.071397e-02 3.464965e-01 -2.375653e-01 -1.165847e-01 5.726965e-01 6.247646e-01 4.822468e-01 -1.969069e+00 -4.625620e-01 2.961946e-01 -1.349385e-01 7.044824e-01 -1.326182e+00 7.613596e-01 -2.584405e-01 6.471219e-01 -9.755825e-02 7.288758e-02 9.688069e-02 -1.355564e+00 2.388127e-01 8.158892e-01 4.487069e-02 6.861330e-01 3.525255e-01 4.528032e-02 1.403080e+00 -4.312466e-01 3.237453e-01 1.299867e-01 1.607695e+00 -1.074288e-01 2.574393e-01 -5.679156e-01 -5.050827e-01 4.070624e-01 -1.827483e+00 8.263720e-01 -8.540945e+00 3.602145e-02 1.804371e-01 4.493773e-01 -4.863516e-02 1.050055e+00 1.505731e-01
-5.957506e-02 2.873105e-02 1.667603e-01 7.809023e-01 1.888748e-01 2.804592e-01 -3.410749e-02 1.682041e-01 1.714906e-01 3.718140e-01 -9.319799e-01 9.308125e-01 2.239419e-01 -3.214011e-01 -7.846294e-01 -9.863754e-02 1.644661e-01 -9.319062e-02 -2.692711e-02 -5.179336e-01 5.311244e-01 -1.051180e+00 2.593331e-01 8.876258e-01 9.006114e-02 -3.745603e-01 -3.492067e-01 5.595010e-02 2.796938e-01 -2.656632e-03 -2.090461e-01 -3.212481e-01 -6.123691e-01 6.156932e-02 -1.125293e-01 -2.939899e-03 3.076007e-01 5.744565e-03 -2.495096e-01 6.698695e-02 2.339392e-01 9.475595e-02 2.852297e-01 -4.205319e-01 4.442632e-01 2.033402e+00 -5.359999e-02 -6.908300e-02 -3.122207e-01 7.386774e-01 4.366700e-02 -1.207638e+00 -3.130797e-01 8.974348e-02 -3.339281e-01 7.829202e-01 5.050744e-01 -7.976125e+00 1.180755e-02 -3.979760e-01 -1.171158e+00 -4.088656e-02 -2.869570e-02 2.886799e-01
-1.293660e-01 -4.720421e-01 1.122749e-01 -3.123470e-01 -3.893077e-02 -3.273530e-01 3.607380e-01 4.077050e-01 1.896463e-02 -5.483183e-02 2.429871e-01 6.293281e-02 -1.244042e-01 4.246831e-02 -7.947457e-02 -1.614837e-02 -9.567945e-01 9.682320e-02 -3.436636e-01 -1.030115e-01 1.680836e-01 -7.368240e-01 4.431865e-02 1.743129e+00 -6.374865e-01 6.208536e-01 2.065464e-01 -1.956818e-01 6.916206e-01 -7.857619e-01 2.141314e-01 -9.074159e-01 6.122788e-01 4.778918e-01 -3.025188e-01 6.939248e-03 -4.812937e-01 6.507093e-02 -2.296642e-01 1.387694e-01 -3.373463e-01 1.127534e-01 7.606242e-02 5.172468e-01 4.336451e-01 -1.413276e+00 6.883441e-01 3.309569e-01 1.093705e-01 1.259778e-01 5.003896e-02 -6.696362e-01 5.077967e-01 3.677065e-01 4.906315e-01 6.911913e-01 -7.865553e-01 -1.864433e-01 -4.296496e-01 -2.775257e-01 2.306611e-02 1.400644e-01 1.065919e-01 7.537598e-01
-6.277286e-01 -4.619156e-01 5.323868e-02 -5.568507e-01 -4.985252e-01 6.352324e-01 3.574976e-01 -3.918844e-01 -3.302733e-01 2.582872e-01 -3.826426e-01 3.197270e-01 -1.123554e-01 -2.278657e-01 -4.896885e-02 -9.849644e-01 -2.800236e-01 -4.286450e-01 4.002354e-01 -8.255634e-01 -4.934773e-01 -1.018583e+00 -2.151287e-01 -5.012276e-01 -9.731901e-01 -2.662687e-01 -3.786824e-01 -1.542980e+00 -2.146403e-01 1.962080e-01 -3.388469e-01 8.616562e-01 1.047272e+00 1.716317e-01 -4.197237e-01 2.172431e-01 -4.909196e-01 5.873483e-01 2.065879e-01 4.636844e-01 8.540501e-02 1.185779e-01 2.397995e-01 -1.942042e-01 4.428485e-01 -6.922462e-03 -1.748213e-01 5.477523e-01 5.088879e-01 -4.362516e-01 -3.935502e-02 4.817992e-01 -4.277243e-01 -1.207053e+00 -8.743148e-02 -2.400812e-01 -5.206453e-02 -6.649734e+00 1.440670e-01 -1.334198e+00 -5.970759e-01 9.042797e-03 2.061728e-01 -7.670754e-02
-1.233087e-01 -1.457539e-01 -2.451415e-01 -1.441043e-01 -5.180463e-01 -2.632245e-01 3.311855e-01 4.320824e-01 2.078118e-01 5.147256e-02 1.881801e-01 -3.117808e-01 -1.645138e-01 2.530927e-01 7.872221e-03 1.158124e-01 1.206312e-01 9.037288e-01 -2.502598e-01 1.494819e+00 -2.011694e-01 -8.108545e-01 5.261773e-02 1.095459e+00 -2.998856e-01 3.654515e-01 2.135393e-01 4.426336e-01 -4.089613e-01 -3.237915e-01 -5.064601e-01 -8.108264e-01 1.736088e-01 1.199352e-01 -2.319358e-03 3.434191e-01 3.284011e-01 2.868344e-01 -2.317058e-01 1.172338e-01 -6.170764e-01 -8.788460e-02 2.741582e-01 6.851777e-01 2.656986e-01 1.050587e-01 -2.341463e-01 -3.225236e-01 6.016543e-02 3.648817e-01 2.868452e-01 -6.692420e-01 6.674925e-01 6.888794e-01 1.866386e-01 1.004128e-01 5.027318e-01 -3.488131e+00 -1.872260e-01 -5.888386e-02 8.392695e-01 -7.845861e-02 1.231105e+00 3.112583e-01
-2.588133e-01 2.982049e-02 2.068497e-01 7.792265e-01 4.606133e-01 7.028072e-01 -1.643949e-01 -5.454246e-02 -4.084181e-01 2.553396e-01 4.395821e-01 2.983496e-03 -4.698601e-03 4.399924e-01 1.522471e-02 7.198817e-01 -5.247329e-01 2.199653e-01 -2.885295e-01 4.680349e-01 -6.199396e-01 -1.363207e+00 -3.165641e-03 -1.631615e-01 1.241683e-01 5.574290e-01 2.187386e-01 -5.869519e-01 -1.926101e-01 -5.243803e-02 -8.112972e-02 -3.026175e-01 5.170762e-01 -5.267986e-01 -2.492182e+00 -2.643099e-01 8.948015e-01 5.129150e-01 1.380844e-01 -4.148445e-01 -1.990118e-01 -1.699701e-02 1.016031e-01 5.546914e-01 -7.374201e-02 -4.980850e-01 7.888088e-01 8.347079e-01 2.631819e-01 1.210532e-01 1.510737e-02 7.554433e-01 -9.650574e-03 -4.208022e-01 2.958926e-02 -2.663996e+00 7.742909e-01 -4.214627e+00 -2.440900e-01 1.164132e-01 -2.171616e-01 3.404597e-01 -1.412598e-01 3.366125e-01
1.958037e-02 2.516731e-01 -1.229251e-01 -1.216606e+00 2.897559e-01 6.114438e-01 1.467578e+00 -6.299640e-01 9.058132e-01 5.691685e-01 -3.469098e-01 6.033273e-01 -3.945153e-02 -2.735250e-01 8.070970e-01 1.193508e-01 -8.202541e-01 1.635528e+00 4.973065e-01 3.364491e-01 -5.650442e-01 1.878819e-01 2.332130e-01 7.040536e-01 -1.339562e+00 -2.385084e+00 -1.424383e+00 1.334741e-01 3.914393e-01 -5.948251e-01 5.690040e-02 2.076132e-01 -2.193211e-01 -6.142486e-01 3.127233e-01 8.430804e-01 9.493805e-01 -6.260012e-01 1.306683e-01 -3.753527e-01 1.961258e-01 -8.419983e-02 -1.256500e+00 2.238674e-01 5.850135e-01 4.929690e-01 -6.921277e-01 1.198503e-01 5.386005e-02 5.684535e-02 2.482701e-02 -7.150438e-01 -5.614267e-02 -5.269611e-01 -8.139359e-01 -4.160399e-02 7.951564e-01 -1.114042e+00 -1.236316e-01 1.421631e+00 1.259935e+00 -4.738933e-01 8.318259e-03 -2.290729e-01
2.980803e-01 4.926089e-01 -2.268807e-01 4.188240e-01 -5.928934e-01 -1.399535e+00 1.780347e-01 -1.343461e-01 -2.250727e-01 -7.855697e-01 -3.298205e-01 -3.195121e-02 1.284872e-02 4.384684e-01 2.157096e-02 -4.086638e-02 -4.401956e-02 -3.625205e-01 2.294875e-01 -7.900193e-03 1.465544e+00 6.918591e-01 3.331595e-01 -6.730743e-02 1.725417e-01 -5.019203e-01 -2.266340e-01 1.209531e+00 -5.662477e-01 -1.422738e-01 -1.956806e-01 2.677101e-01 4.659013e-02 -4.440160e-01 8.079942e-01 -1.670524e-01 1.243501e+00 -5.348561e-01 5.164150e-01 -2.755210e-01 2.741291e-01 7.969699e-03 -6.125745e-01 -3.724067e-01 -1.284185e-01 1.261383e+00 7.286100e-02 3.375860e-02 9.421731e-03 -4.691539e-01 9.663459e-03 4.033778e-01 2.796870e-01 9.703362e-01 3.919140e-01 -1.660845e-01 -2.088724e-01 -4.317625e+00 -1.727239e-01 2.334976e-01 1.055130e-01 -4.679796e-01 -5.801044e-01 1.195288e-01
8.729361e-01 3.182377e-01 4.546382e-01 1.123816e+00 -5.072941e-02 -2.434567e-01 -1.063703e-01 -2.879720e-01 -2.814827e-02 4.613525e-01 -2.211023e-01 7.435528e-02 -4.788038e-03 6.750209e-02 -3.057272e-01 3.496477e-01 2.074276e-02 3.437280e-01 4.642395e-01 -3.056253e-01 4.762306e-01 6.785930e-01 8.041062e-01 4.724354e-01 3.433253e-01 -1.035791e+00 2.207204e-01 2.095622e-01 -2.635568e-01 -3.802955e-01 6.084519e-01 -2.782176e-01 -5.694792e-01 -3.469444e-01 8.758120e-01 -1.553709e-01 1.896221e+00 -2.487724e-01 -7.849727e-02 2.061699e-01 -1.785633e-01 -1.391454e-03 -3.222443e-01 2.098480e-01 4.928685e-01 3.089471e-01 1.895652e-01 -4.740477e-01 -3.518940e-01 -2.310470e-01 1.566279e-01 8.177303e-01 -7.629452e-01 6.607320e-01 -1.892421e-01 6.460729e-01 5.965654e-01 -1.439749e+00 -1.579202e-01 -2.818843e-03 -1.835138e-01 -7.390425e-02 9.046590e-01 9.139122e-01
-1.495249e-01 2.417594e-01 1.275923e-01 3.027992e-01 -3.309979e-01 4.939591e-01 1.132511e-01 3.174418e-01 -1.049494e+00 5.744169e-01 -9.724613e-02 1.119912e-01 -1.513856e-02 -2.762924e-01 -1.625559e-02 3.719911e-01 -1.620226e-01 -6.950518e-01 4.288330e-01 -5.174422e-01 5.195979e-01 3.888319e-01 5.284281e-01 6.727070e-02 8.955561e-02 4.422228e-01 4.851309e-02 -2.396145e-01 -8.628666e-01 -1.801039e-01 -7.692639e-01 -4.142826e-01 1.797996e-01 -4.046579e-01 5.023105e-01 3.629659e-01 5.367763e-01 -8.374961e-02 -3.033952e-02 -4.538681e-01 6.439446e-01 -1.073080e-01 -1.218070e+00 5.499712e-01 4.321095e-01 1.339430e-02 -6.394483e-01 9.126683e-02 4.033425e-01 1.230639e-02 4.554837e-02 2.500321e-01 -3.118109e-01 -7.231347e-01 4.499730e-01 4.400995e-01 1.563343e-01 -6.044818e+00 -8.154663e-02 -3.010642e-02 3.433826e-01 3.716314e-03 -2.570053e-01 4.138957e-01
3.616237e-02 -1.023697e+00 -4.861624e-02 -4.432365e-01 7.917762e-01 -3.801445e+00 8.385566e-03 9.156667e-01 -1.623702e+00 -1.225720e+00 -2.392890e-01 -1.736330e-01 2.727768e-02 -2.826372e-02 1.273175e-01 -5.881882e-01 1.485451e-01 -4.835978e-01 -4.906286e-01 -5.775298e-01 -5.843425e-01 8.343447e-01 -7.567269e-01 3.830737e-01 6.363620e-01 -5.754390e-01 7.508111e-01 -3.558093e+00 4.024955e-01 -4.604816e-01 6.683522e-02 1.054779e-02 -2.294888e-01 -8.735734e-01 -1.988023e+00 5.886352e-02 2.516699e+00 1.555372e-01 1.463414e-01 -1.212864e-02 -3.814058e-02 -8.022698e-02 -1.876303e+00 1.199721e-01 -4.510072e-01 -5.537938e-01 3.418371e-03 1.085839e-01 -3.312276e-01 7.238308e-01 -3.856888e-02 -9.041407e-01 6.938972e-02 -4.826871e+00 -1.378406e-01 1.839055e-01 4.298782e-01 4.462461e+00 1.465208e-01 -3.786794e-01 1.606976e-01 -5.728561e-01 -5.498160e-02 2.100989e-01
-2.048047e-01 9.453341e-01 4.797543e-01 1.102365e+00 -1.889476e-01 -4.619327e-01 2.987565e-01 -1.044938e+00 2.101211e-01 3.039723e-01 3.172609e-01 1.370109e-01 6.500220e-02 -4.144091e-01 4.921790e-01 -2.598362e-01 -1.599674e-03 9.556510e-01 -5.639267e-02 4.493634e-01 7.099423e-01 -4.524029e-02 -4.076844e-01 1.027783e+00 3.435553e-01 6.355017e-01 -5.664201e+00 6.171983e-01 6.776803e-01 5.287533e-01 4.587156e-01 -9.560251e-01 -1.242092e-01 -4.144394e-01 9.512369e-02 -3.098703e-01 1.598761e-02 2.124553e-01 -1.127058e+00 -3.171977e-02 -2.120285e-01 -3.066735e-02 2.606927e-02 -5.879196e-02 4.278434e-01 -3.250448e-01 8.814939e-01 -1.685944e-01 3.468527e-01 2.949055e-01 2.138673e-01 -2.343992e-01 1.935823e-01 -2.837603e-01 3.044366e-02 1.211047e-01 5.750294e-01 -6.416480e+00 2.622577e-02 -9.635522e-01 -1.225412e-01 -2.140943e-01 1.243523e+00 -1.038204e-01
1.873474e-01 -3.219712e-01 2.254110e-01 4.295818e-01 -3.286491e-01 7.490171e-01 -1.587711e-01 -3.417540e-01 5.637368e-01 1.281631e-01 8.570604e-02 -7.676307e-01 -7.218374e-02 7.443173e-01 -8.182131e-02 3.103704e-01 -7.994838e-01 4.569650e-02 2.787256e-01 -5.774571e-01 -3.957149e-01 3.718251e-01 2.680469e-01 4.983954e-01 -6.981163e-01 -6.601326e-01 -6.732456e-01 -3.558758e-01 -3.868051e-01 4.581876e-01 4.528921e-01 -2.508834e-02 -3.509334e-01 -3.344879e-01 6.268674e-01 2.399979e-01 1.203116e-02 -1.010054e-01 6.127940e-01 -2.619731e-01 -5.002038e-01 9.974754e-02 2.758030e-01 1.702007e-01 1.280087e-01 -2.153579e-01 -5.573687e-01 -6.950888e-03 5.490797e-01 -6.815326e-01 4.455258e-02 4.991381e-01 1.909933e-02 6.790411e-02 1.952412e-01 -7.869152e-01 9.333046e-01 -5.744116e+00 1.431685e-01 6.738811e-01 -1.114728e+00 6.609525e-02 -3.269158e-01 1.189642e-01
-1.523804e-01 3.416668e-01 -5.205121e-01 -8.779005e-01 -7.627184e-01 1.064309e+00 6.676037e-01 -6.849484e-01 7.576289e-02 6.839275e-01 9.192837e-01 6.365235e-02 -9.278595e-02 3.844919e-01 4.854452e-01 6.205602e-01 1.187309e-01 1.462106e-01 1.374334e+00 -8.435110e-01 -5.305197e-01 -6.822438e-01 -7.589920e-01 -4.668788e-01 -2.051610e-01 -9.582648e-01 3.226777e-01 5.756071e-01 -7.267340e-01 3.002804e-01 5.107521e-01 -4.492176e-01 4.011391e-01 -1.279195e-02 -1.069871e+00 -5.968366e-01 -1.582582e+00 5.338350e-01 1.023864e+00 2.429702e-01 -9.108745e-02 1.899894e-01 2.798412e-01 6.202592e-01 1.646926e-01 5.534346e-01 -2.430799e-02 -5.569758e-01 -3.954649e-01 -2.169216e-02 1.670549e-01 8.888822e-01 6.510182e-01 9.630783e-01 -1.701968e+00 -7.093129e-01 3.145373e-01 3.543035e-01 6.844132e-02 -2.683617e+00 -6.699938e-01 -1.645913e-01 -1.055732e-01 -1.700551e+00
5.054965e-02 -3.227999e-01 1.640566e-01 -1.245571e+00 -4.054571e-01 6.137918e-01 -3.799685e-01 -5.261731e-02 6.833035e-01 8.346450e-01 -2.965172e-01 -6.281006e-02 -2.500443e-02 -1.601589e-01 -2.172900e-01 8.252119e-02 1.645317e-01 1.101779e+00 -5.421522e-01 2.066667e+00 -6.199095e-01 -1.137362e+00 2.598915e-01 -1.895697e-01 -5.957001e-01 -3.340891e-02 2.572479e-01 -2.489680e-01 6.742123e-01 1.861168e-01 -3.322360e-01 3.871903e-01 4.777918e-01 -2.386054e-01 5.609506e-01 6.616195e-02 -6.108102e-01 -2.859488e-01 1.212272e-01 -4.169826e-01 6.128170e-01 -8.471480e-02 -3.178357e-01 -3.917124e-01 2.593037e-01 7.597641e-01 3.980606e-01 -1.756317e-01 -6.636971e-01 -7.902654e-02 1.233670e-01 1.046315e+00 1.953987e-01 1.352436e+00 -4.251918e-01 -5.970759e-01 4.930679e-01 -1.256286e-01 -5.632662e-01 1.455213e-01 1.194914e+00 -5.977684e-01 4.138754e-01 -2.398797e-01
-1.606204e-01 -2.753866e-01 3.879032e-01 -7.814395e-01 -3.572750e-01 -2.435667e-01 1.520946e-02 -4.476960e-01 6.069084e-02 -7.064715e-02 2.380151e-01 -7.662092e-01 5.884108e-03 2.747398e-01 -7.766343e-01 1.689818e-01 3.977339e-01 2.345464e-01 -3.549159e-01 -3.015882e-01 1.906797e-01 1.352385e+00 -3.459605e-01 1.149617e-01 5.587276e-01 1.383953e+00 5.944865e-01 2.674547e-01 1.003969e-01 -3.143943e-01 -8.358419e-02 -2.217666e-01 -1.745450e-02 -5.276126e-01 1.193760e-01 -7.736216e-02 -9.195983e-02 1.341805e-01 8.387148e-02 -6.858321e-02 3.407530e-02 -1.196439e-01 9.786273e-02 -3.448779e-01 -9.435228e-01 -1.127884e-01 3.261236e-01 1.973375e-01 -1.184277e-01 -1.828370e-03 3.940383e-02 4.177201e-01 -5.413750e-01 -5.230765e-02 -3.606514e-01 -1.420391e-01 6.554628e-01 4.026553e-01 -4.108968e-01 -1.193381e+00 -1.249091e-01 4.318715e-01 -2.220538e-01 -1.080004e+00
1.302009e+00 -1.876729e-01 2.044592e-01 5.230092e-01 4.338275e-01 -1.084470e+00 -7.014068e-01 2.667572e-01 -5.952847e-01 1.094657e+00 9.137174e-02 2.404064e-01 -3.717780e-02 -2.619801e-01 -7.020974e-01 -4.578429e-01 -1.418639e+00 1.018250e+00 9.943135e-02 2.146427e+00 -6.028194e-01 -1.161791e+00 7.591642e-01 7.118771e-01 2.326358e-01 -1.119617e+00 -3.481486e-01 1.686619e+00 3.953382e-01 -3.297395e-01 1.830989e-01 -6.147208e-01 1.441898e+00 4.441216e-01 1.025840e+00 -1.279874e-03 -9.112385e-01 -1.018230e+00 -1.049130e+00 9.634302e-02 6.893927e-01 -8.368499e-02 -6.278066e-01 1.379768e-01 1.321243e+00 -3.188376e-01 -7.618198e-02 2.130794e-01 -3.859876e-01 2.397476e-01 -1.575356e-01 4.520358e-01 6.897817e-02 4.383051e-01 7.227008e-01 1.415968e-01 9.218300e-01 9.675823e-01 -1.208122e-01 7.257351e-01 2.823969e-01 -2.602006e-01 -1.446382e-01 5.075163e-01
1.834587e-01 -1.400675e-01 3.274453e-02 -4.319869e-02 1.327213e-01 -8.011171e-01 5.296435e-01 7.556250e-01 1.622459e-01 2.420783e-01 4.737454e-01 -8.824760e-01 -3.849571e-01 5.968316e-02 1.351593e-01 -1.682216e-01 -8.223249e-01 6.506549e-01 -6.079207e-02 -6.477208e-01 1.295846e+00 6.689200e-01 -2.063144e-01 -6.531234e-01 7.161607e-01 4.588857e-01 -7.451110e-02 -1.798695e-01 1.008860e-01 8.267724e-01 3.156234e-01 -2.272112e-01 -5.558785e-01 -4.244239e-01 1.020600e+00 -1.831024e-01 5.904664e-01 -7.596057e-02 -9.873307e-02 1.059996e-01 5.201461e-02 1.492938e-01 -3.384770e-01 4.189634e-01 3.487924e-01 7.886290e-01 7.649247e-01 6.372613e-02 -3.757644e-01 -6.399014e-02 -9.933274e-02 -6.400905e-01 2.309280e-01 5.392821e-01 -1.754720e-01 3.854378e-01 -1.211440e+00 -2.525988e+00 3.994005e-01 -2.293218e-01 4.985420e-01 9.976500e-03 -7.920665e-02 3.427313e-02
5.314114e-02 -2.873062e-01 -1.702982e+00 2.801490e-01 2.569950e-01 -5.991969e-01 4.060872e-01 -1.379471e+00 -4.748311e-01 6.781062e-01 -1.131151e-01 2.438875e-01 -1.165537e+00 6.582231e-01 1.450805e-01 2.033212e-01 -3.311138e-01 -3.103839e-02 -2.507666e-01 -2.714501e+00 -7.729976e-01 5.486900e-01 -3.882742e-01 -2.118273e+00 -1.040733e-01 3.646644e-01 2.346918e-01 1.585558e+00 -2.428248e+00 4.880070e-01 -2.203854e-01 1.828070e-01 8.814864e-01 -1.623992e+00 -2.649912e-01 -3.952782e-01 -4.939578e-01 3.198869e-01 -7.085298e-02 3.138412e-03 -1.440880e+00 -4.660645e+00 -1.055941e-02 -3.161982e+00 -2.162846e-03 -3.074133e-01 1.569052e-01 -3.914090e-01 -7.604197e-01 2.091830e-01 -2.374343e+00 -8.419564e-01 -2.924366e-03 -1.332769e-01 2.498488e-01 -3.462546e+00 5.994321e-01 1.933613e+00 -2.247968e+00 3.035600e-01 7.250313e-03 -6.036258e-01 5.286078e-01 2.160725e-01
-1.092216e-01 -7.008525e-01 8.839880e-02 5.742059e-01 -7.180087e-02 4.772426e-01 8.240847e-01 -6.900083e-01 -8.383942e-01 3.775674e-01 -3.688983e+00 -5.258048e-01 -1.646957e-01 -5.354824e-03 -4.401740e-01 4.292047e-01 -2.903202e-01 3.956189e-01 2.446129e-01 -1.995060e+00 3.874343e-01 -2.045919e-01 -1.047617e-01 -3.364552e-02 1.758091e-01 7.895166e-01 -4.566167e-01 2.921244e-01 1.832695e+00 -4.310887e-01 -3.026685e-01 6.453219e-02 -8.255314e-01 -1.536702e-01 -1.705153e+00 -8.925345e-04 -1.113983e+00 2.660739e-01 -5.034907e-01 1.300800e-02 1.068372e+00 -9.088670e-02 -3.163629e-01 -4.400059e-01 -2.959497e-01 2.876696e-01 1.219311e+00 7.835221e-01 6.086112e-01 -1.381016e-01 2.086530e-02 -3.731949e-01 -1.407042e-01 7.485506e-01 5.561162e-01 7.014096e-02 2.593756e-01 6.296005e-01 -1.020347e-01 -9.504175e-01 3.399406e-01 3.748462e-01 5.203841e-01 4.462762e-01
-2.947909e-01 -1.396203e-02 4.002355e-02 1.694497e-01 2.277622e-01 -3.369039e-01 4.034647e-01 7.653425e-02 -3.690561e-02 2.056568e-01 -1.568719e-01 -1.475904e-01 2.498167e-02 1.347084e-01 1.162937e-01 -5.472397e-01 3.824125e-01 -1.685209e-02 -3.542818e-01 1.500589e+00 1.323377e-01 5.653268e-01 -6.672530e-02 5.996030e-01 -3.288085e-02 3.470252e-01 4.046625e-01 -1.709459e-02 4.849954e-01 2.168246e-01 1.269585e-01 -1.687706e-01 2.037629e-01 -8.398605e-01 4.233654e-01 1.658561e-01 -9.370906e-01 -1.566376e-01 1.244059e-02 2.262944e-01 -1.251851e+00 -5.072254e-02 -1.761419e-01 8.306374e-02 2.241031e-01 -8.974711e-02 2.732556e-01 -3.709853e-01 -2.951224e-01 -4.743924e-01 6.062866e-03 -5.583009e-01 1.082042e-01 -5.636309e-01 -8.840723e-02 2.184813e-01 1.785619e-01 -9.562860e+00 -4.711541e-02 1.961397e-01 -2.523407e-01 -2.812837e-02 4.634366e-01 3.908992e-02
7.002193e-01 2.709550e-01 9.834085e-02 -2.452118e-01 3.834588e-01 -2.728918e-01 2.664688e-02 2.599440e-01 2.326983e-01 -2.446007e-01 -6.736945e-02 -3.333357e-01 -2.951012e+00 -1.807343e+00 -5.418861e-01 1.537006e-01 -1.113956e-01 2.015390e+00 -4.805031e-01 -7.380905e-01 5.351632e-01 -1.387847e+00 9.785824e-02 3.515013e-01 2.810743e-01 4.612006e-02 9.841133e-01 -1.524174e-01 7.087632e-01 -9.409440e-01 -6.957573e-01 -4.616021e-02 -1.186930e+00 -7.647585e-01 4.218601e-01 1.449759e+00 -2.184252e+00 -5.728230e-01 6.152842e-01 -2.867407e-01 5.299078e-01 -2.470026e-01 1.153031e-01 -2.020572e-01 1.968226e-01 3.361132e-02 -1.086614e-01 -7.695132e-02 -1.324414e+00 3.619691e-01 -1.019121e+00 8.103917e-01 1.460913e-01 -2.690418e-01 -4.269272e-01 -1.067455e+00 1.191585e-01 6.594992e+00 -1.324589e+00 9.937174e-02 -2.034382e+00 4.726313e-01 -2.690332e-01 -4.147499e-01
-2.890962e-01 3.112562e-01 -7.363894e-02 1.879414e-01 3.743023e-01 -8.255686e-01 4.302811e-01 -2.661018e-01 5.219847e-01 -1.368341e-01 -5.782930e-01 1.208385e+00 -2.491381e-02 -5.221489e-02 -1.680092e-01 -5.386537e-02 8.115330e-01 -1.836623e-01 4.872831e-01 -4.268699e-01 -4.313111e-01 1.024321e+00 6.790987e-03 7.032342e-01 3.581618e-01 1.638172e+00 7.278429e-01 6.300517e-01 5.491877e-01 -1.604653e-01 -6.014426e-02 7.063267e-02 6.239193e-02 1.925932e-01 -1.881750e-01 8.570356e-02 -1.124336e+00 1.714860e-01 2.453290e-01 -2.919620e-02 -1.785482e-01 -4.364739e-04 -4.148456e-01 -1.453328e-01 6.955003e-01 -1.033432e+00 -2.440009e-02 7.881003e-02 2.452830e-01 -4.826229e-01 1.156168e-01 -3.907858e-01 4.687383e-01 1.147157e-02 -1.207806e+00 -5.547774e-03 -3.649445e-01 -3.354698e-01 -9.287623e-02 2.544869e-01 1.181763e-01 5.822926e-02 4.184513e-01 -3.980337e-01
-2.336610e-01 -1.878753e-01 3.422494e-01 9.658298e-01 -1.121599e+00 9.531980e-01 -6.336501e-01 -2.877555e-01 7.744585e-01 7.064767e-02 -1.991086e+00 -4.910802e-02 -4.101313e-02 5.275665e-01 -2.072774e-01 1.414259e-01 -2.743008e-01 -1.104166e+00 -8.765328e-02 -1.180422e+00 -5.440503e-01 -9.153014e-01 -1.404680e-01 -5.278340e-02 1.403407e-01 4.435839e-01 -1.292188e+00 1.076066e-01 -3.466474e-01 -2.915848e-01 7.332184e-01 9.250692e-02 5.506894e-01 -9.606077e-01 -4.380047e-01 -1.773641e-01 -2.151480e+00 -3.876094e-01 -8.465708e-02 4.267304e-01 -8.654737e-02 -7.993556e-02 -1.756543e-02 6.307024e-01 5.643158e-01 -2.529199e+00 1.699493e+00 2.829537e-01 -3.621194e-01 -3.195164e-02 -9.070575e-02 5.357203e-01 -4.896746e-01 5.425687e-01 -1.942045e-01 3.702075e-03 1.929963e-01 -4.645847e+00 7.286136e-02 -1.523174e+00 3.258058e-01 -3.439261e-01 1.768773e-01 3.181668e-01
3.460560e-01 4.476064e-01 -7.287756e-02 -1.224157e+00 -2.876676e-01 6.677306e-02 5.045991e-01 1.056822e+00 -3.525711e-02 -2.423534e-01 -1.100052e+00 5.889060e-01 7.364731e-02 -1.858688e-01 7.989143e-01 -5.892619e-01 1.735475e-01 1.486008e+00 -8.003142e-01 2.030793e+00 2.131563e-01 1.994662e+00 -8.030108e-01 2.397343e-01 9.869171e-01 -8.564824e-01 8.231695e-01 1.999601e-01 1.733475e-01 4.083539e-01 2.342796e-01 -1.140597e+00 9.793609e-01 -6.022728e-02 -1.230192e+00 8.224909e-01 -4.798183e-01 2.475958e-01 -7.274531e-01 -6.416226e-01 -2.763306e-01 1.112980e-01 -8.040050e-02 -9.381014e-02 2.107453e-01 1.500437e-01 -2.096984e+00 -5.480236e-01 -1.669697e+00 6.802220e-01 4.434446e-01 4.578837e-01 4.047250e-01 -3.913690e-01 7.667161e-01 -4.886631e-02 6.511120e-02 4.090992e+00 -2.411671e-01 8.089821e-01 1.368892e-01 1.032234e+00 -1.191152e-01 -7.533320e-01
-5.707666e-02 -7.620068e-01 -4.643221e+00 3.268319e-01 5.371065e-01 9.050221e-01 1.315460e+00 -6.649366e-01 2.700638e-01 2.659510e-02 -6.599219e-01 5.641093e-01 -1.199723e+00 -5.523815e-01 9.562938e-01 -4.582332e-01 8.452989e-03 1.268046e+00 -1.073848e+00 -3.434774e+00 -1.030660e+00 -3.739690e-01 -2.922853e-02 -1.156176e+00 -1.741669e-01 7.790271e-01 -1.449284e+00 -6.421339e-01 -5.923467e-01 -4.656561e-01 7.638982e-01 -8.931544e-02 -2.327151e+00 -1.520940e-01 -2.157424e-01 -2.418036e-01 -8.477613e-02 2.756806e-01 -6.826463e-01 6.738149e-01 1.017785e+00 -4.376684e+00 -3.481763e-01 6.619418e-01 6.649411e-01 -1.024145e-01 7.707278e-01 -6.126732e-01 2.684704e-01 4.365142e-02 -9.822904e-01 7.945683e-02 -3.710246e+00 3.762056e-01 5.298814e-01 3.073599e-01 -3.704445e+00 7.641591e-01 -1.163467e+00 6.561532e-01 -5.475644e-01 4.553926e-01 4.594546e-01 5.770926e-01
4.575157e-01 -5.532117e-01 2.380810e-01 4.540023e-01 7.649845e-02 8.466581e-01 7.224162e-02 -4.879244e-02 1.476229e-02 -1.390628e+00 -1.376208e+00 1.700887e-01 1.742207e-02 -2.938630e+00 -4.670958e-01 -1.052921e+00 1.945140e-01 2.356173e-01 7.365614e-01 3.364423e-01 -3.723048e-01 8.238745e-02 -1.424182e+00 6.013538e-01 -1.096722e-02 -1.396724e+00 -4.502362e-01 1.683549e+00 6.260942e-01 6.675146e-01 -1.679097e-01 -5.382402e-01 -4.672202e-02 -3.158599e-01 -5.145138e+00 -5.411105e-01 4.486144e-03 2.145980e-01 1.965607e-01 -4.545610e-03 1.256325e-01 -2.563912e-01 7.374486e-01 3.138700e-01 -6.276723e-01 2.284934e-01 1.462636e-01 -5.100552e-01 -4.268496e-01 -1.353648e+00 1.759465e-01 3.017847e-01 4.211271e-01 -1.460201e-01 -5.486598e-01 -1.615264e+00 4.710633e-02 -4.103410e+00 -2.952413e-02 -4.397714e+00 1.339272e+00 1.971872e-01 2.217925e-02 3.121223e-01
-9.543547e-02 -8.683003e-01 -8.097544e-01 -8.315127e-02 -6.320504e-01 9.424214e-01 -2.078421e+00 -5.154028e-01 -1.863508e+00 1.181717e+00 -5.620305e-01 1.417956e+00 -1.127153e+00 -4.040919e-01 7.449160e-01 3.846983e-01 -1.445009e+00 1.586206e+00 -1.820351e+00 -6.981053e-01 5.396970e-02 -1.477088e+00 3.151184e-02 2.944835e-01 -1.541718e+00 2.620350e-02 -4.580376e-01 -6.325839e-02 8.950585e-01 -1.937686e+00 -9.156880e-01 -2.219131e-01 -1.224260e+00 -2.776129e-01 5.618932e-01 -2.704567e-01 1.018631e+00 -1.760878e+00 -9.500072e-01 -1.712617e-02 -1.508452e-01 -4.539962e+00 3.521595e-02 -7.717617e-02 4.995526e-01 -4.915407e-02 6.869889e-01 1.971665e-01 1.188558e-01 2.766086e-01 -2.418800e+00 -9.492143e-01 -2.976553e-01 -1.627110e+00 1.019312e+00 -7.361297e-02 -5.074882e+00 1.832996e+00 -5.270206e+00 6.579654e-01 -1.558672e+00 1.207419e+00 3.400536e-01 5.511967e-01
-3.549193e-01 -2.121366e-01 2.419934e+00 1.061690e+00 -4.711724e-02 3.554101e-02 6.608478e-01 -5.682578e-01 3.355822e-01 -1.795847e-01 -7.621838e-01 -1.022311e+00 2.292899e-02 -2.107295e-01 -6.841467e-01 7.467111e-01 -5.775521e-01 9.102990e-01 -7.545363e-01 3.280407e-01 1.799435e-01 -1.390008e-02 -7.225345e-01 -3.523340e-01 -3.146953e-01 6.901771e-01 -5.658233e-01 2.784066e-01 -1.383852e+00 -1.450719e+00 1.857759e-01 1.216470e-01 7.221400e-02 2.171032e-01 -2.879879e-01 -3.166026e-01 3.754111e-01 3.613977e-01 -8.239742e-02 5.099788e-01 4.430414e-01 -3.277975e-01 4.471500e-01 1.874703e-01 -5.357380e-01 5.417191e-01 1.261621e+00 2.181328e-01 2.703935e-01 -3.608714e-01 1.240209e-01 1.502245e-01 -2.139929e+00 -6.084981e-01 1.105658e-02 -1.989857e-01 1.101792e-01 -3.523474e+00 8.134941e-02 -3.915646e-01 -4.852495e-01 -3.654288e-01 9.608760e-01 9.014934e-01
-5.504889e-01 2.754171e-01 1.930316e-01 -3.649910e-02 -3.877815e-01 -5.143809e-01 3.638841e-02 -2.135583e-01 2.941471e-01 8.054813e-01 -1.381577e-01 -1.877582e-01 8.215037e-02 -5.106466e-01 -2.888910e-02 -7.102610e-01 -8.972403e-02 2.900848e-01 -4.039806e-01 -4.894585e-01 2.419947e-02 -5.196637e-02 2.707394e-01 1.703460e-01 -4.444234e-01 5.268785e-01 -6.643821e-03 -1.503076e-01 -7.311796e-01 -6.080922e-02 -3.586435e-01 -1.751763e-01 8.782198e-01 2.269455e-01 -3.216961e-02 2.494165e-01 -1.074436e+00 2.575390e-01 -1.562667e-01 -1.427596e-02 -3.533359e-01 -1.426430e-01 5.887269e-02 5.411382e-01 -3.573491e-02 3.983659e-01 2.465191e-01 -1.156140e-01 2.740500e-01 1.026683e-01 1.932922e-01 1.133444e-01 -2.509216e-01 -7.740921e-01 2.011475e-01 -1.392151e-01 5.087437e-01 -6.208596e+00 -8.425836e-02 -1.240496e-01 1.257968e-01 -1.669607e-01 9.246331e-01 -2.761138e-02
-2.285895e+00 -3.340337e-01 -2.044560e-01 2.954406e-01 -3.245362e-01 3.789752e-01 2.528869e-01 6.400239e-02 5.174890e-01 7.569214e-01 -7.301026e-02 -7.556171e-02 -3.060189e-01 -1.479753e-01 -4.689341e-01 -3.189416e-01 -1.874566e-01 -1.421119e-01 -1.051867e-01 -3.530984e-01 1.343021e-01 1.049226e+00 -1.692410e-01 2.092865e-01 2.504290e-01 6.030511e-02 -1.157273e+00 9.574928e-01 -1.331803e-01 1.585251e-01 8.903867e-01 -1.935973e-01 -3.469089e-01 9.551176e-01 2.077739e-01 2.681799e-01 6.045433e-01 -7.528500e-02 -3.752365e-01 5.094542e-02 -1.633138e-01 -3.603751e-02 2.116324e-01 3.306112e-01 -8.632380e-01 -6.984799e-02 7.934400e-01 -7.891607e-02 1.044325e-01 8.379573e-02 1.288103e-02 -2.701115e-01 2.792892e-01 -4.924994e-01 -1.210025e-01 -1.325133e+00 1.222297e+00 -3.628965e+00 -4.135561e-01 -2.676101e-01 -1.060619e-01 -2.482950e-01 2.386173e-01 -4.189356e-02
2.821282e-01 -7.836487e-02 3.875091e-01 8.983713e-01 4.932853e-01 3.598361e-01 -7.658823e-01 -3.641011e-01 3.413550e-01 3.625348e-02 -1.598663e-01 -2.007209e-01 -8.618700e-01 -4.027613e-01 -2.568996e-01 -2.799280e-01 7.445264e-01 8.447152e-01 -4.171914e-01 -6.037839e-02 3.595100e-01 -8.466988e-01 -8.610691e-01 1.602646e+00 5.225170e-01 4.802454e-01 -1.427917e-01 3.260343e-01 4.412101e-01 2.473709e-01 4.715668e-01 5.358597e-01 3.082145e-01 -2.612550e-01 -3.817974e-01 -9.418731e-01 4.658028e-01 -8.320709e-01 -1.818420e+00 -1.231761e-01 -1.202272e-01 -1.016861e-01 5.219155e-01 -1.948540e+00 7.885966e-01 6.835727e-01 1.126851e+00 9.163000e-02 -3.222533e-01 -3.387078e-01 -2.438929e-01 -6.424521e-01 3.972019e-02 4.366850e-01 2.195894e-01 6.270118e-01 4.073012e-01 9.843535e-01 3.700800e-01 -1.589187e-01 -8.379251e-01 -5.390848e-01 7.600363e-01 6.015278e-02
-2.285912e-01 -6.936969e-01 1.068102e-01 3.279138e-01 1.231720e-01 -4.003393e-01 -2.330942e-01 2.702639e-01 7.276931e-02 -1.753983e-01 1.304567e-02 2.248219e-01 3.462502e-02 -1.434279e+00 2.018832e-01 8.186749e-01 -8.505370e-03 4.478868e-01 -4.944378e-01 -1.906758e-01 4.884093e-01 -5.703765e-01 -1.440579e-01 4.713403e-01 5.156077e-01 5.523663e-01 -3.157563e-01 -8.190967e-03 -5.242330e-01 -2.950525e-01 -2.298534e-02 1.036242e-01 4.588159e-02 7.039523e-01 -1.968348e-01 1.723054e-01 -7.729272e-01 -2.308886e-01 1.115849e-01 3.877250e-03 7.678712e-03 -7.993972e-02 1.358053e-01 2.546524e-01 -7.206215e-01 4.339894e-01 6.664966e-02 -1.153374e-01 -5.528306e-02 -3.502357e-01 -6.910127e-02 7.682516e-01 -1.585957e-02 3.602001e-01 -2.230677e-01 3.887368e-01 -8.298237e-01 2.254547e+00 -1.179770e-01 -4.526052e-01 -3.562070e-01 -3.935542e-01 1.095576e-02 4.116739e-02
-3.441642e-02 7.342599e-01 1.550382e-01 -3.102092e-01 2.071342e+00 7.256935e-01 -1.380097e-01 2.819173e-01 3.936943e-01 -2.934732e-01 1.737649e-01 -8.582717e-02 -8.581098e-02 -8.925582e-01 6.194385e-01 9.544748e-02 -2.454945e+00 1.633364e+00 -4.510581e-01 -1.814559e+00 9.663475e-02 -5.380177e-01 -5.782517e-01 -2.626007e-02 1.474210e+00 1.353312e+00 2.878986e-01 7.501674e-01 1.387562e-01 -6.102421e-01 1.901781e-01 -3.594574e-01 -2.724267e-01 -2.848241e+00 -6.636982e-02 2.446186e-01 -4.712760e-01 -1.276359e-01 -4.952521e-01 -1.859339e+00 4.270662e-01 5.916593e-02 -2.170187e+00 -1.310884e-01 1.160421e-02 9.247565e-01 1.884340e-01 1.655971e+00 5.237636e-01 -1.549301e-01 -3.300557e-01 -2.528743e-01 -1.812973e-02 -2.630356e+00 -1.754382e-01 4.829011e-01 1.180231e+00 3.156306e+00 -4.489774e-01 1.491738e+00 1.653234e-01 6.551242e-01 -8.503584e-01 -1.341822e-01
2.511547e-01 -1.976284e+00 -5.371679e-02 8.273937e-01 6.759928e-01 9.117985e-01 -1.154208e+00 -6.584039e-02 4.607115e-01 3.173762e-01 4.495627e-01 -1.464572e-02 6.644115e-02 3.575783e-01 -3.866369e-01 -2.077728e+00 7.889560e-01 -9.116393e-02 -5.862988e-01 -3.060537e-01 2.210454e-01 1.419682e+00 -9.226835e-01 9.756395e-01 -7.986802e-01 3.096112e-01 4.872971e-01 1.330409e+00 9.309486e-01 1.363086e+00 -1.168447e-01 -1.902035e-01 7.378986e-01 -1.009868e+00 -7.089072e-01 2.098186e-01 -5.229540e-02 -8.566721e-02 3.776487e-01 -3.711685e-02 -2.754818e-01 -5.398422e-02 3.013301e-01 -2.397825e-01 -3.590668e+00 -3.005049e-01 4.306783e-01 -6.236984e-02 -6.813965e-02 -1.527590e+00 4.720583e-02 9.159984e-02 5.538608e-01 1.458059e-01 -3.807827e-01 2.496290e-01 3.810090e-01 2.707361e+00 -4.451108e-01 2.248753e+00 -1.545862e+00 -6.885563e-01 7.457841e-01 1.472713e-01
-2.894124e-01 -2.297316e-01 1.541691e-01 -9.573010e-01 -4.096485e-01 7.824168e-01 5.318404e-01 4.342445e-01 -1.977849e-01 1.332127e+00 -8.908869e-02 -1.411531e-01 2.649366e-02 -1.539344e-02 -8.860020e-02 2.139237e-01 -2.238164e-01 -9.045793e-02 -3.382042e-01 -1.913921e-01 -2.948770e-01 -3.152364e-01 1.216804e-02 -6.387089e-01 2.745608e-02 -5.780535e-01 6.138209e-02 3.083353e-01 -1.596642e-01 3.849231e-01 4.488510e-01 2.155307e-01 3.520866e-01 -1.168921e+00 -5.103227e-01 7.696526e-02 4.207390e-01 3.367666e-02 1.252660e-01 -5.641679e-02 2.744736e-01 -4.603918e-02 2.507471e-01 3.388379e-01 -2.627446e-01 5.256753e-01 7.663321e-02 5.845843e-01 -1.783482e-02 -2.374449e-01 -2.989782e-02 4.662209e-01 -3.216048e-01 -7.581855e-01 3.428524e-01 4.683362e-03 -1.060288e-02 -1.066784e+01 -4.248323e-02 -1.002376e+00 9.982836e-03 5.791850e-01 3.984990e-01 -2.467323e-02
6.759111e-02 1.382574e-02 -6.076489e-02 3.558518e-01 2.376990e-01 2.121553e-01 3.252492e-01 -8.200739e-02 -4.397796e-01 9.774916e-01 -3.806565e-01 9.601715e-02 -6.184379e-02 -2.894207e-01 -2.165570e-01 5.304928e-01 -1.244364e-01 -5.084861e-02 6.780630e-01 -7.159379e-01 -1.043424e+00 1.655726e+00 -2.239058e+00 -1.209708e-01 9.640636e-01 6.331260e-01 2.709214e-01 2.623985e-01 2.658741e-01 -1.548786e-01 6.532239e-01 -3.648655e-01 9.139363e-01 -1.210813e-03 1.343787e+00 -1.990018e-01 -1.046626e-03 -7.063463e-02 1.849695e-01 2.180742e-01 6.421319e-01 -1.530113e-01 3.911225e-02 1.026461e+00 -2.658560e-01 9.327697e-01 -5.358446e-01 5.653759e-01 4.293699e-01 -2.590940e-01 1.849767e-01 -6.486342e-01 2.603647e-01 -9.001030e-02 -3.048354e-01 -4.272694e-01 3.409189e-01 -1.901186e+00 -6.054816e-01 -1.082566e-01 7.547144e-01 -8.032759e-02 1.106476e+00 -1.210226e-01
4.405867e-01 8.786397e-02 1.582921e-02 2.036216e-01 -3.980318e-02 2.729886e-01 8.909402e-01 -3.085493e-01 -4.963938e-01 2.823587e-01 -1.646044e-01 -1.637366e-01 2.046070e-02 -2.827182e-01 3.345172e-02 2.063382e-01 1.821703e-01 -4.137462e-01 3.151696e-01 -8.230809e-01 3.894785e-01 -7.907647e-01 -2.738718e-01 -1.162807e+00 -2.753654e-01 -2.137074e-01 5.121576e-02 3.664591e-01 -1.597536e-02 3.174627e-01 -8.512165e-02 -1.684451e-01 7.957016e-03 -3.890684e-01 -1.099464e+00 -4.241647e-01 -8.824204e-01 2.638544e-01 -3.687107e-01 1.597790e-01 -3.681500e-01 8.442110e-02 6.140726e-01 5.767435e-01 6.775181e-01 9.057491e-01 1.340238e+00 7.815488e-01 2.022069e-01 1.129641e+00 -4.521428e-02 -7.628114e-01 -3.636763e-01 -6.788551e-01 -3.762910e-01 -2.706133e-03 -1.379880e-01 -9.517843e+00 2.208940e-02 2.293712e-01 -7.417958e-01 -1.651516e-01 9.688633e-01 -8.909339e-02
-7.711753e-02 -2.467608e-01 -5.524145e-02 3.198355e-01 -1.817150e-01 6.814855e-01 -1.800844e-01 1.211509e-01 -7.222490e-01 6.732513e-01 2.982168e-01 -8.409380e-02 -4.396087e-02 6.429801e-02 4.710377e-02 3.900077e-01 -4.649213e-01 1.811693e+00 -4.865764e-02 -1.144393e-01 -2.458935e-01 2.601258e-01 3.431062e-01 8.576214e-01 8.356528e-01 8.790675e-01 -1.020863e-01 -2.227194e+00 -9.350471e-06 5.100887e-01 6.998246e-01 -1.789750e-01 2.998141e-01 -3.263271e-01 1.460620e-01 -2.197948e-01 1.884096e-01 1.022176e-02 -1.868207e-01 3.558860e-02 2.242533e-01 -1.067532e-01 -1.717153e-01 1.631495e-02 2.195739e-01 1.185580e+00 -7.486180e-01 2.597858e-02 -5.203789e-01 -3.565757e-01 -1.695109e-02 -2.366182e-01 -1.287330e-01 -3.055719e-01 -2.715285e-02 -1.254807e-01 1.732313e-02 -8.575489e+00 -4.733552e-02 -2.438391e-01 5.116968e-01 4.774798e-01 9.513049e-02 4.715839e-01
4.721196e-01 3.689032e-01 2.662822e-01 -3.030125e-01 1.773620e-01 -8.945109e-01 -8.054544e-01 -3.482360e-01 2.124996e-01 -7.608845e-01 -7.978164e-02 4.041905e-01 1.781828e-01 -2.840567e-01 8.574116e-01 -2.487061e+00 -2.744130e+00 6.583629e-01 -1.107317e+00 -2.841436e-01 5.725806e-01 -2.958600e-01 -2.753470e-01 9.325925e-01 7.131596e-01 -2.924036e-01 3.547568e-02 -7.628088e-02 2.487858e-01 -4.136394e-01 5.088119e-01 -2.609700e-01 -5.452709e-01 -1.531979e-01 -1.944040e+00 3.204060e-01 5.688166e-01 -3.923031e-01 2.344537e-02 -4.806814e-01 -1.355558e-01 1.173902e+00 -1.839593e+00 2.097458e-01 -1.057478e+00 3.920248e-01 5.208683e-01 -3.224916e+00 3.330106e-01 -2.480555e-01 1.200844e+00 7.121111e-02 -8.650149e-01 1.425122e-01 2.443996e-01 4.363551e-01 4.189767e-01 -2.496327e+00 3.179250e-01 7.729974e-01 2.825139e-01 -9.427631e-01 -8.283567e-01 -1.318346e+00
3.294049e-01 1.348102e+00 3.252011e-02 2.319393e-01 -8.525232e-01 4.073326e-01 -1.529314e-01 -1.209742e+00 -3.782335e-01 5.569487e-01 -1.336961e+00 -3.109870e+00 5.430230e-02 -6.385612e-01 -5.910446e-01 9.639942e-01 -1.570396e+00 -5.834632e-01 1.792304e-01 -3.237843e+00 3.434121e-01 1.057242e-02 -2.244401e+00 -5.106476e-01 -1.660083e+00 -1.317791e+00 -5.723122e-02 7.871392e-01 1.394247e-01 -4.598798e-01 6.182618e-02 -3.285572e-01 8.306509e-01 8.181481e-02 -7.018644e-01 -8.660111e-01 8.367307e-01 4.533817e-01 -1.852774e-01 -1.690164e-01 5.596703e-01 1.759219e-01 5.365680e-01 9.091025e-01 -8.330244e-01 -7.073458e-01 -3.095923e-01 3.291390e-01 -5.021463e-01 -1.221783e+00 -1.323556e-01 -9.253397e-01 -1.076337e+00 5.139097e-02 -4.395233e+00 2.050346e-01 2.179843e-01 1.305232e+00 5.177810e-01 -1.299011e+00 4.588643e-01 7.484204e-01 -1.263216e-01 -1.373228e-01
5.563432e-02 -3.448228e-01 1.508851e-01 6.882291e-02 -5.965539e-01 6.159354e-01 -1.477772e-01 -9.316687e-01 3.495288e-01 4.979975e-01 4.046807e-01 1.297609e+00 -5.301206e-02 -3.437937e+00 -3.429970e-01 -1.470232e-01 4.798351e-01 3.717205e-01 -5.886695e-01 -1.670081e+00 -5.007025e-02 -5.119596e-01 1.789088e-01 5.744273e-01 2.281244e-01 -4.522788e-01 6.472084e-01 7.009881e-01 -2.056218e+00 -2.162912e-01 -1.240394e-01 4.625769e-01 -4.457260e-01 -1.339636e+00 1.597949e-01 -6.579127e-01 -1.765484e+00 4.950444e-02 1.299241e-02 -2.332927e-01 -2.869979e-01 1.327635e-02 1.960518e-01 -7.181443e-01 -1.210538e+00 -3.027262e-01 -1.693003e-01 2.085203e-01 3.792703e-01 -1.493562e+00 7.772576e-04 -9.224842e-01 4.214057e-01 5.686693e-01 -2.390500e-01 -3.603163e-01 -1.242097e+00 6.834736e-02 -9.632218e-02 -1.454029e+00 -1.361168e+00 1.239393e-01 -2.430061e+00 -2.242950e-01
-1.009977e-01 -2.614353e-01 -2.558171e-01 3.554362e-01 4.126467e-01 9.258277e-01 6.972333e-01 -1.435459e-01 -2.555043e-01 -6.806206e-01 -2.319724e-01 5.739477e-01 3.770477e-02 -3.070468e-01 3.182169e-01 -4.070939e-02 8.994027e-01 -3.708008e-01 3.999249e-01 -3.428530e-01 -2.708083e-01 5.055032e-01 5.210809e-02 3.694991e-01 4.524656e-01 -3.531311e-02 -2.607489e-01 4.659054e-01 1.487174e+00 4.760092e-01 3.081844e-01 -2.396596e-01 2.552021e-02 -2.941792e-01 -9.956444e-02 2.238621e-01 2.085146e-01 -1.979709e-01 6.896763e-01 -8.000579e-01 8.147342e-02 -9.694769e-03 -2.293191e-01 6.091915e-02 2.667336e-02 4.346882e-01 -2.853355e-01 -1.814325e-01 3.023568e-01 4.895086e-01 7.121000e-02 -1.349690e-01 5.249714e-01 -3.905964e-01 2.146344e-01 1.451676e-01 5.180694e-02 -2.926818e-01 7.536547e-02 9.918399e-01 -1.904995e-03 6.085931e-01 -4.322865e-01 2.078145e-01
-2.847723e+00 2.085739e-02 -2.150797e-01 -5.085355e-02 1.143427e-02 3.322671e-02 -5.984431e-01 -1.318898e-01 -1.266405e-02 6.369397e-02 -8.906696e-01 3.153357e-01 -5.140199e-02 4.358099e-02 -1.251045e-02 4.611214e-01 5.597765e-02 3.560336e-01 -6.594193e-01 -6.344609e-01 -7.242886e-01 -3.528332e-01 -6.092074e-02 -1.000110e-01 -5.785037e-01 9.627267e-03 -4.668591e+00 2.746903e-01 -7.904945e-01 -1.466655e-01 7.071400e-01 1.755917e-02 -7.961045e-01 -4.382207e-01 8.536521e-02 3.541096e-01 4.017147e-01 4.529717e-01 2.383838e-01 1.065828e-01 1.510904e-01 1.786740e-02 2.265498e-01 6.522308e-01 1.831801e-01 -8.582175e-01 -3.673573e-01 1.100725e-01 4.540990e-01 -2.045909e-01 9.420387e-02 -2.439028e-01 -6.914911e-02 -7.034358e-01 1.878096e-01 -1.219294e+00 6.619210e-01 -8.691962e-01 -2.454336e-02 -7.605011e-01 -4.135475e-01 3.119281e-01 -3.877246e-01 5.765051e-02
-1.009087e+00 -6.533764e-02 -2.393408e-01 3.171739e-01 -3.497029e-01 -5.088970e-01 1.284975e+00 -6.083390e-02 -3.212477e-01 6.043302e-01 9.845473e-01 -4.265421e-01 -4.226021e-01 3.494296e-01 -9.929044e-01 3.414986e-02 3.223064e-01 -5.132594e-01 -8.657327e-02 5.698810e-01 4.167537e-01 9.699846e-01 3.387623e-01 1.355492e+00 -1.519965e-01 -5.830472e-01 -1.456843e+00 5.647514e-01 3.813011e-01 2.647252e-01 1.092562e+00 -6.162942e-01 1.059350e+00 -2.648829e-01 -2.024049e-01 2.339486e-01 6.951778e-01 -2.716285e-01 -3.391176e-01 5.059457e-01 -8.376955e-01 -9.706113e-02 2.634641e-01 7.820246e-01 -1.541084e-01 1.605016e+00 2.681856e-01 -6.636550e-01 2.389504e-01 4.305830e-01 3.196548e-01 8.625575e-01 1.940770e-01 -2.916276e-01 -1.811921e-01 -2.164621e+00 2.408623e-03 -6.753507e+00 2.551250e-02 -2.670862e-01 -4.157391e-01 2.964647e-01 1.237906e+00 -5.210070e-02
-2.589193e-01 -5.368534e-01 -4.224227e-02 -3.865323e-01 3.716798e-01 -2.698048e-01 4.756570e-01 2.798482e-02 1.371246e-01 1.463013e+00 -2.958774e-01 -4.206618e-01 4.049567e-02 9.798234e-01 -5.426931e-01 8.104340e-01 -6.075323e-01 -2.418098e-01 -3.886009e-01 9.854072e-01 3.394185e-01 -7.345019e-01 -1.845687e+00 6.426913e-01 3.569064e-01 9.686673e-01 1.064764e+00 -9.389746e-01 3.369860e-01 -2.469419e-01 1.385373e-01 -1.080863e-01 -8.993576e-02 1.223778e-01 -4.470362e+00 -9.538097e-01 2.923405e-01 -5.142855e-02 2.541617e-02 -3.879282e-01 -2.282380e-01 -4.574065e-02 -4.896315e-01 -7.918236e-02 1.240769e-02 6.128970e-02 3.432862e-01 1.052564e-01 -2.307739e-01 -3.225365e-01 -6.180042e-02 5.702386e-01 5.489250e-02 4.809213e-01 -4.586694e-01 2.190463e-01 1.028412e+00 4.438690e+00 -2.061971e-01 -8.221546e-01 -5.720987e-01 -2.970484e-01 -1.464469e-01 -6.408801e-01
5.436226e-02 7.941339e-02 -4.508398e-01 -5.262724e-01 5.085893e-01 1.088447e+00 4.714885e-01 -3.441416e-01 -4.293264e-01 5.079092e-01 -8.869425e-02 5.020814e-01 1.608653e-01 -1.182817e+00 -4.229106e-01 -3.014020e-01 4.173794e-01 -1.055940e-01 -2.551574e-01 1.381155e+00 -6.426505e-02 3.616909e-01 3.786957e-01 1.843830e-01 -5.878016e-01 8.688328e-01 4.884840e-01 -6.685964e-02 -1.566985e+00 2.201409e-01 6.732551e-01 -1.359955e-01 3.560677e-01 -2.468280e-01 5.845479e-01 -1.839346e-01 4.271465e-01 -1.798788e-01 2.152025e-01 -3.069973e-04 -5.671792e-01 -1.343086e-02 -1.161914e-01 -7.849517e-01 7.107297e-01 3.265137e-01 8.149931e-01 3.494359e-01 1.028189e-01 -4.212921e-01 2.620566e-01 4.851268e-01 4.481412e-01 -1.091953e+00 -6.288170e-01 2.685350e-01 -2.448886e-01 -7.316378e-01 3.602220e-02 2.036620e+00 -5.396360e-01 1.108654e+00 6.650355e-01 9.216141e-02
-2.543979e-01 -6.210048e-01 -4.060244e-01 4.866769e-01 7.869297e-02 8.323695e-01 5.484015e-01 -5.121759e-01 4.064778e-01 -1.137581e-01 3.162681e-01 4.697247e-01 1.123017e-01 -2.012197e+00 2.617767e-01 1.438696e+00 -5.538012e-01 -4.222651e-01 -8.339322e-02 -5.548309e-01 1.123749e+00 2.363899e-01 -8.242366e-01 8.148412e-01 5.651949e-01 6.745830e-01 3.525028e-01 5.121091e-01 -5.510162e-01 -6.699888e-01 4.226723e-01 6.484018e-02 -2.523426e-01 1.112060e-01 -1.081522e+00 -7.808863e-02 1.675885e-01 -1.512514e-02 8.550389e-02 7.037630e-01 5.699124e-01 1.096506e-01 -5.324971e-02 4.172761e-01 -3.554012e-01 9.472457e-02 -2.257456e-01 1.924742e-01 3.833358e-01 6.118083e-01 -1.056775e-01 -4.010256e-02 3.743634e-04 -1.128011e+00 -1.786839e-01 1.877038e-02 7.572500e-01 -1.142903e+01 -5.651597e-01 1.022756e+00 -7.174819e-01 -5.782540e-01 4.491911e-02 6.172847e-02
-6.670961e-01 4.577888e-01 2.996736e-01 7.418766e-01 -3.644451e-01 -8.557236e-01 -1.107419e-01 6.832878e-01 -6.574096e-01 4.951920e-01 5.116013e-01 -2.960867e-02 -5.313778e-02 3.663441e-01 -3.470958e-01 -6.345692e-01 -5.067282e-01 -1.767424e+00 -2.309948e-01 -1.844344e+00 3.907807e-01 9.053277e-01 1.337983e-01 1.469853e-01 3.931793e-01 1.771273e-01 1.445360e-01 1.204133e+00 -8.704738e-01 4.792656e-01 4.647616e-01 -6.195119e-02 -1.060107e-01 -6.684817e-01 -2.121304e-01 2.048396e-03 -1.176040e+00 -2.312399e-02 -5.461254e-01 6.268023e-01 -2.742479e-01 -5.244493e+00 1.428844e-01 5.126080e-01 -2.101076e-01 -1.412885e-02 -4.718980e-01 -3.870893e-01 -1.220281e+00 -3.051549e-01 -8.953547e-01 1.650237e-01 2.391464e-01 -3.358919e-01 -2.872852e-01 -1.571908e+00 9.999456e-01 2.061590e+00 -3.787408e-01 -1.211848e-01 1.602436e-01 -1.026663e+00 1.478733e-01 3.369154e-02
3.107872e-01 2.668682e-01 1.049319e-01 -1.071330e-02 5.215995e-01 6.581545e-01 -5.109957e-01 2.800575e-01 2.516999e-01 -3.095855e-01 8.832120e-02 -5.113817e-02 -1.342350e-02 2.393023e-01 -4.037447e-02 1.838512e-01 8.791150e-02 1.256735e-01 -1.080323e-01 -7.629097e-01 -8.606526e-01 1.013319e+00 2.329780e-02 1.731610e-01 9.864761e-01 -1.399659e-01 5.208890e-01 -2.774287e-01 -6.479369e-01 4.869966e-01 1.447263e-03 1.210287e-01 7.929968e-01 -7.401057e-01 1.282964e+00 1.185490e-01 -3.498755e-01 -8.195477e-01 6.379884e-01 -2.667933e-01 3.647898e-01 -9.751504e-03 2.649752e-01 4.005468e-01 1.808710e-01 -2.994777e-02 4.605030e-01 5.024087e-01 -2.511142e-01 -1.119612e-01 -7.239636e-02 1.371659e+00 1.986130e-01 5.804071e-02 -4.074557e-01 -3.469576e+00 4.705236e-01 6.209692e-01 9.703886e-02 -6.946525e-01 -8.597317e-01 -3.234730e-01 -4.193295e-01 -2.421419e-01
2.626228e-01 3.284823e-01 2.748868e-02 5.860720e-01 -6.921679e-01 4.448130e-02 -6.352271e-01 -4.799674e-01 -1.204900e-01 4.586315e-01 5.436614e-01 -2.766121e-01 -5.246472e-02 5.351832e-01 -2.030634e-01 -1.864141e-02 1.734999e-01 -5.061918e-01 5.816399e-01 -1.361939e-01 -7.740294e-01 4.463099e-01 2.535068e-01 3.731830e-01 -7.017451e-02 -8.500545e-01 2.302136e-01 7.534720e-01 2.570956e-01 2.021693e-04 4.695671e-01 -2.941010e-01 -8.960676e-01 -1.557222e-01 1.063317e-01 2.166186e-01 4.145221e-01 1.309841e-01 -1.433647e-01 -1.067548e-01 6.868331e-01 -3.832198e-02 6.843717e-02 3.353290e-01 7.359663e-01 4.371787e-01 1.741510e-01 -1.686188e-01 -4.813430e-01 -3.488349e-03 3.969557e-02 -3.536744e-01 2.380662e-01 5.546032e-01 -2.252713e-01 -7.181293e-01 8.511295e-01 7.174964e-03 -4.343320e-02 1.288132e+00 5.341347e-01 -1.878763e-01 -1.281805e-01 -5.761548e-02
5.358270e-01 3.498357e-01 -5.121281e-02 8.318051e-01 -1.526649e+00 6.411945e-01 2.181212e-01 5.751569e-01 -5.934724e-01 1.262358e+00 -6.410906e-01 -2.584111e-01 -2.189763e-02 -1.411073e-02 -9.859810e-01 2.985285e-01 3.540500e-01 3.392185e-01 -9.156128e-01 -6.805457e-01 -5.521504e-01 -4.554002e-01 -1.408473e+00 -4.944531e-01 6.209524e-01 -4.848899e-01 -1.421153e+00 1.263805e+00 -1.480644e-01 5.482478e-01 3.994698e-01 2.329525e-03 2.154318e-01 -4.415299e-01 1.204677e-01 2.895902e-01 8.831681e-01 -9.190117e-01 -2.162748e-01 -7.985160e-01 5.480139e-02 -1.891457e-01 6.465034e-01 -7.236887e-01 -1.048347e+00 5.653961e-01 2.564728e-02 -9.182090e-02 1.213772e+00 -1.368037e+00 4.803639e-02 5.608360e-01 -6.856712e-01 -5.348599e-02 -1.313541e+00 -7.699389e-01 8.184575e-01 1.920758e+00 2.335864e-01 4.187395e-01 4.110612e-01 6.709391e-01 -3.051547e-01 -8.498138e-01
5.871291e-01 -9.473993e-01 -1.904491e-01 3.914559e-01 -1.900102e-02 -9.890644e-01 5.903254e-01 -4.277683e-01 2.549308e-01 1.259783e-01 -1.702860e-01 6.403859e-01 -5.914120e-02 -4.343214e-01 -6.663571e-02 3.213353e-01 -1.548737e-01 3.300968e-01 -1.751027e-01 -5.333942e-02 4.496038e-01 3.689779e-01 -7.217336e-02 2.771921e-01 -1.524103e-01 6.946454e-01 -5.537874e-01 1.046638e+00 -1.331517e+00 -3.444238e-01 -8.819634e-01 -5.069310e-02 1.735549e+00 1.233409e+00 5.516527e-01 -2.221379e-01 4.943178e-01 -2.308579e-01 -2.866837e-01 2.136816e-03 4.820175e-01 -8.843744e-02 -3.397973e-01 1.200758e-01 -1.813423e-01 1.203288e+00 -1.946190e-01 -5.938772e-01 7.059172e-01 7.290170e-02 1.714722e-01 1.049986e+00 5.649506e-01 3.490356e-01 1.548376e-01 1.170779e-01 -1.600592e+00 -3.671822e+00 -4.744021e-01 1.761107e-01 -4.468655e-01 2.346686e-01 4.352138e-01 3.549066e-01
2.818880e-01 2.006417e-01 -1.108720e-01 -1.511626e-01 1.835489e-01 3.406488e-01 -3.661801e-01 2.294981e-01 -1.674971e-01 -1.822167e+00 -4.460219e-01 -9.855608e-01 2.695020e-02 1.013581e-01 3.813265e-01 1.185228e+00 6.365607e-01 -1.948897e+00 5.319286e-01 -1.228663e+00 -9.392267e-01 1.573599e-01 -2.309005e+00 2.521218e-01 5.515831e-01 8.533938e-01 1.057306e-01 1.315430e-01 -7.582056e-01 -1.264957e-01 -2.336523e-02 -4.133545e-01 4.989440e-01 -3.038210e-01 4.854469e-01 5.309949e-01 4.889430e-01 1.149185e-01 1.372165e-01 1.814817e-01 -2.485644e-01 3.214832e-02 3.226412e-01 5.460549e-01 9.261358e-01 3.457070e-01 6.362590e-01 1.471379e-01 -7.360373e-02 1.104776e+00 1.140506e-01 -9.627478e-01 5.186573e-02 -1.143358e+00 -1.092990e+00 8.066460e-01 4.592772e-01 -2.441629e+00 2.911318e-01 -5.307965e-01 -5.397014e-01 -5.471601e-01 7.671878e-01 -1.880171e-01
-3.888791e-03 -2.009845e-01 2.196836e-02 -8.038422e-02 -7.313243e-02 -1.390043e-01 -1.575117e-01 -5.864483e-01 -1.893829e-01 -2.816236e-01 -5.022743e-01 -9.410651e-01 5.426266e-03 1.122889e-01 -1.828905e-02 -6.754404e-01 -5.961485e-01 -1.037713e-01 1.632777e-01 -5.489520e-01 -4.755478e-01 1.191476e+00 -4.325110e-01 -9.500397e-02 -2.400092e-01 -3.550965e+00 1.931716e-01 1.289310e-01 3.512150e-01 6.202227e-02 -1.750393e-01 -4.117212e-01 1.609402e+00 -3.598916e-01 -2.236806e-01 -2.396998e-01 8.232619e-02 5.559941e-01 -6.823800e-01 2.598118e-01 1.552172e-01 7.929595e-03 -5.005966e-02 -8.626140e-02 5.907194e-02 9.605876e-01 -1.484508e+00 2.380801e-01 2.352338e-01 -2.746004e-02 5.662723e-02 1.331051e+00 -2.128709e-01 -5.873394e-01 -2.150258e+00 -1.285398e+00 4.627421e-01 -4.352569e+00 -2.550100e-02 -1.129964e-01 -6.608035e-02 6.082058e-01 2.274325e+00 -1.275030e+00
-5.492068e-01 -1.128286e+00 8.341863e-03 -6.282089e-01 -4.296799e-02 -3.363747e-01 -7.775114e-02 1.262223e-01 -6.577483e-02 -5.165583e-01 -4.252418e-01 -3.399816e-01 2.052350e+00 -4.660026e-01 -1.531563e+00 -1.267904e+00 4.776670e-02 1.198270e-01 -9.099075e-01 -6.911319e-01 -5.187529e-02 -3.848640e-01 -6.167752e-01 -7.730743e-01 -3.440261e-01 -3.602975e-01 -2.126085e-01 6.207284e-02 -1.524100e-02 1.940767e-01 -5.806119e-01 -5.856888e-01 1.557982e-01 4.250487e-02 -2.189970e-01 -3.057678e-01 -4.766256e-01 -2.219824e-01 -1.304882e-01 -1.826847e-01 9.501031e-02 1.123966e+00 -1.396120e-01 1.921194e-01 4.548087e-02 8.002271e-01 1.371009e-01 3.805808e-01 -4.421397e-01 -1.935199e-01 8.319440e-01 -3.660220e-01 -4.190268e+00 -4.789040e-01 -2.409233e-01 -5.096651e-01 6.974164e-02 -1.235622e-01 3.344837e-01 -1.300278e+00 1.944036e-01 -6.499764e-01 -2.119249e-01 -6.227103e-01
-1.803475e-02 -9.698716e-03 -3.057458e-02 -2.442839e-02 1.249308e-03 -2.688027e-02 -9.452851e-03 2.596299e-02 4.384050e-03 -2.094134e-02 -2.337274e-02 -7.877173e-03 -3.455638e-02 1.474015e-02 1.044492e-02 -1.760213e-02 -9.480130e-03 -3.868419e-03 1.027729e-02 -4.306397e-03 -3.317280e-04 2.364976e-02 -6.965230e-03 -1.259974e-02 -1.688012e-02 -2.797694e-03 -5.383142e-02 -3.068828e-03 -1.107958e-02 -1.712336e-02 -1.368914e-02 6.721264e-03 -1.682512e-02 -8.891547e-03 -3.693607e-02 2.013315e-03 3.214150e-03 -1.958888e-02 -1.032643e-02 -1.391023e-02 -1.673976e-02 1.710369e-02 5.852200e-03 2.684658e-02 1.234526e-02 1.783379e-03 2.894623e-03 -8.146254e-03 3.806454e-03 -1.972885e-02 -1.232717e-02 1.016046e-02 -2.702202e-02 -1.188201e-02 -2.369520e-03 -1.265511e-02 -3.944999e-02 -1.705391e-02 -2.143731e-02 -3.572387e-02 -2.120700e-02 -7.693757e-03 -2.379802e-03 7.940464e-03
-2.527744e-01 5.223668e-01 -2.651730e-01 -1.352763e-01 4.337289e-01 -4.575934e-01 1.728462e-01 5.494811e-02 -3.172514e-01 1.993171e-01 8.040731e-02 2.114077e-01 4.341785e-02 4.495029e-01 1.761186e-01 -2.854768e-01 2.935433e-01 7.431476e-01 -9.982678e-01 1.417076e-01 2.627283e-01 -1.191653e-01 -5.797094e-02 1.625596e+00 5.120428e-01 -4.031972e-01 -3.635975e-01 -1.510756e-01 5.193616e-01 -1.805107e-02 -1.282874e+00 2.509356e-01 2.333535e-01 -7.480717e-01 -1.342368e-02 -5.124782e-01 -2.847269e-01 -2.590246e-01 3.025986e-02 4.707759e-02 4.128607e-01 -2.050886e-02 -7.100764e-01 -5.290841e-01 5.748825e-01 -7.915994e-01 8.920728e-02 9.818536e-02 -1.787648e-01 6.951799e-01 -1.560787e-02 3.861624e-01 2.542740e-01 7.498438e-01 2.849244e-01 5.017976e-02 1.946771e-01 -5.527846e-01 1.437232e-01 5.322354e-01 1.625024e-01 -2.380994e-01 -1.801827e-01 9.864768e-02
-4.578894e-02 -9.927772e-01 -3.798430e-02 4.382299e-02 -1.471417e+00 5.408306e-01 -5.388961e-01 1.986159e-01 2.446856e-01 5.226277e-01 2.834906e-01 -6.184645e-01 -7.182837e-02 -7.715853e-01 3.786047e-03 1.649158e-02 1.385216e-01 5.994595e-01 7.208944e-01 3.912362e-01 -4.586439e-01 4.102507e-01 9.969723e-01 1.124217e-01 -1.243443e+00 6.203146e-01 -8.200189e-01 6.984997e-01 6.096555e-01 1.040753e-01 1.052404e+00 -5.765094e-02 -4.482552e-01 8.181351e-01 1.964857e-01 8.923025e-01 2.966486e-01 2.634815e-01 6.494136e-01 5.767842e-02 6.643751e-01 -2.064190e-01 -4.374138e-01 1.548568e-02 2.121978e-01 5.205093e-02 2.070906e-01 6.571959e-01 -6.478605e-01 -1.650422e+00 -1.255576e-01 7.588916e-01 7.797552e-01 4.510970e-01 -7.229226e-01 -1.964817e-01 -6.299178e-01 -4.499361e+00 -1.591340e-01 -7.604446e-01 1.315964e-01 3.172953e-01 4.077297e-01 5.178894e-02
2.882610e-01 4.216386e-01 4.274729e-01 4.149578e-01 -7.887098e-01 -1.454768e+00 -7.373371e-01 -7.488808e-01 9.255348e-02 8.240744e-01 8.259030e-03 4.302000e-01 3.942979e-02 -5.401275e-01 -3.467337e-01 9.471060e-02 -1.258916e+00 -3.042274e-02 -1.585420e+00 -4.913691e-01 3.801109e-01 -6.106128e-01 4.501228e-01 8.272534e-02 -3.541837e-01 -4.286175e-01 5.254574e-02 5.120928e-01 -1.663841e+00 -1.797185e-01 4.780023e-01 2.343114e-01 5.095961e-02 -4.495616e-01 -1.324065e-01 -2.732230e-01 8.873597e-01 -9.586885e-02 6.601672e-01 6.387703e-01 -5.465544e-01 -1.538861e-02 -7.354375e-01 -6.062308e-02 -1.610582e-02 -1.385319e-01 -3.886929e-01 1.539755e-01 7.994390e-01 -4.832551e-01 -2.750493e-01 1.131026e+00 -5.510809e-01 -2.436687e-01 3.063495e-03 3.304053e-01 2.082186e-02 -2.060098e+00 -8.046086e-01 -5.337174e-01 1.999253e-01 1.369568e-01 8.450387e-01 9.653470e-01
3.097085e-01 1.312914e-01 9.308516e-02 -2.514999e-01 4.931635e-02 -5.192488e-01 -4.586984e-01 -6.596764e-01 -1.686576e-01 2.923975e-02 9.610400e-02 2.504151e-01 -1.259744e-03 1.987835e-01 -1.735843e-01 3.144602e-01 3.773624e-01 2.648032e-01 8.509043e-01 2.850888e-01 -1.034250e+00 4.787029e-01 5.977138e-01 3.445625e-01 5.356548e-01 -1.856366e-01 -2.043601e-01 -3.559348e-02 3.028409e-02 -4.512414e-02 2.150556e-01 2.547292e-01 8.351848e-02 6.656320e-02 3.481465e-01 -3.476597e-01 7.618240e-02 -2.242101e-01 -1.083349e-01 -1.978198e-01 2.012175e-01 7.331035e-02 -7.859808e-01 7.952025e-01 6.064426e-01 7.532503e-02 -2.542658e-01 -2.993146e-01 2.402364e-01 3.108065e-01 -3.651368e-03 1.285560e+00 1.375237e-01 1.041708e+00 5.342824e-03 -5.132058e-01 -4.454696e-01 -4.682095e-01 -1.529315e-01 4.009972e-01 -1.356754e-01 3.266985e-01 -7.310619e-01 4.005302e-01
2.861135e-02 6.986162e-01 1.192109e+00 8.999796e-01 -5.490159e-01 4.110841e-01 8.622774e-01 -2.808456e-01 5.204477e-01 2.636161e-01 3.616027e-01 -5.274525e-01 1.878000e-01 -4.297760e-01 -7.263393e-01 2.435985e-01 7.300583e-02 7.835240e-01 1.404310e-01 8.648270e-02 5.074237e-01 9.302578e-01 -2.503785e-01 8.042212e-01 -5.272860e-01 1.352323e-01 4.768912e-02 7.155858e-02 6.302498e-02 -1.349447e+00 7.506717e-01 -3.611952e-01 -6.336578e-01 6.182214e-02 -6.030897e-01 3.013700e-02 9.101355e-01 2.206481e-01 4.616354e-01 3.620261e-01 -1.270349e-01 -8.958367e-02 -3.461731e-01 6.112650e-01 1.569448e-01 3.334334e-01 9.259260e-01 1.225571e-01 1.726558e-01 3.501132e-01 -1.584389e-02 5.663145e-01 -3.126273e+00 -4.539680e-01 1.219071e-01 1.217977e-01 8.976933e-02 -6.924536e-01 7.701036e-02 -9.476745e-01 3.477483e-01 5.623600e-01 2.646880e-01 -2.189063e-01
-1.777028e+00 -1.011709e-01 -4.895443e-02 1.915473e+00 7.561892e-01 -3.373339e-01 1.474230e-02 -3.266273e-01 -1.027472e-01 1.267938e+00 -2.583098e-01 8.640302e-02 -1.468144e-01 3.381806e-01 -3.205020e-02 -3.416297e-03 3.610744e-01 -1.049282e-01 -7.620304e-01 1.181824e-01 -1.002080e+00 1.369238e+00 -5.036692e-01 4.310293e-02 1.115248e+00 -2.599939e+00 -4.288416e-01 9.870992e-01 -3.292027e-01 1.161353e-01 -2.592230e-01 -5.872424e-01 2.145575e-03 -3.860858e-02 1.723010e+00 3.867477e-01 -3.052278e-01 -8.481347e-01 -2.427939e-01 1.266910e-01 -1.651771e-01 2.465890e-02 4.970450e-01 -5.518409e-01 2.600984e-01 -3.492076e-02 -1.502362e-01 -7.474628e-02 4.509845e-01 -1.515944e+00 7.648695e-02 1.181981e+00 3.979192e-01 -7.027111e-01 -1.878786e+00 -1.655912e-01 1.128896e+00 -6.138525e+00 -1.617961e-01 5.880442e-02 -3.390814e-01 -3.168479e-01 1.640347e+00 -1.408256e-01
4.812599e-02 -5.486209e-02 -3.979650e-02 -1.508640e-01 -1.756491e-01 3.894843e-01 -2.449661e-03 1.426514e-02 1.340017e-01 -3.425909e-01 4.591617e-01 -2.750749e-01 -4.403857e-02 -2.159110e-02 -5.285352e-02 -1.596752e-01 -7.935767e-02 6.579421e-01 -3.295721e-01 -2.350891e-01 -2.162825e-01 7.406575e-01 -3.087699e-02 1.382787e+00 1.184544e-01 1.739501e-02 2.191250e-02 -1.481992e-01 3.782005e-01 1.163800e-01 7.869355e-02 -8.637179e-02 -6.338293e-01 1.534183e-01 3.372467e-01 2.077645e-01 1.461001e-01 2.640737e-01 -2.232421e-01 -2.150654e-01 4.578710e-01 -3.169125e-02 4.058952e-02 1.209696e-01 -1.535196e-01 -9.211993e-02 2.919219e-01 -6.523661e-02 -3.265908e-02 3.697930e-01 1.157682e-01 -7.947018e-01 3.201392e-02 2.075069e-01 6.151580e-03 9.781455e-02 6.645750e-02 -1.777581e+00 -7.025089e-02 -3.603891e-01 6.696942e-02 3.631829e-02 2.785487e-01 -1.438381e-02
4.468327e-01 1.115798e-01 -2.161288e-01 9.567415e-01 -1.295617e-01 -6.938230e-02 2.815371e-01 -6.745121e-01 2.040461e-02 1.055073e+00 -3.701565e-01 2.197437e-01 9.085903e-02 -7.933633e-02 -3.452335e-01 -7.636994e-01 -1.649633e-01 -4.582024e-01 -4.213344e-01 4.900526e-01 1.182762e-01 5.262920e-01 3.955903e-02 2.720363e-01 -2.341007e-01 -6.425977e-01 3.831043e-01 -1.582523e-01 1.489997e+00 8.875844e-01 4.914324e-01 5.373366e-02 -5.745066e-01 -2.590127e-01 -6.128380e-02 2.087826e-01 2.466634e-01 -2.338411e-01 3.783934e-02 1.451584e-01 -2.179791e-01 6.466042e-02 -4.035692e-01 -8.681403e-01 -8.975453e-01 -8.946712e-02 -6.164346e-01 5.796367e-01 2.281719e-01 -7.842180e-01 -5.772407e-02 8.774698e-01 1.197476e+00 3.144437e-02 -4.246079e-01 6.847904e-01 -3.294660e-01 -3.218928e+00 -1.235641e-01 4.505750e-01 -8.678231e-01 -5.719317e-02 1.293751e+00 6.398819e-03
5.277375e-01 4.527913e-01 8.523645e-03 3.009347e-01 -4.461366e-01 8.941136e-01 1.356534e-01 9.396874e-01 -2.110283e-02 -3.680004e-01 4.106421e-01 -2.545592e-01 -7.274204e-02 -3.518826e-01 -1.769762e-01 -9.590118e-02 1.723829e-02 -4.934588e-02 6.726351e-01 -4.268649e-01 1.356758e+00 9.725647e-02 -1.709597e-01 -4.723396e-01 3.445089e-02 -3.148621e-01 7.868663e-01 -1.100168e+00 -1.996737e-01 1.034857e-01 2.849734e-01 -3.707866e-01 1.741283e-01 1.779486e-01 1.072833e-01 5.342496e-01 -9.836659e-01 2.034597e-01 2.580540e-02 4.401869e-02 3.657597e-01 -3.657903e-02 7.987575e-01 5.698606e-01 4.955665e-01 -4.932815e-01 1.606892e-01 9.020115e-01 -5.173242e-02 3.972239e-01 1.151510e-01 2.055270e-01 -1.989936e-01 -3.464391e-01 -1.623791e-01 7.428296e-01 -5.400413e-02 -9.287459e+00 -1.938528e-01 4.347040e-01 3.391823e-01 2.001284e-01 4.335772e-01 -2.784010e-01
8.830609e-01 7.049704e-01 8.210427e-02 6.042181e-01 6.270130e-02 3.157145e-01 -5.621250e-01 -4.551208e-01 -1.106558e-01 -6.604217e-02 -9.338792e-01 -3.249463e-01 -1.401169e-02 1.292394e-01 -8.842652e-01 2.794481e-01 8.415553e-02 -2.389303e-01 -2.414253e-01 3.578514e-01 -4.249587e-02 -5.626770e-01 2.336553e-01 -1.053749e-01 -8.346666e-02 -1.919011e+00 -2.492681e-01 -1.285211e-01 -1.142866e-01 -2.997724e-01 3.044671e-01 -2.685360e-01 5.682105e-02 -5.597548e-01 4.930810e-01 -1.796007e-01 4.542190e-01 -7.987770e-01 -5.147392e-01 4.691100e-02 1.814167e-01 -1.088691e-01 2.549402e-02 -1.387886e-03 2.499760e-01 -4.119422e-01 8.262590e-02 3.736947e-01 -2.678784e-01 8.510458e-01 -2.647861e-01 -5.648328e-02 -2.645612e-01 2.849667e-01 5.248575e-01 -3.164570e-01 6.124897e-01 -2.832764e+00 -4.081250e-01 -3.278308e-01 5.960728e-03 -3.261698e-02 9.779186e-01 4.389443e-01
-3.039093e-01 -1.273138e+00 1.790926e-01 -6.961747e-01 -3.652581e-01 -1.204251e+00 -8.297995e-01 1.627212e-01 -2.254490e-02 7.576947e-02 -2.080853e-01 -1.003281e-01 1.002593e+00 -1.130680e-01 -1.372483e+00 -2.400157e+00 -1.111829e-01 1.520563e-03 -5.922455e-02 -2.940223e-01 5.277626e-02 -2.916498e-01 4.366685e-02 -9.782831e-01 -9.959693e-02 -2.560998e-01 -1.556910e-01 -5.290005e-01 3.569441e-01 3.566419e-01 5.386189e-01 -2.647403e-01 -2.384929e-01 -6.689607e-01 -1.600245e-01 -5.468533e-01 -5.795552e-01 -2.958462e-01 -3.243150e-01 -4.455968e-01 -8.149251e-01 1.788131e+00 -1.645950e-01 8.641475e-02 -1.658287e+00 -9.609456e-02 -3.418376e-01 -1.029480e+00 -3.659953e-02 1.035812e-01 1.163464e+00 -1.085619e+00 -2.487951e+00 -6.978883e-01 -5.284003e-01 -2.175367e-01 -5.264125e-02 -5.853626e-01 3.628402e-01 -5.142994e-01 -2.636842e-01 -8.251194e-01 -7.887352e-01 -6.496009e-01
6.018968e-02 3.925287e-01 1.264265e-01 9.562700e-01 -3.774251e-01 6.118898e-01 3.343543e-01 -8.723364e-02 -5.404526e-01 4.182719e-01 6.064709e-01 2.841358e-01 -3.241596e-03 -8.524340e-01 1.644185e-01 -1.004937e+00 1.079010e-01 -4.230466e-01 -2.096759e+00 2.397662e-01 4.935138e-01 5.011556e-01 1.110876e+00 3.113701e+00 -5.572966e-01 -3.504071e-01 -1.735425e-01 5.478532e-01 -2.369072e+00 -6.459861e-01 -1.856530e-01 -3.815506e-02 1.780675e-01 1.357669e+00 -2.154121e-02 -1.006579e+00 7.961659e-01 3.450663e-01 3.287467e-01 3.053331e-01 -3.136988e+00 4.166547e-02 -2.562361e-01 -2.614875e-01 -1.181457e+00 -8.903133e-02 -1.002662e+00 6.736361e-02 -6.683183e-02 -3.889453e-01 -2.495657e-01 1.530216e-01 1.638055e-01 2.209532e-01 2.517400e-01 -8.999047e-01 6.272350e-01 -1.584264e-01 3.117643e-01 6.381934e-01 -4.071119e-01 9.157972e-02 -8.425241e-01 -3.844862e-01
-2.577738e-01 -4.741742e-02 -1.295460e-01 6.248595e-01 9.203509e-02 -3.742719e-01 -1.109195e+00 -7.649086e-01 1.852083e-01 2.460569e-01 5.660588e-01 5.126677e-02 -9.215451e-03 3.983883e-01 3.317069e-01 -1.986723e-01 -3.213349e-01 4.919559e-01 -7.179291e-01 -7.657959e-02 -5.086939e-01 3.425645e-01 2.010583e-01 3.103690e-01 6.575382e-01 -4.161694e-01 -4.303340e-01 -4.027538e-01 -4.151109e-01 -3.781594e-01 5.638891e-01 -3.242313e-01 3.535746e-02 -2.578374e-01 4.782390e-01 7.996760e-03 -3.820556e-01 -3.988507e-01 -1.895113e-01 1.332553e-01 3.611103e-02 -5.641690e-02 4.031394e-01 8.518630e-01 -4.387430e-01 -9.777376e-01 6.311967e-01 9.750342e-02 -1.792027e-01 -3.115131e-01 2.082959e-01 1.108687e+00 2.216009e-01 3.030119e-01 -1.641359e-01 4.555492e-01 1.255499e+00 -5.300858e-01 3.205819e-02 2.456223e-01 3.949035e-01 2.812310e-01 1.932032e-01 -8.351708e-02
7.592264e-01 -8.168141e-01 -1.167304e-01 -1.403475e+00 5.043882e-01 -2.338048e-01 -2.548934e+00 6.380679e-01 8.202612e-01 3.323459e-01 -1.365323e+00 -4.814536e-02 1.742163e-01 4.247739e-01 1.534134e-01 -5.458595e-01 -2.849964e-01 -3.475668e-01 -3.648546e-01 1.784598e-01 -3.852497e-01 -9.666635e-01 -1.799495e+00 5.227658e-01 1.436761e+00 5.071805e-02 7.017108e-01 -1.690881e-01 3.341178e-01 -1.679651e+00 5.356036e-01 4.318095e-02 2.803721e+00 -5.395016e-01 1.110123e+00 -7.887405e-01 -1.969786e-01 -1.451806e+00 4.741293e-01 1.926453e-01 -2.795965e+00 -1.029412e-01 -9.191868e-01 -1.261602e+00 1.887450e-01 1.456533e+00 -6.379859e-01 -1.370228e-01 2.353630e-01 -2.436600e-01 8.345015e-02 -3.679847e-01 -2.783752e-01 -2.656700e-01 2.125457e-03 -2.161678e+00 -2.891796e+00 4.859172e+00 -6.114469e-01 -8.972182e-01 -1.166942e+00 3.955560e-01 -2.915645e-01 -5.384921e-01
-6.610889e-01 3.748908e-02 -1.376960e+00 1.512175e-01 -5.259206e-01 -4.366129e-01 4.443650e-01 2.297933e-01 -2.289616e-01 6.948019e-01 -1.190941e-02 1.811254e-01 -7.821670e-01 -2.317754e-01 3.348485e-01 2.795210e-01 -1.953136e-01 1.776773e-01 -1.895376e+00 -1.970823e+00 -3.455619e+00 -6.414551e-01 -2.490622e-02 -3.802694e+00 -4.320690e-01 2.441692e-01 -1.145813e+00 -8.662284e-01 3.286476e-01 -8.336697e-01 -4.182191e-01 -2.638774e-01 -3.367137e-02 1.176011e-01 2.676676e-01 -1.692502e-01 1.674150e-01 4.384518e-01 -1.178834e+00 4.413094e-01 -1.903714e+00 -3.852257e+00 7.125431e-01 -2.047005e-01 1.474203e-01 -6.463315e-01 3.517439e-01 -5.132665e-01 -7.644774e-02 3.515831e-02 -2.727583e+00 -7.929994e-01 -5.215862e-01 -5.993659e-01 3.117896e-01 -9.075568e-01 -6.595320e-01 1.326115e-01 -4.997321e+00 -4.116776e-01 -5.847533e-01 2.453787e-01 2.196349e-01 4.053277e-01
9.844963e-02 -9.942698e-01 -1.859369e-02 -5.286509e-01 -1.037809e-01 -2.670746e-01 -4.001627e-02 1.293822e-01 5.525231e-02 -1.965136e+00 7.019438e-01 1.120131e-01 2.755146e-02 3.194761e-01 3.369836e-02 9.060333e-01 5.813415e-02 -8.678479e-01 -7.692587e-03 5.521197e-01 3.549225e-02 -3.960926e-01 -1.130960e-01 3.501899e-01 -5.818937e-01 1.507930e+00 3.614742e-01 -9.690258e-01 4.369731e-01 1.952427e-01 -3.107085e-01 -3.887196e-02 2.332011e-01 3.783111e-02 1.708302e-01 4.925506e-01 9.383188e-02 3.596431e-01 -1.168414e-01 -3.054250e+00 -1.662314e-01 -2.829747e-02 -1.401611e+00 -1.688900e-01 -1.019226e-01 2.083288e-01 5.480595e-01 -4.226595e-01 -2.575022e-01 -2.829975e-01 8.140025e-02 -1.614906e+00 2.441883e-01 6.606987e-01 -5.321044e-01 -1.130454e-02 -3.228453e-01 6.031509e+00 2.078481e-01 6.956680e-01 1.032260e-01 -2.397139e-01 1.114712e-01 -2.714411e-01
3.929708e-01 1.665698e-01 -4.894594e-01 6.057853e-01 -2.157713e-01 2.156803e-02 1.497724e-01 -1.014967e+00 -4.584845e-01 1.407936e-02 2.719902e-01 8.860609e-02 2.322250e-01 1.753832e-01 5.315539e-01 7.001686e-02 2.832551e-01 -3.337927e-01 -1.798264e-01 -6.267091e-01 1.321589e-01 2.249832e-01 1.832152e-01 1.050546e-01 4.969039e-02 5.256290e-01 2.297021e-01 -3.050840e-01 -1.484592e+00 5.605019e-03 1.034745e+00 -4.791841e-01 3.492782e-01 -2.215378e-01 9.235702e-01 -4.058440e-02 3.309532e-01 -8.116375e-01 -1.502196e-01 -3.697677e-01 -3.745363e-01 -1.958626e-01 2.124502e-01 4.638382e-01 1.139645e-01 4.668745e-01 5.362951e-01 5.536742e-01 -1.946185e-01 4.316593e-01 7.651010e-02 1.330853e+00 3.291771e-01 -1.331668e+00 4.854633e-01 7.498948e-01 1.278863e+00 -1.068170e+00 6.801628e-02 -8.853999e-01 3.661700e-01 3.899406e-01 8.168343e-01 5.178617e-01
-6.227844e-01 1.602110e-01 -1.276300e-01 -6.810759e-01 -4.583463e-01 -1.787111e-01 -3.690620e-01 -3.512175e-01 -8.234876e-02 -4.729730e-01 -2.439234e-01 5.940582e-02 2.046269e+00 -1.435200e-01 -8.541470e-01 -1.450024e+00 -2.696091e-01 -1.011431e+00 -7.683068e-03 1.610383e-01 -4.315063e-01 1.701168e-01 -4.420457e-01 -6.871470e-01 -6.182261e-01 -2.904482e-01 -6.629851e-01 -3.339851e-01 -2.871748e-01 3.361988e-01 3.347888e-01 -4.192834e-01 -4.853592e-01 -2.435283e-01 -6.646090e-01 -5.399090e-01 -5.571540e-02 -5.161963e-01 -1.043482e-02 -2.537589e-01 3.457592e-01 1.717081e+00 -3.412411e-01 -3.091509e-02 -3.217414e-01 -5.249562e-01 -6.156436e-01 -1.687932e-01 5.762390e-01 -7.043490e-01 9.554088e-01 -3.082208e-02 -1.159802e+00 -3.775468e-01 -2.667105e-01 -4.561339e-01 3.492384e-01 -1.104750e+00 1.403408e-01 -1.214730e+00 -1.627327e-01 -6.256101e-01 -3.336944e-01 1.403236e-01
2.805876e-01 -7.928414e-01 -1.336559e-01 2.008606e-01 7.833437e-03 5.376959e-01 2.640072e-01 -1.609987e+00 5.441164e-01 -2.515876e-02 -3.308364e+00 3.572756e-02 1.180866e-02 -1.883248e+00 1.379569e-02 -9.261917e-01 7.879184e-01 1.458482e-01 5.365867e-01 -9.511243e-01 9.191821e-01 5.238961e-01 -3.703374e-01 6.747361e-01 8.182321e-02 -5.585952e-01 -1.034540e+00 -9.563954e-01 -2.040813e-01 -3.143646e-02 4.020903e-01 9.438352e-02 -1.418836e-02 -2.325268e+00 -1.213481e+00 -8.054890e-01 -1.941982e-01 -5.855986e-01 -5.468748e-01 -1.341585e-01 2.563494e-01 -1.356348e-01 5.568006e-02 -5.931215e-03 3.895681e-01 5.689864e-01 -1.638523e+00 -5.175142e-01 -8.134530e-01 5.227038e-02 1.842411e-01 -4.795040e-01 3.839393e-03 3.524802e-01 -8.957077e-01 -1.498243e+00 1.155619e+00 2.230054e+00 -1.742029e-01 1.338669e+00 6.906355e-01 4.457022e-02 1.740223e-01 -1.803854e-01
-8.367055e-01 -4.558042e-01 -3.520644e-01 -3.085605e+00 2.295350e-01 8.838005e-02 -3.459933e+00 -6.590898e-02 -1.706798e-01 -5.272935e-02 -5.154459e-01 6.417110e-01 -5.357453e-02 2.459841e-01 -1.189486e-01 -1.664464e+00 3.100264e-01 2.877923e-02 -9.605773e-01 3.057861e-02 2.587899e-01 -5.688850e-01 -3.595934e+00 1.697105e-01 5.770018e-01 1.828311e-01 5.093312e-01 3.854677e-01 9.678155e-01 -1.092229e+00 -4.000295e-02 5.081806e-01 -2.212859e+00 -2.494505e-01 2.574784e-01 3.542574e-01 1.403920e-03 -1.354315e+00 -5.073299e-01 -1.553151e-01 -2.211971e-01 -2.053816e-01 -3.161659e-01 1.683407e-01 6.436705e-01 8.204270e-02 -4.660291e+00 1.589807e-02 -8.447738e-01 -2.111780e-01 -2.513114e+00 5.903357e-01 5.873340e-02 1.088868e+00 -2.366566e-01 -1.249314e-01 2.724103e-01 8.001542e+00 -1.143323e+00 5.046661e-01 9.797252e-01 5.455467e-02 1.110469e-01 -3.326717e+00
-1.796265e+00 1.237206e+00 -3.171751e-01 4.217758e-01 -7.519585e-02 -5.714220e-01 9.558311e-01 -3.795090e+00 -7.592659e-02 2.430219e-01 5.639165e-02 8.693641e-01 -2.165954e-02 6.648756e-01 5.152816e-01 2.473696e+00 -5.222066e-02 -4.284057e-01 -3.639648e-01 2.702209e-01 5.641333e-01 -9.646189e-02 2.944545e-01 3.488693e-01 3.339109e-01 -1.135653e+00 -6.502903e-01 4.723811e-01 -9.550166e-01 -1.109853e+00 4.206502e-01 -1.446609e+00 5.170406e-01 -1.004835e+00 5.815538e-01 -5.780483e-01 3.629064e-01 -8.433897e-04 -3.546696e-01 -3.564015e-01 9.595608e-01 6.299897e-01 3.246409e-01 1.509785e+00 -2.898876e-01 -6.604850e-01 1.002458e+00 -3.560636e-01 1.092383e-01 -2.845425e-01 -1.131145e-01 -1.631184e+00 -2.856408e-01 2.935785e-01 5.473597e-01 7.008167e-01 1.356450e+00 1.837807e-01 2.649195e-01 1.866010e-01 -2.653762e-01 -5.691987e-02 7.042678e-02 2.851724e-01
-3.684891e-01 1.054498e+00 4.338485e-01 1.489141e+00 3.259357e-01 3.913044e-01 6.718192e-01 1.129776e+00 5.608535e-01 -7.508048e-01 -1.138868e+00 -1.143440e+00 -1.984053e-01 -2.535180e-01 -5.942484e-01 3.341185e-01 6.956106e-01 1.421249e+00 -1.663190e-01 -1.931057e+00 2.435351e-01 -6.261875e-01 -3.763636e-02 1.014911e+00 -9.480838e-01 2.738143e-01 9.107243e-02 -5.598797e-02 -5.697501e-01 1.777959e-01 7.952725e-01 -1.215079e+00 1.529669e+00 -2.711670e-01 -7.292342e-01 7.217965e-01 4.039194e-01 5.862163e-02 6.296187e-01 3.568646e-02 1.145718e+00 -4.103406e-01 -1.199558e-01 6.030542e-01 6.795825e-01 9.732246e-01 -1.329998e+00 4.841279e-01 6.081680e-01 5.220532e-01 -2.093009e-02 6.155918e-01 -2.466161e-01 7.385445e-01 5.259076e-01 3.899233e-01 6.509514e-02 -8.600531e+00 5.963123e-01 -1.072668e+00 2.012569e-01 3.757712e-01 1.004204e+00 5.314158e-01
-1.628129e-01 4.676560e-02 5.255510e-01 -2.669138e-01 -5.549940e-01 1.076733e+00 3.199378e-01 -2.943028e+00 -2.838593e-01 8.045732e-01 9.735835e-01 9.729407e-02 1.831101e-01 3.457133e-01 4.593828e-01 -6.705728e-02 1.171104e-02 2.089134e-01 -2.997177e-02 -2.854845e+00 1.014543e-01 5.569397e-01 1.190290e+00 -1.084195e+00 -4.610554e-01 2.954555e-01 -1.349174e+00 9.726091e-01 -9.427859e-01 6.668136e-01 6.166455e-01 -4.966344e-02 3.620172e-01 1.041005e-01 -2.471219e-01 2.933534e-01 1.242225e+00 9.939405e-02 -1.540230e-01 -3.646711e-01 -2.023579e+00 3.190126e-01 -3.522834e-01 1.063308e-01 -3.053159e-01 2.668970e-02 1.616452e+00 -4.294953e-01 -5.050072e-01 -3.199594e-01 -1.052995e-01 1.729447e+00 -4.062518e-01 -1.154275e-01 -3.672004e-01 -3.604382e+00 6.576036e-01 -3.339994e+00 3.776472e-01 9.728673e-01 -1.060675e+00 4.267828e-01 4.281798e-01 9.456076e-02
4.775823e-03 -5.953420e-03 -3.795343e-03 1.012150e-02 1.521085e-02 -2.080069e-02 -2.287336e-02 1.477805e-02 -1.830059e-02 3.261380e-02 -2.898029e-02 -2.361435e-02 -1.191916e-02 -3.732990e-02 -1.060662e-02 -5.051621e-02 4.993550e-03 -1.802949e-02 2.190740e-02 3.799730e-03 -2.779917e-02 9.661386e-03 -1.676251e-02 -2.569403e-02 4.910816e-03 -2.319889e-02 -4.336132e-02 2.715121e-02 1.573894e-02 -3.634274e-02 -1.087834e-03 -1.228696e-02 2.824941e-02 -5.162453e-03 7.275073e-03 -1.974468e-02 3.261025e-02 1.482298e-02 -3.215784e-02 -2.007510e-02 -3.434510e-02 2.030148e-03 -3.533141e-02 1.733970e-02 -3.958127e-03 2.539995e-02 -8.348358e-04 1.951109e-02 -7.783915e-03 -1.465955e-03 4.598617e-03 6.831826e-03 -1.901470e-02 -3.398634e-02 -1.428717e-02 -4.269109e-02 -2.477649e-02 -1.865937e-02 -3.543021e-03 6.084202e-03 9.252154e-03 -1.056875e-02 -1.736695e-02 3.175706e-02
1.485441e-01 2.173978e-01 -2.185829e-01 5.530796e-01 4.757158e-02 -1.801520e+00 9.210515e-01 -6.653230e-01 -4.603256e-01 -5.744726e-02 6.135320e-03 1.024304e-01 1.460054e-01 -1.370965e+00 2.067117e-01 9.648303e-01 2.268304e-01 9.064144e-01 -1.943131e+00 -9.734288e-01 -2.743812e-01 6.222303e-01 4.760917e-02 8.496449e-01 3.258002e-01 7.386313e-02 -1.635377e+00 8.719283e-01 -1.324193e+00 -1.539060e+00 7.158988e-01 -6.813211e-01 1.777137e+00 1.258066e+00 6.365739e-01 -7.262954e-01 1.369537e+00 4.351492e-02 -3.104311e-01 1.787614e-01 -1.215408e+00 -2.541169e+00 4.497676e-02 6.371731e-01 5.729187e-01 1.540760e+00 -1.873913e-02 5.453417e-01 -5.234831e-02 -3.638178e-01 -7.523896e-01 9.191153e-01 -7.260450e-01 9.570977e-01 4.283289e-01 -2.669789e+00 6.970997e-01 8.697259e-01 -2.770245e+00 4.646449e-01 4.683068e-01 1.187168e-01 -8.120250e-01 5.946135e-01
-1.936984e-02 2.260348e-02 -1.445673e-02 -1.029104e-02 9.943494e-03 -1.942405e-02 2.222432e-02 -4.262500e-03 -1.594193e-02 3.751937e-03 1.247505e-02 6.793889e-03 -3.298745e-02 6.982748e-03 -3.404368e-02 -4.727158e-03 2.361291e-03 -2.875117e-03 -1.630210e-02 -8.796477e-03 1.805316e-02 -1.951857e-03 -2.554725e-02 1.081838e-02 -1.973563e-03 4.038726e-03 -1.121386e-02 -1.841171e-02 -2.068447e-02 -2.032522e-02 -1.877419e-02 -2.080233e-02 -1.191189e-02 -2.687165e-02 -3.836017e-02 -4.866979e-03 1.533351e-03 1.727281e-02 1.854780e-04 -2.335241e-03 -4.508660e-02 -1.423096e-02 1.758547e-04 -7.673664e-03 -1.447159e-02 5.726818e-03 7.756937e-03 -1.214454e-02 1.492108e-02 -1.645395e-02 -6.077608e-03 -1.123613e-02 -9.690824e-03 -8.461635e-03 -3.493707e-02 -1.632360e-02 3.293258e-03 2.371514e-03 3.106637e-02 -1.905498e-02 -4.323058e-03 -4.349302e-03 -4.438375e-02 3.760451e-03
-5.543059e-01 -1.800824e-01 1.048240e-01 -3.129757e-01 2.859391e-01 1.143073e-01 5.878221e-01 -1.292081e-01 -2.873298e-01 2.983969e-02 1.404040e-01 6.980613e-02 -4.622163e-02 8.823885e-02 -5.423886e-02 5.879586e-01 -4.098183e-01 1.576690e-01 1.713475e-01 2.680555e-01 -7.431022e-01 -3.013100e-01 4.351737e-02 -4.221530e-01 -1.024557e-02 1.116421e-01 -8.243389e-01 -1.085303e+00 -4.272569e-01 -6.674031e-01 4.545282e-01 3.999828e-01 -1.917594e-01 -4.502837e-01 2.426083e-01 6.962214e-02 4.400252e-01 -2.584177e-01 6.278256e-02 -1.427719e-01 -6.528855e-01 3.408360e-02 -3.664710e-01 -5.347272e-01 8.840296e-03 -4.285282e-01 4.200017e-01 3.263668e-01 1.639785e-01 3.128521e-01 -2.038150e-02 2.758135e-01 -4.224093e-02 1.822625e-01 2.093418e-01 -2.489671e-01 -5.138838e-01 -1.395633e+00 -3.130882e-01 -1.009494e+00 -5.736791e-01 1.840672e-01 -8.078189e-02 -5.496004e-02
-3.535112e+00 1.793404e-01 -1.097278e-01 -2.496065e-01 -2.281586e-01 7.386739e-01 -4.519810e-01 -3.921445e-01 -2.264891e-01 6.827472e-01 -1.709814e-01 -3.074652e-01 -8.828874e-02 8.266677e-01 1.537437e-01 6.210662e-01 -2.112551e-01 -2.916517e-01 1.994623e-01 -1.286889e-01 -8.011909e-01 -1.033544e+00 -1.565524e-02 -1.857612e-01 7.984333e-02 1.404715e+00 -1.832612e+00 4.514953e-01 3.847944e-01 2.775794e-01 -2.102500e-01 2.729484e-01 -2.447589e-01 -2.407975e-01 3.483593e-01 -1.663714e-01 4.265239e-02 9.084748e-02 -3.144891e-02 -1.969091e-01 -4.887999e-01 6.178925e-02 -2.459289e-01 3.135747e-02 1.004612e-02 8.264924e-01 6.664087e-01 3.484488e-01 2.885804e-01 -6.505170e-01 2.439644e-01 1.217542e+00 3.352645e-01 1.032365e+00 -1.649754e-01 5.670494e-01 1.486795e+00 -3.428409e+00 -6.617797e-01 1.102589e-01 1.259019e-01 -3.337377e-01 6.351548e-01 9.916530e-01
1.900395e-01 5.239754e-01 -1.592573e-01 2.987447e-01 -3.979583e-01 8.267359e-01 -4.703141e-01 -7.880865e-01 -3.604507e-01 -1.107053e+00 -2.431334e+00 -1.003785e-01 -1.480889e-02 -6.594712e-01 1.698584e-01 6.756921e-02 4.443935e-01 -1.001032e-01 2.718172e-01 1.519009e-01 6.937588e-01 -1.045004e-01 -2.045186e+00 -1.937889e-01 -5.542886e-01 1.040221e+00 9.688303e-01 -1.344451e+00 -2.739207e-01 6.891001e-01 2.498726e-01 6.009817e-01 1.332661e-01 -2.167248e+00 -2.827899e+00 -1.261115e+00 5.759167e-01 -7.892988e-02 4.490418e-01 1.397419e-01 -1.215652e-01 -7.145739e-02 3.370019e-01 2.721550e-01 9.959524e-01 6.387231e-01 -4.359228e-01 9.624323e-01 -3.575099e-02 -8.792523e-01 -1.527753e-01 3.423655e-02 6.976202e-01 1.226678e-01 -1.235133e+00 -2.942936e-01 -3.234571e-01 -2.452205e+00 -7.414944e-02 -1.527964e+00 8.819030e-03 1.976478e-01 3.170421e-01 -4.939962e-01
-7.268434e-01 -1.783073e-01 -3.404992e-02 -6.590115e-01 7.012404e-01 -3.088057e-01 1.211406e+00 -2.348775e+00 5.043908e-01 -7.659453e-01 -2.697266e+00 -6.008868e-01 -4.338612e-03 -4.674920e-01 -8.524681e-01 -7.899405e-02 2.731217e-01 -5.257795e-01 -3.991937e-01 -1.688084e-01 -4.258080e-02 8.210207e-01 -1.012133e+00 2.047447e-01 1.414268e+00 -2.945075e-01 -2.244056e+00 1.272498e-01 1.529792e-01 -2.471991e-01 1.176620e+00 -7.691036e-01 -2.608407e-01 -3.580987e-01 1.336853e-01 1.287084e+00 -8.284122e-02 -6.467211e-01 -1.893459e+00 2.215651e-01 -2.436189e-01 -1.072393e-01 7.452145e-01 4.146935e-01 5.261311e-01 -1.423697e+00 -1.134282e+00 2.457897e-01 -4.942316e-01 9.938852e-01 -2.470392e-01 -3.255877e-01 -8.766329e-02 2.155887e-01 -1.320633e+00 -3.484655e+00 4.009179e-01 1.107788e+00 1.526790e-01 1.514564e-02 1.154640e+00 2.542367e-01 -1.141798e+00 6.240683e-01
2.437478e-01 5.048925e-02 1.371063e-01 6.747679e-01 2.705732e-02 -1.942408e-02 2.946810e-01 1.920827e-01 -9.682347e-02 2.862161e-01 -3.471355e-01 3.122604e-01 -4.216065e-02 -7.247365e-02 1.980148e-01 1.491808e-01 1.549947e-01 1.658273e-01 -7.723165e-01 -7.271548e-01 1.043899e+00 6.768555e-01 9.642329e-02 -3.756081e-01 1.079504e-01 8.204932e-02 2.419994e-01 6.137437e-01 -1.496917e-01 1.849109e-01 -1.330415e-01 1.330177e-01 -1.213332e-01 -6.183917e-01 -1.823410e-01 -9.851317e-02 3.445559e-01 6.336885e-02 1.979488e-01 -5.743513e-02 -6.631466e-01 1.843729e-02 -2.427166e-01 -5.146595e-01 5.034758e-01 1.842101e-01 1.096093e-01 6.550956e-02 1.214658e-01 1.910974e-01 4.720222e-03 -1.543172e-01 -1.753556e-01 3.055824e-02 -4.588979e-01 -4.514821e-01 -3.076591e-02 -4.773949e+00 -1.544702e-01 -1.191067e-01 -1.401586e-01 1.430662e-01 4.137024e-02 1.045653e-01
-2.191651e-02 -2.190424e-02 -2.559074e-03 -5.327537e-02 -3.492979e-02 1.070906e-02 -2.721374e-02 1.864227e-02 -1.531058e-02 -5.501661e-03 -1.491979e-02 2.918366e-02 1.011445e-02 -2.684635e-02 1.200728e-02 1.779654e-02 -9.096112e-04 -5.461491e-03 -2.260460e-03 -5.129639e-03 -3.963809e-02 2.029974e-04 -3.342404e-02 1.335166e-02 1.830742e-02 -1.650272e-02 -2.067751e-02 -4.611110e-02 -1.917711e-02 -2.301073e-02 5.576771e-03 -8.214238e-03 -1.686995e-02 -1.471520e-02 4.858854e-03 1.459775e-02 4.582767e-03 1.061121e-02 4.037701e-03 -1.529533e-02 -1.352093e-03 1.895168e-03 -2.433270e-02 -2.050277e-02 -2.837334e-02 -2.200073e-02 -2.137877e-02 7.778281e-03 -4.770679e-02 -1.431873e-05 -2.800168e-02 -1.858577e-02 -1.744192e-02 -3.060786e-02 1.704148e-02 2.828038e-03 -1.524712e-02 2.611113e-02 -4.776890e-03 -2.042191e-02 -5.071772e-03 1.647110e-03 -2.067805e-02 1.352121e-02
-1.687946e+00 9.915554e-01 4.933321e-02 3.033855e+00 2.619271e-01 2.010597e-01 -1.313658e+00 2.180326e-01 -5.422485e-02 1.037157e+00 -3.587706e-01 1.899831e-01 -2.462293e-01 1.673568e-01 9.037025e-02 1.241148e+00 4.726227e-01 1.857076e-01 5.548733e-01 3.117872e-01 1.120203e-01 5.781633e-01 1.729316e-01 1.166337e-02 6.972534e-01 -2.300403e-01 -3.601601e-01 3.586528e-01 5.243044e-01 -5.718105e-01 2.918447e-01 -1.576966e+00 8.737743e-02 3.437527e-01 -4.728095e-01 -5.113595e-01 1.284226e+00 -1.613633e-01 -2.091043e-01 2.168100e-01 1.154338e+00 1.606655e-01 1.367411e-01 8.039286e-01 -1.663917e-01 -1.574197e-01 8.466650e-01 -8.027411e-01 -6.834423e-01 3.893960e-01 -1.211601e-01 -2.520193e-01 1.884929e-01 -6.917694e-02 -1.442409e-01 2.417256e-01 7.376072e-01 -5.318918e+00 5.477221e-01 1.616649e-01 4.183594e-01 -4.382062e-01 1.238418e-01 1.824570e-01
-5.693958e-02 -3.568497e-01 -8.280609e-02 1.714593e-01 3.750151e-01 -1.050555e+00 -9.812082e-02 -2.933457e-01 -4.385336e-01 -3.517231e-01 3.828476e-01 6.438487e-01 -1.893541e-02 4.737692e-01 3.195046e-01 3.942212e-01 3.742727e-01 -9.751735e-01 4.739711e-01 2.170582e-01 -9.348883e-01 1.646936e-01 1.714429e-01 4.650841e-02 -8.668916e-02 2.571815e-01 -4.546588e-01 -2.347638e-01 5.352588e-01 3.075228e-01 1.094373e-01 7.864874e-03 5.171464e-01 -9.098440e-02 2.215278e-01 9.422120e-02 -7.558528e-01 -1.797487e-01 5.455949e-02 4.447003e-01 -1.531156e-01 1.194736e-01 -7.981201e-01 7.106997e-01 1.857492e-01 -8.246580e-01 6.764677e-02 -7.234573e-02 -9.525971e-02 2.365408e-01 -8.541082e-02 8.101212e-01 5.952041e-01 -8.073382e-01 1.203100e-01 -4.813659e-01 -2.210142e-01 -3.099127e+00 4.631860e-02 5.223554e-01 -5.337585e-01 -1.713833e-01 2.285824e-02 9.432281e-03
4.083518e-01 -2.821564e-01 7.307682e-01 5.599895e-01 -9.406883e-01 5.690557e-01 5.053881e-02 -2.668451e+00 -2.627354e-02 1.026484e+00 4.563754e-01 3.651294e-01 -8.968122e-02 -6.954577e-01 -1.779210e-01 8.117476e-01 7.984540e-01 1.040552e+00 -1.794684e-02 -4.596145e-01 8.307022e-02 2.996534e-01 -1.830921e-01 -1.267133e-01 -7.268475e-01 1.443002e-03 2.905732e-01 8.650524e-01 3.585917e-01 -3.838333e-01 3.300653e-01 -7.286767e-01 -4.142886e-01 -5.888696e-01 -2.743661e-01 -1.533963e-01 6.307506e-01 2.840206e-01 -1.878670e-01 -4.669079e-01 -8.032795e-02 -1.572328e-01 1.115025e-01 -1.059968e-01 2.149400e-02 7.479155e-01 -2.617252e-01 6.189768e-01 3.658842e-01 4.057139e-02 2.100399e-02 2.264282e-01 -1.179145e+00 -1.253837e-01 1.602500e-01 7.205205e-01 5.992139e-01 -9.382004e-01 -1.179045e-01 4.235324e-03 6.169439e-01 9.250486e-01 4.347481e-01 1.639137e-01
-3.651413e-02 -8.680464e-03 -3.059558e-02 1.641179e-03 -2.852677e-02 -2.519786e-03 -1.000455e-02 -7.492923e-03 6.564479e-03 -3.164591e-02 5.234188e-03 -1.418136e-02 -5.000015e-03 -1.505685e-02 1.590449e-02 5.604671e-02 3.868315e-03 -4.376817e-02 -3.509351e-03 -3.067789e-02 9.703939e-03 2.870420e-03 -1.307042e-02 -4.033075e-02 -4.879045e-02 -2.144493e-02 -5.342561e-02 -5.000573e-03 -1.664107e-02 -2.915965e-02 -3.775859e-02 1.937878e-03 -7.022268e-03 -3.590219e-02 -1.838298e-02 -3.419288e-03 -7.270917e-04 -8.429830e-03 1.169372e-02 -3.189915e-02 -3.435537e-03 -7.699349e-03 1.979101e-02 4.013611e-03 2.179736e-03 -1.999730e-02 2.281247e-03 8.766367e-03 1.477124e-02 2.433331e-02 7.692420e-03 -1.531442e-02 -1.487258e-02 -2.967494e-02 -1.937099e-02 9.373523e-03 -1.532550e-02 1.888784e-02 2.211274e-02 -2.596129e-03 -1.581911e-02 -9.179768e-05 1.048396e-02 -4.570907e-02
-6.113313e-01 1.473150e-01 6.010665e-03 2.417380e-01 4.915788e-01 -2.891914e-01 5.319470e-01 -7.698321e-01 -1.766209e-01 8.514539e-02 -6.433335e-01 6.541744e-01 3.169614e-03 3.086160e-01 3.555725e-01 -7.599704e-01 9.828732e-02 1.429571e-01 -3.816487e-01 8.737339e-01 -9.898625e-02 1.588106e-01 1.553875e-01 -6.689749e-01 4.282242e-01 2.150674e+00 -5.069662e-01 -8.124943e-02 -2.412108e-01 -1.504599e-01 1.037109e-01 -2.496719e-01 8.901009e-01 7.661616e-02 -2.491469e+00 1.789096e-01 -3.564327e-01 2.456276e-01 3.698814e-01 -1.144066e-01 -2.931622e-01 -1.517323e-02 -4.465651e-01 7.916890e-02 5.379404e-01 1.301996e-01 2.908858e-01 -2.825828e-01 2.479480e-02 -7.158256e-01 1.238622e-01 1.244251e+00 -4.218257e-02 1.777439e-01 -5.366547e-01 -1.988120e-01 -2.318571e-01 -5.952979e-01 -2.532707e-01 5.731940e-01 3.249214e-01 6.717143e-02 1.051853e+00 -1.408081e+00
4.255876e-01 -3.501194e-01 -5.771952e-01 -3.794794e-01 -4.239995e-01 -3.088634e-02 -4.935449e-01 -9.352448e-02 -4.182234e-01 -4.016004e-01 -1.788197e-01 3.950396e-01 4.449418e-01 -4.705952e-01 -6.215339e-01 -6.159643e-01 -4.243804e-01 -1.916883e-01 -1.529618e-01 6.993134e-02 -8.497131e-02 2.469605e-01 -2.250058e-02 2.007666e+00 4.582418e-01 -4.087360e-01 -2.714249e-01 -1.532817e-01 1.885789e-02 -1.777205e-01 -3.670014e-01 -1.214833e-01 2.704566e-01 7.188081e-02 -6.188798e-01 -2.643630e-01 2.296485e-01 -2.108414e-01 -2.401981e-01 -2.704415e-02 -3.439673e-01 8.395463e-01 6.788119e-02 9.840227e-01 8.022609e-02 -8.107401e-01 -1.262362e+00 -8.876962e-02 3.843391e-01 -4.926007e-02 8.010697e-01 -4.891419e-02 -1.398184e-01 4.145588e-01 -1.717034e-01 -3.635227e-01 -5.781584e-01 1.896063e+00 2.031274e-01 1.592267e+00 1.080274e-01 -4.089038e-01 -4.523569e-02 7.971474e-02
-1.384352e-01 -1.179759e+00 6.587734e-01 8.315082e-01 1.078872e+00 2.371076e-01 7.465595e-01 -4.993160e-01 -3.481694e-01 6.288460e-01 -1.269821e+00 5.932021e-01 -3.660383e-01 3.009089e-01 -3.715783e-01 -1.814906e+00 -3.102821e-01 1.433450e-01 -1.032588e+00 -1.255033e+00 -5.119118e-03 -4.517227e-01 3.694009e-01 1.029931e+00 -9.070706e-01 1.522933e+00 -1.261985e+00 7.535886e-01 2.683193e-01 2.819323e-01 -1.122403e-01 -1.834373e+00 9.885586e-01 2.649233e-01 -1.521880e-01 2.507178e-01 3.446658e-01 4.290889e-01 -9.854676e-01 5.185174e-01 8.424838e-01 -4.031390e-01 6.369607e-02 7.239005e-01 -2.239698e-01 8.346068e-01 2.208245e-01 -8.224438e-02 4.781669e-01 1.545483e+00 -3.534867e-01 1.218472e+00 -3.299036e-01 -4.934066e-01 9.056498e-01 -3.733810e-01 -3.750377e-01 -1.429981e+00 1.779588e-01 -1.911564e+00 7.141642e-02 -4.141101e-01 -3.380006e-01 6.400729e-01
-1.042990e-03 -3.488733e-03 -1.454468e-02 2.284399e-03 5.150863e-03 -5.875764e-03 1.419629e-02 2.204674e-02 -1.119243e-02 -1.893527e-02 -5.964519e-04 -5.104032e-02 4.670025e-02 6.577949e-03 -6.086726e-03 1.343502e-02 -5.501249e-02 -5.281273e-02 -2.602217e-02 -1.546990e-02 -1.364643e-02 2.865078e-03 3.512292e-02 -4.845233e-02 -1.036204e-02 -2.106804e-02 -9.314770e-03 8.741600e-03 -1.722821e-02 -3.959217e-02 2.541608e-02 -1.762759e-02 -2.930718e-02 8.266497e-03 -2.804604e-02 -3.995291e-02 -3.363812e-02 -5.106673e-03 -2.366417e-02 7.102301e-03 -4.665171e-03 -4.560304e-02 -8.464019e-03 -5.221299e-02 -2.934611e-02 -1.261658e-02 -7.816147e-03 -1.590136e-02 -6.116495e-03 -2.203386e-02 3.003260e-02 -4.801393e-02 -3.162272e-02 2.549398e-02 3.710931e-03 -1.050751e-02 1.686389e-02 -3.306374e-03 -1.569305e-02 -2.096852e-02 -1.586698e-02 -8.306870e-03 -1.528575e-02 -2.040416e-02
-4.760432e-03 -2.230386e-02 -1.092087e-02 -2.388754e-02 1.051586e-02 1.546078e-03 1.213463e-02 -9.956027e-04 -2.007256e-02 -3.314522e-02 2.121569e-03 -3.180380e-02 -4.481174e-02 5.595621e-03 -6.833072e-03 1.323096e-04 -3.953126e-03 -1.710885e-02 3.099613e-02 -5.525735e-02 -2.467413e-02 -6.969801e-02 -4.315341e-02 -2.556383e-02 -8.284744e-04 5.088140e-03 -2.263003e-02 -3.141443e-03 -2.097234e-02 -9.034513e-03 3.688939e-02 -5.486854e-02 -2.565765e-02 9.979622e-03 -6.729952e-02 -1.082914e-02 2.005561e-02 -4.346316e-03 -9.396615e-03 -2.175697e-02 -5.276408e-02 -4.882425e-03 -2.123862e-02 -4.240509e-02 -4.277974e-02 2.474807e-02 -1.556222e-02 -3.105889e-02 -1.863160e-02 9.911174e-03 -2.644151e-02 -4.484819e-02 -3.638372e-02 3.393220e-03 -2.068085e-02 2.391605e-02 -1.052334e-03 -5.242219e-02 -2.830343e-02 9.106651e-03 -1.208513e-02 1.231932e-02 -3.245978e-02 -3.172403e-02
1.062747e+00 2.651929e-01 3.036605e-01 4.193505e-01 7.680613e-01 -5.502094e-01 9.464008e-01 1.458358e-01 9.082048e-02 4.650076e-02 -2.125115e-01 1.238977e-01 1.468342e-01 -2.164669e+00 -8.872973e-01 -2.732836e-01 -1.547677e-01 1.484895e-01 -6.481518e-01 -2.624358e-01 -4.466752e-02 5.946997e-01 -1.028491e-01 7.201244e-01 5.459676e-01 -5.333086e-01 -2.406257e-01 8.306329e-01 -1.173660e-01 -2.729150e-01 1.186004e-01 -1.386836e-01 3.971823e-02 4.983835e-01 -3.321660e-01 -2.123464e-01 -1.007917e+01 -1.162934e-01 -2.956447e-01 5.912127e-01 -8.768427e-02 -1.187716e-01 1.460578e-01 8.438694e-01 -5.383369e-01 6.415223e-01 -1.637713e-02 9.445931e-01 -3.193954e-02 1.098913e-01 -1.524448e-01 -3.921757e-03 -7.805117e-01 4.045284e-01 1.227155e-01 1.974599e-01 -7.379502e-01 -6.107706e+00 -3.130564e-01 6.607374e-03 -2.298252e-01 -4.730959e-02 1.572867e+00 -1.318363e-01
-4.793743e-03 -2.609240e-01 -6.292887e-02 -9.963777e-02 3.724154e-02 1.923263e-02 -1.271744e-01 6.073274e-02 6.125783e-02 -3.516585e-01 -1.215379e-01 3.167270e-01 -2.376904e-02 -3.727443e-01 -8.822845e-02 1.090028e-01 -2.121492e-01 3.774078e-01 1.271412e-01 -6.431823e-02 4.849265e-01 4.852566e-01 -3.485749e-01 9.883024e-01 4.127749e-01 5.205628e-01 1.354080e-01 -1.148937e-01 -3.240155e-01 1.438935e-01 2.403184e-04 -2.134776e-01 -1.995039e-01 3.806955e-01 -2.912509e-01 5.692828e-02 -2.846434e-01 -7.667480e-05 -2.589681e-02 1.447038e-01 -4.233904e-01 -4.612211e-03 -3.035412e-01 -3.254468e-01 -2.568410e-01 -1.184181e-01 -1.349752e-01 5.961321e-02 1.323148e-01 3.361312e-01 -2.011173e-02 -1.940659e-01 1.547890e-01 -6.586931e-01 4.361143e-01 -5.474735e-01 -4.017387e-01 -5.124166e+00 -7.073361e-02 1.771557e-01 4.723282e-02 7.291541e-02 1.930832e-01 2.797846e-01
1.503284e-01 3.402687e-02 -8.202133e-02 3.184873e-01 -3.161934e-01 9.746925e-01 1.372773e+00 1.005211e-01 2.738838e-01 3.760985e-01 -3.430965e-01 -4.622484e-01 -1.581643e-01 3.922675e-02 -1.467134e-02 9.508306e-02 9.974961e-01 2.634028e-01 -2.278047e-01 2.556458e-01 2.910732e-01 4.814683e-01 -3.387210e-01 2.390954e-01 1.234828e-01 -3.488718e-01 -2.106841e-02 -1.852930e-01 6.593341e-01 1.055194e+00 3.832330e-01 9.483659e-02 2.110145e-01 8.123316e-02 -2.250778e-01 8.422469e-02 5.592567e-01 -5.531494e-03 -1.127863e+00 -3.878822e-01 2.948410e-01 6.321463e-02 1.975241e-01 2.919499e-01 -1.169185e+00 -9.382194e-01 1.022987e+00 5.701156e-01 6.995167e-02 3.491910e-01 -5.758221e-02 -3.177531e-01 6.289735e-01 -1.014262e-01 1.882648e-01 3.551866e-01 -2.909762e-01 -6.051404e+00 1.498431e-01 -1.008773e+00 7.941635e-02 1.274631e-01 9.109591e-01 2.779597e-01
-2.169142e-02 -1.046851e-02 1.943260e-02 -1.591242e-02 -1.798743e-02 -1.011963e-02 3.463280e-02 1.149205e-02 8.596241e-03 1.424201e-03 -4.915945e-03 1.974633e-02 -2.360380e-02 1.838572e-02 -4.609755e-02 6.083780e-03 2.029201e-03 -4.328346e-03 8.387219e-03 2.087195e-02 9.161831e-03 -3.296724e-02 -4.319370e-02 -2.492676e-02 -3.076329e-02 3.968499e-03 5.385851e-03 -3.354261e-02 -4.057574e-02 1.489319e-02 -8.186928e-03 1.982580e-02 3.038113e-02 -1.164896e-02 -4.151565e-03 -1.209996e-02 -4.691643e-02 -3.778564e-02 -2.602829e-02 -2.061545e-03 -6.176908e-03 1.301407e-03 7.302840e-03 1.096901e-02 -8.679485e-03 -1.052177e-02 1.094497e-02 -1.844485e-02 1.228353e-02 -2.030573e-02 -2.924275e-02 3.049809e-02 -2.157330e-02 -4.845590e-03 2.866272e-03 -3.175757e-02 -2.331365e-02 1.591331e-02 -2.711819e-03 -3.988282e-02 -2.664640e-02 -5.950348e-03 -4.696316e-02 -4.060791e-03
-1.567838e-01 -1.179885e-01 -1.421904e-01 -1.427422e+00 -1.922002e-01 1.800020e-01 -2.611899e-01 3.305250e-01 3.736474e-01 7.893544e-01 1.254261e+00 -3.484424e-01 4.669080e-02 4.816112e-01 5.535899e-01 -1.930809e-01 -2.226139e-01 -3.198137e-01 -2.035560e+00 2.148496e-01 -7.206067e-01 3.602819e-01 -8.763363e-02 -3.740911e-01 7.635271e-01 1.193506e+00 -2.569022e-01 -8.172752e-01 2.100713e-01 -5.840764e-02 -4.016631e-01 -4.124174e-01 2.237942e-01 -2.401994e-01 -9.059365e-01 6.330240e-02 3.286486e-01 9.955158e-02 -1.088100e-01 -3.415302e-01 -1.377989e+00 -8.194203e-02 -7.874011e-01 -1.635881e-02 3.784972e-01 -2.784033e-01 2.129842e-01 4.095398e-01 1.654260e-01 1.590709e-01 1.973874e-01 1.763051e-01 3.413075e-01 6.009984e-02 1.088784e-01 -3.781721e-01 2.273693e-02 -7.789273e-01 -1.283633e-01 5.004500e-01 -6.958708e-01 6.797495e-01 4.334082e-01 -1.845306e-01
-3.251299e-02 -1.531538e-02 2.665671e-02 -1.541044e-02 1.676181e-02 -2.267788e-02 1.146103e-02 8.445100e-03 -9.889350e-03 2.699135e-03 -3.139267e-03 -1.541416e-02 -4.991973e-02 1.031590e-02 -1.059964e-02 -2.447626e-02 -4.520651e-03 -2.633441e-02 -2.633632e-02 -2.900887e-02 -1.318845e-02 -2.062545e-02 -1.544623e-02 -1.550858e-02 -6.051948e-02 7.992099e-03 3.789340e-02 -1.064591e-02 -2.159488e-02 -7.260923e-03 -2.285189e-02 -2.364123e-02 -2.282587e-02 -1.094068e-02 2.046621e-02 2.630664e-02 3.121442e-04 8.175503e-03 -7.378131e-03 3.639584e-02 -4.782482e-02 -2.588423e-03 1.076126e-03 -1.388035e-02 -3.491904e-02 -5.832873e-02 -1.303544e-02 -2.979613e-02 -1.810034e-02 5.820433e-04 -1.325147e-02 -9.108473e-03 -1.393740e-02 3.993175e-03 -2.201585e-02 -2.112236e-02 -5.921745e-03 -1.390710e-02 -7.469494e-03 -1.535549e-02 -1.353650e-03 -2.823320e-02 1.546559e-02 -5.743486e-04
-6.539910e+00 6.298340e-01 4.183309e-01 1.025951e+00 -4.765161e-01 -3.691375e-01 2.876606e-01 7.732573e-02 1.919706e-01 7.219350e-01 -1.883778e-01 4.721447e-02 -2.805507e-02 4.313249e-01 6.428726e-01 3.599264e-01 -8.254113e-02 1.328332e-01 -9.754025e-01 9.717551e-01 -1.366290e-01 2.304346e-01 5.093444e-02 -2.592455e+00 -2.622112e-01 1.196385e+00 -1.176229e+00 7.513912e-01 -2.909511e-01 -1.105477e+00 -4.804719e-01 -6.665905e-01 6.830776e-01 4.695712e-01 2.682549e-01 -4.903571e-01 -3.267230e-01 1.217925e-01 -5.873367e-01 -9.660836e-02 1.256996e-01 1.767493e-01 -1.594392e-01 9.893034e-01 -2.006899e-01 1.583994e+00 1.214400e+00 -9.646915e-02 -4.963151e-02 -1.098874e-01 2.443874e-01 1.421359e+00 -1.839717e-01 2.844877e-01 6.292269e-02 6.347460e-01 -4.461081e-01 -5.688039e+00 -3.369062e-01 7.036833e-01 -4.022634e-01 3.759223e-01 -5.614746e-01 6.686164e-01
