2.746573e-02
-2.252952e-02
-5.063713e-01
-8.389066e-01
-3.161403e-01
3.581988e-01
-4.528730e-01
6.448152e-01
4.223559e-01
-3.397719e-01
-8.090436e-01
-3.761873e-01
-1.077740e+00
5.333621e-02
-8.853695e-01
5.282672e-02
-4.803601e-01
1.718415e-01
-1.175675e+00
-2.630493e-01
-7.321509e-01
-6.376164e-01
-7.930353e-01
-6.503286e-01
2.007441e-01
5.141823e-01
-4.144117e-01
-7.822425e-01
-1.223613e-01
-1.436509e-01
3.544820e-01
-1.210725e+00
8.893210e-03
1.132457e-01
-9.144248e-01
2.403767e-01
-2.460866e-01
2.737606e-01
1.788707e-01
5.080358e-02
-4.840961e-01
-9.683163e-02
5.071505e-01
1.450759e-03
-1.146392e+00
-7.367428e-01
-9.391998e-01
-8.125987e-02
-2.836188e-01
-1.370914e+00
-1.513323e-01
9.871090e-01
-6.554657e-01
1.211164e-01
-1.070812e+00
9.730988e-02
-3.105654e-02
-8.451929e-01
-2.809431e-01
-1.056688e-01
-7.467473e-01
2.078949e-01
-5.883685e-01
-5.314938e-01
-9.012070e-02
-1.227216e+00
-1.656756e-02
-4.834784e-01
-7.893042e-01
-4.403010e-01
-8.937375e-03
-9.389931e-01
-7.938147e-01
-4.422824e-01
-6.412884e-01
-2.188246e+00
4.237804e-01
-8.624815e-01
-7.417999e-01
-1.038127e+00
7.884207e-01
-1.772673e-01
-6.380302e-01
-9.732809e-01
-1.168275e+00
-2.222927e-01
-4.512450e-01
-5.982375e-01
-1.743100e+00
-1.196429e+00
-2.567722e-03
-8.367751e-01
-1.509802e-02
2.928396e-01
-3.239161e-01
-3.694187e-01
-4.385306e-02
-8.327255e-02
-1.450668e-02
-3.818574e-01
-1.256950e-01
-5.252032e-01
-1.655602e-02
7.917886e-01
-3.461211e-01
-4.199099e-01
-4.324452e-03
-1.709198e-02
-5.238199e-01
3.082464e-01
-1.765775e+00
-6.518724e-03
-9.552688e-01
-1.586080e-02
-6.806018e-01
-1.875200e+00
-1.977136e+00
-9.802249e-01
4.576185e-01
3.068157e-01
5.244713e-01
5.000752e-01
4.376681e-01
3.591958e-01
7.566501e-01
-3.959616e-01
5.839573e-01
-1.878936e-01
